{
  "model_architecture": {
    "input_size": 72,
    "hidden_size": 64,
    "output_size": 24,
    "num_layers": 1
  },
  "parameters": {
    "lstm.weight_ih_l0": [
      [
        -0.04714643582701683,
        -0.09876199811697006,
        0.09022795408964157,
        0.030960774049162865,
        -0.023065699264407158,
        0.008376026526093483,
        0.05873885005712509,
        0.0577591136097908,
        0.04767710715532303,
        -0.082689069211483,
        0.04195159301161766,
        -0.00892762839794159,
        -0.06881115585565567,
        -0.08446846902370453,
        -0.040969088673591614,
        0.012556551955640316,
        0.0893973708152771,
        0.024236464872956276,
        0.04817237704992294,
        0.057620033621788025,
        0.12216184288263321,
        -0.06844417005777359,
        -0.07387199252843857,
        0.14066600799560547,
        -0.08219831436872482,
        -0.0392150916159153,
        -0.09212649613618851,
        0.11391784995794296,
        0.07327986508607864,
        0.03407450020313263,
        0.03890735283493996,
        0.06064854562282562,
        0.09326709061861038,
        0.02232048474252224,
        -0.022002190351486206,
        -0.0012813552748411894,
        0.09599361568689346,
        0.11394857615232468,
        -0.027708128094673157,
        -0.054963186383247375,
        -0.0758320763707161,
        0.15235117077827454,
        0.13807648420333862,
        0.13798286020755768,
        0.006121405400335789,
        -0.027933593839406967,
        0.14102703332901,
        0.07092547416687012,
        0.037065088748931885,
        0.041767846792936325,
        -0.03692397102713585,
        0.009185494855046272,
        0.08509426563978195,
        0.026976410299539566,
        0.04676618427038193,
        0.09956815093755722,
        0.0037851608358323574,
        0.09504059702157974,
        -0.0574241541326046,
        0.12985853850841522,
        0.13040390610694885,
        0.06142007187008858,
        0.13048943877220154,
        0.09504777193069458,
        0.028831584379076958,
        0.03966696560382843,
        -0.03885190188884735,
        0.07691173255443573,
        0.11097746342420578,
        0.03306383639574051,
        0.012934948317706585,
        -0.0240012276917696
      ],
      [
        -0.10086754709482193,
        -0.11342289298772812,
        -0.1169653832912445,
        0.05765514448285103,
        -0.09800099581480026,
        0.06287936121225357,
        0.081514872610569,
        0.071190245449543,
        0.10098455846309662,
        0.05179544538259506,
        0.065275177359581,
        -0.06115977093577385,
        -0.052720602601766586,
        -0.11818157136440277,
        0.08386892080307007,
        0.11223666369915009,
        0.00887757446616888,
        -0.09713507443666458,
        0.04375644773244858,
        -0.108940988779068,
        -0.11625449359416962,
        -0.08112595230340958,
        -0.04448903352022171,
        -0.05173161253333092,
        0.10719484090805054,
        -0.04141414165496826,
        -0.006009350530803204,
        -0.09937050193548203,
        -0.02365076169371605,
        0.0818328708410263,
        -0.06417465955018997,
        0.03272043168544769,
        0.02265183813869953,
        -0.07623912394046783,
        -0.039752669632434845,
        -0.0022752576041966677,
        -0.045810502022504807,
        0.01722734235227108,
        0.128153458237648,
        -0.09646409749984741,
        -0.035029634833335876,
        -0.028035514056682587,
        -0.07430007308721542,
        -0.11534499377012253,
        -0.047754205763339996,
        -0.10069192945957184,
        -0.04995602369308472,
        -0.08525196462869644,
        0.11066394299268723,
        0.107017382979393,
        -0.10077396780252457,
        -0.07148671895265579,
        -0.09179805219173431,
        0.06022713705897331,
        -0.04682367295026779,
        -0.07035261392593384,
        -0.06299472600221634,
        0.1427178978919983,
        0.0018611480481922626,
        0.04344616457819939,
        0.05811868980526924,
        0.007203839253634214,
        0.10337426513433456,
        0.14119930565357208,
        -0.09327192604541779,
        -0.09086821228265762,
        0.004712396766990423,
        0.013802937231957912,
        0.06304550915956497,
        0.13355277478694916,
        0.08745032548904419,
        0.09166324883699417
      ],
      [
        -0.0846814438700676,
        0.003924819175153971,
        0.10488861054182053,
        -0.0283968523144722,
        0.03810705617070198,
        0.11733675003051758,
        0.09826681017875671,
        0.035942193120718,
        -0.007496968377381563,
        0.05990859866142273,
        0.10117647051811218,
        -0.007068228907883167,
        0.0030094676185399294,
        0.12973882257938385,
        0.058577973395586014,
        0.07624593377113342,
        -0.05152713507413864,
        -0.08612712472677231,
        -0.10281632095575333,
        -0.031007464975118637,
        -0.02879107929766178,
        -0.014176526106894016,
        -0.07200077176094055,
        -0.09150715172290802,
        0.013455932028591633,
        -0.08858858793973923,
        0.12039019167423248,
        -0.017990225926041603,
        0.08518560230731964,
        0.11469481885433197,
        0.02441749908030033,
        0.04690112546086311,
        0.11086608469486237,
        0.14415672421455383,
        -0.047115422785282135,
        0.018573051318526268,
        -0.07715059816837311,
        0.08511896431446075,
        -0.04247506335377693,
        0.03695199638605118,
        0.03956732153892517,
        0.039765771478414536,
        0.10252949595451355,
        0.08086185157299042,
        -0.01196478120982647,
        -0.018996184691786766,
        0.023211175575852394,
        0.11062519252300262,
        -0.1076456606388092,
        -0.05666544660925865,
        0.07311151176691055,
        -0.03915282338857651,
        0.05163760110735893,
        -0.00850839912891388,
        0.04796979948878288,
        -0.05778604745864868,
        0.09921234846115112,
        0.1312665194272995,
        -0.04599325358867645,
        0.05527832731604576,
        -0.006259469781070948,
        -0.08374125510454178,
        -0.044962625950574875,
        0.0807376429438591,
        -0.05737674608826637,
        0.10245309770107269,
        -0.12989981472492218,
        0.046288080513477325,
        -0.04580722749233246,
        -0.016737716272473335,
        -0.06212863326072693,
        0.11620938032865524
      ],
      [
        0.11779257655143738,
        -0.005000985227525234,
        -0.10691988468170166,
        -0.04109808802604675,
        -0.06116429716348648,
        -0.06438066065311432,
        0.12640942633152008,
        -0.05104241892695427,
        -0.04169924557209015,
        0.12569406628608704,
        0.09509246796369553,
        0.10776866972446442,
        0.10437966883182526,
        0.0006395013770088553,
        -0.10169646143913269,
        -0.0898536667227745,
        0.11852482706308365,
        0.06087708845734596,
        -0.02229573205113411,
        -0.025624245405197144,
        0.02990660071372986,
        0.03148050978779793,
        -0.0013578302459791303,
        0.11989778280258179,
        0.1308944672346115,
        -0.05720127001404762,
        0.10406579077243805,
        -0.0012877591652795672,
        0.11662614345550537,
        0.023101357743144035,
        -0.06747031956911087,
        -0.025416694581508636,
        -0.02216600812971592,
        -0.07500239461660385,
        0.13233228027820587,
        0.1407250165939331,
        0.06773845851421356,
        0.13927845656871796,
        0.027780745178461075,
        -0.09029459953308105,
        0.1273379921913147,
        0.10886562615633011,
        0.12070193141698837,
        -0.030837932601571083,
        0.038399770855903625,
        0.08018951117992401,
        -0.03467228263616562,
        0.06761565804481506,
        -0.05722943693399429,
        0.07437664270401001,
        -0.032227035611867905,
        0.10422073304653168,
        0.12832200527191162,
        0.027974504977464676,
        0.14450934529304504,
        0.1402217447757721,
        0.13306234776973724,
        0.1105334609746933,
        0.006448695901781321,
        -0.03798292204737663,
        -0.01885870099067688,
        0.122653529047966,
        -0.06959561258554459,
        0.03914596140384674,
        -0.030746860429644585,
        -0.05181287229061127,
        0.02376289665699005,
        0.15236057341098785,
        0.006921491585671902,
        0.04047621041536331,
        0.014199941419064999,
        0.07573021203279495
      ],
      [
        0.007009140681475401,
        -0.0932149663567543,
        0.01987990364432335,
        -0.06564825773239136,
        0.029602954164147377,
        0.10526865720748901,
        0.0259659793227911,
        -0.00879391748458147,
        0.050114307552576065,
        -0.04622482880949974,
        0.004335205536335707,
        -0.12047171592712402,
        0.05911530181765556,
        -0.1289995312690735,
        0.0945962443947792,
        -0.09239064157009125,
        -0.08656713366508484,
        0.09773729741573334,
        -0.011525732465088367,
        -0.08622081577777863,
        0.08847644180059433,
        0.10394775122404099,
        -0.046148695051670074,
        0.0356837622821331,
        0.10494719445705414,
        -0.001054737949743867,
        -0.07907580584287643,
        0.05092112347483635,
        -0.10487041622400284,
        -0.1306581199169159,
        0.02571236714720726,
        0.05182024464011192,
        -0.10444413870573044,
        -0.016326554119586945,
        -0.03869876638054848,
        0.06296493858098984,
        -0.01821034774184227,
        -0.05509036406874657,
        -0.11286457628011703,
        0.031677328050136566,
        -0.12636905908584595,
        0.10204499214887619,
        -0.04388250410556793,
        0.054775137454271317,
        0.023900292813777924,
        0.1144942119717598,
        -0.0023897686041891575,
        -0.12255802750587463,
        -0.12268292158842087,
        0.008014898747205734,
        -0.09237678349018097,
        0.08592024445533752,
        0.01422601006925106,
        -0.0794096365571022,
        0.08789266645908356,
        0.002021240070462227,
        0.03854883089661598,
        -0.14466053247451782,
        0.028928812593221664,
        0.058817170560359955,
        -0.11413893103599548,
        0.03669518977403641,
        0.08992728590965271,
        -0.05504210665822029,
        -0.03683910146355629,
        0.05575863644480705,
        0.05496029183268547,
        -0.09197191148996353,
        -0.10916563868522644,
        -0.008816132321953773,
        -0.1329813152551651,
        0.08974458277225494
      ],
      [
        0.12975886464118958,
        0.1608307808637619,
        -0.0483507476747036,
        0.1689472645521164,
        0.07007743418216705,
        0.03228623420000076,
        0.00532208988443017,
        0.10467580705881119,
        0.048588141798973083,
        -0.019997112452983856,
        -0.027365686371922493,
        -0.10973629355430603,
        -0.001376057742163539,
        -0.03266299515962601,
        -0.07344947010278702,
        -0.0012391606578603387,
        -0.1283784955739975,
        -0.11846501380205154,
        -0.053745388984680176,
        0.0799890086054802,
        0.045984599739313126,
        0.049268290400505066,
        0.12098593264818192,
        0.012420671060681343,
        0.13565708696842194,
        0.005274491850286722,
        0.08093307167291641,
        0.14700965583324432,
        0.15030857920646667,
        0.029864711686968803,
        -0.03764195740222931,
        -0.02044052630662918,
        0.015595666132867336,
        0.013342676684260368,
        -0.018812015652656555,
        -0.09690513461828232,
        -0.016966085880994797,
        -0.03602832183241844,
        -0.00984148494899273,
        -0.09159679710865021,
        -0.024412427097558975,
        -0.07138904929161072,
        -0.10477716475725174,
        0.1279994696378708,
        0.12220526486635208,
        -0.011379839852452278,
        0.18241184949874878,
        0.08630653470754623,
        0.11133556813001633,
        0.02027677558362484,
        0.10755539685487747,
        0.0965140238404274,
        0.024833671748638153,
        0.10195206105709076,
        0.09501342475414276,
        0.09103301912546158,
        0.01602361351251602,
        0.09852153062820435,
        -0.06823498010635376,
        -0.06023045629262924,
        -0.011311078444123268,
        -0.09641293436288834,
        0.013985426165163517,
        -0.08347032219171524,
        0.007230981718748808,
        -0.0261858981102705,
        -0.06485868990421295,
        0.04543212056159973,
        0.02366684004664421,
        0.07602885365486145,
        0.04333775117993355,
        0.008280012756586075
      ],
      [
        -0.050533562898635864,
        0.0396515317261219,
        -0.07861711829900742,
        0.07612479478120804,
        -0.12780028581619263,
        -0.13081955909729004,
        -0.10359997302293777,
        0.057797785848379135,
        -0.15125630795955658,
        -0.08073548227548599,
        0.016167229041457176,
        0.017209336161613464,
        -0.08386892080307007,
        0.07510793954133987,
        0.14387920498847961,
        0.019620642066001892,
        0.11770472675561905,
        0.026214536279439926,
        -0.024442503228783607,
        -0.054027166217565536,
        -0.07297039777040482,
        0.05901347100734711,
        0.008641690947115421,
        0.019899237900972366,
        -0.07099593430757523,
        -0.15251867473125458,
        0.05588990077376366,
        -0.041055116802453995,
        0.014565975405275822,
        -0.06849779933691025,
        -0.04076923802495003,
        -0.012739986181259155,
        -0.13971911370754242,
        0.010364731773734093,
        0.014439338818192482,
        -0.12443134933710098,
        -0.08844897150993347,
        0.016985923051834106,
        -0.02149370312690735,
        0.12132616341114044,
        -0.028819482773542404,
        0.11063306778669357,
        0.004699049051851034,
        0.14219358563423157,
        0.06724225729703903,
        0.030822845175862312,
        -0.009194371290504932,
        0.04385698586702347,
        0.021024025976657867,
        -0.043040186166763306,
        -0.15365682542324066,
        0.06898629665374756,
        0.025267990306019783,
        -0.029768453910946846,
        0.011483442038297653,
        0.06970439106225967,
        0.09974639117717743,
        -0.02800651453435421,
        -0.006920293904840946,
        0.03630627691745758,
        0.137064129114151,
        0.18986362218856812,
        -0.04660743102431297,
        -0.035132572054862976,
        0.13021838665008545,
        0.13213007152080536,
        -0.0007490133284591138,
        0.14198997616767883,
        0.008594024926424026,
        -0.045933112502098083,
        -0.03966866433620453,
        0.09163761138916016
      ],
      [
        -0.0398574024438858,
        0.056217536330223083,
        0.017352383583784103,
        0.03163234144449234,
        -0.08174845576286316,
        0.08647949993610382,
        -0.06338085979223251,
        -0.06911520659923553,
        -0.12660039961338043,
        -0.030341267585754395,
        -0.1596987098455429,
        0.01193775050342083,
        -0.14903923869132996,
        0.059198200702667236,
        -0.029906729236245155,
        0.06494341045618057,
        -0.13151675462722778,
        0.10282176733016968,
        0.01153493206948042,
        0.09936371445655823,
        -0.0890340805053711,
        -0.08748756349086761,
        -0.035260189324617386,
        -0.0353073887526989,
        -0.02584332600235939,
        0.03834005817770958,
        -0.11413561552762985,
        0.10693006217479706,
        -0.03679845482110977,
        -0.12202158570289612,
        -0.07394012063741684,
        -0.13573625683784485,
        -0.13781335949897766,
        -0.019904691725969315,
        -0.16550958156585693,
        0.06097989156842232,
        -0.15118375420570374,
        -0.06770674884319305,
        -0.1403922438621521,
        -0.13293983042240143,
        -0.06684210151433945,
        -0.06359810382127762,
        -0.02692859247326851,
        0.1400160938501358,
        0.044618189334869385,
        0.1428522914648056,
        -0.0638761818408966,
        0.046247925609350204,
        0.026094160974025726,
        -0.048776108771562576,
        0.03437263146042824,
        0.12701433897018433,
        -0.09878311306238174,
        0.06737487018108368,
        0.01090365182608366,
        0.03484370559453964,
        -0.06181047484278679,
        0.016541117802262306,
        -0.09165260940790176,
        -0.15221239626407623,
        -0.09300547093153,
        -0.06846041977405548,
        0.11597483605146408,
        0.1224355474114418,
        -0.045931633561849594,
        -0.05537666380405426,
        -0.01999509707093239,
        0.12867838144302368,
        0.10056429356336594,
        0.17484763264656067,
        0.1552734524011612,
        0.10786841809749603
      ],
      [
        0.1515253484249115,
        0.13141684234142303,
        -0.026073245331645012,
        -0.06717783957719803,
        -0.033913224935531616,
        -0.06060810014605522,
        -0.04187673330307007,
        0.060195665806531906,
        -0.0171420406550169,
        0.1406790167093277,
        0.01605461910367012,
        0.09364631026983261,
        0.04468316212296486,
        0.13525517284870148,
        0.025904040783643723,
        -0.012812909670174122,
        -0.04509168118238449,
        0.015791665762662888,
        -0.009770886972546577,
        -0.08537916839122772,
        0.04842289537191391,
        -0.013941576704382896,
        0.021917957812547684,
        0.12377690523862839,
        -0.03240450844168663,
        -0.02166697196662426,
        -0.026914391666650772,
        0.08869251608848572,
        0.1349947601556778,
        -0.07822123169898987,
        -0.014176324009895325,
        0.11567706614732742,
        0.1039707362651825,
        -0.009712939150631428,
        0.14241410791873932,
        -0.053611744195222855,
        -0.0649644210934639,
        -0.03547906130552292,
        0.01684962958097458,
        0.05005471408367157,
        0.14051897823810577,
        0.042448051273822784,
        0.06505659967660904,
        0.11861571669578552,
        0.12249835580587387,
        0.02318899892270565,
        0.08556169271469116,
        -0.06674426048994064,
        0.06350318342447281,
        0.02459762990474701,
        0.07388409972190857,
        0.06769074499607086,
        -0.02876715548336506,
        0.050839103758335114,
        0.10806512832641602,
        -0.05368198826909065,
        0.14689837396144867,
        0.13780513405799866,
        0.11145320534706116,
        0.14547936618328094,
        0.06439290195703506,
        -0.00045890003093518317,
        0.14805272221565247,
        0.03637941554188728,
        0.11266251653432846,
        0.07239652425050735,
        0.029981715604662895,
        0.13517744839191437,
        0.15504339337348938,
        0.02486010454595089,
        0.021604744717478752,
        -0.038400065153837204
      ],
      [
        0.04760079085826874,
        0.08488265424966812,
        -0.0259524118155241,
        -0.027753155678510666,
        0.11856523156166077,
        0.056149013340473175,
        -0.05161308869719505,
        0.010367605835199356,
        0.0012548547238111496,
        0.13221649825572968,
        0.019596029072999954,
        -0.016443481668829918,
        0.06514889746904373,
        0.11345084011554718,
        0.11481795459985733,
        0.1101592406630516,
        -0.11332929879426956,
        0.03342916816473007,
        0.09911283850669861,
        -0.05931000038981438,
        0.03210362046957016,
        -0.0004228815087117255,
        -0.05596751719713211,
        -0.09006968885660172,
        0.02368115819990635,
        -0.060043297708034515,
        0.06999107450246811,
        0.13112393021583557,
        0.0442093126475811,
        0.001383105874992907,
        -0.08559273183345795,
        -0.023204118013381958,
        0.021405242383480072,
        0.11384396255016327,
        0.041744623333215714,
        -0.10707356035709381,
        0.059772223234176636,
        -0.09533382207155228,
        0.0660649836063385,
        0.13234207034111023,
        -0.05386323854327202,
        0.05258128046989441,
        0.0798654854297638,
        0.056762099266052246,
        0.0536036379635334,
        0.12493287771940231,
        0.03816872835159302,
        0.10979034006595612,
        0.12748639285564423,
        -0.04511911794543266,
        0.047281015664339066,
        0.01732824742794037,
        -0.005553748458623886,
        -0.03187260031700134,
        0.05935784429311752,
        -0.012319046072661877,
        0.05466558411717415,
        -0.0045702471397817135,
        -0.09353969991207123,
        0.059161871671676636,
        0.12850260734558105,
        0.02201235294342041,
        0.13026469945907593,
        -0.07596432417631149,
        -0.02527477592229843,
        -0.10395680367946625,
        0.12481594830751419,
        -0.10941832512617111,
        -0.0614442341029644,
        -0.0788358822464943,
        0.13578957319259644,
        0.07357492297887802
      ],
      [
        -0.04748222604393959,
        -0.05233944579958916,
        0.010616721585392952,
        0.028254300355911255,
        0.027540601789951324,
        -0.08043600618839264,
        -0.06505952775478363,
        0.06996806710958481,
        -0.09972355514764786,
        0.11519187688827515,
        0.0315028615295887,
        -0.11791997402906418,
        0.0247853584587574,
        0.046930067241191864,
        -0.032368820160627365,
        -0.09706364572048187,
        -0.10606513172388077,
        0.09643587470054626,
        -0.07605200260877609,
        -0.028850533068180084,
        -0.029412729665637016,
        0.08823279291391373,
        0.015237710438668728,
        -0.0893925130367279,
        0.007560869213193655,
        -0.08730078488588333,
        -0.09881052374839783,
        0.052279550582170486,
        -0.032652102410793304,
        -0.042393945157527924,
        -0.020969560369849205,
        0.09402782469987869,
        -0.06424806267023087,
        -0.0744192898273468,
        -0.07218154519796371,
        0.027102695778012276,
        -0.0347151942551136,
        0.11082495003938675,
        -0.07342224568128586,
        0.039198849350214005,
        0.10797654837369919,
        0.0358823761343956,
        -0.11448144167661667,
        -0.02310771681368351,
        -0.06135199964046478,
        0.09709084033966064,
        -0.08478906005620956,
        -0.04570968821644783,
        0.08509395271539688,
        0.023577632382512093,
        0.06356155872344971,
        0.11434857547283173,
        0.05911074951291084,
        -0.010055824182927608,
        -0.07506999373435974,
        -0.015129392966628075,
        0.12962891161441803,
        0.09608766436576843,
        0.04930805787444115,
        0.009346669539809227,
        0.12369759380817413,
        -0.030897878110408783,
        0.10672435909509659,
        0.10026921331882477,
        0.04996465519070625,
        -0.06955678015947342,
        -0.016531188040971756,
        0.0806618481874466,
        0.0843067318201065,
        0.1157383993268013,
        -0.029028553515672684,
        0.08704474568367004
      ],
      [
        -0.018837852403521538,
        0.022995872423052788,
        0.04835578799247742,
        -0.03286256268620491,
        0.05407428368926048,
        0.10280180722475052,
        0.1254482865333557,
        -0.05095762386918068,
        0.048841457813978195,
        -0.012004036456346512,
        -0.00918068177998066,
        0.04940658062696457,
        -0.018681446090340614,
        0.0865454450249672,
        -0.03770751878619194,
        0.05820249393582344,
        0.07424085587263107,
        -0.1188371405005455,
        -0.09603864699602127,
        0.03540053963661194,
        0.033168431371450424,
        -0.08388081192970276,
        0.04772172495722771,
        -0.010323247872292995,
        -0.07952944934368134,
        0.0897926315665245,
        -0.08635600656270981,
        -0.0021092621609568596,
        -0.03851669654250145,
        0.039726633578538895,
        0.10144776850938797,
        0.09132371097803116,
        -0.019798817113041878,
        -0.06801990419626236,
        -0.06272699683904648,
        -0.08802490681409836,
        0.10914172977209091,
        0.10337911546230316,
        0.10721754282712936,
        -0.014330433681607246,
        0.04329915717244148,
        0.04122108593583107,
        -0.021150637418031693,
        -0.1168459877371788,
        -0.06844500452280045,
        0.03873211145401001,
        0.05277746915817261,
        0.07731638848781586,
        -0.05580656975507736,
        0.03427425026893616,
        0.07544319331645966,
        0.07654815912246704,
        -0.05080514773726463,
        0.15791697800159454,
        0.049994293600320816,
        -0.03253575414419174,
        -0.02951689437031746,
        0.13183176517486572,
        -0.06240439787507057,
        -0.09501524269580841,
        0.059807855635881424,
        -0.06270422786474228,
        0.06494719535112381,
        -0.0016500301426276565,
        0.014913972467184067,
        0.03820209950208664,
        0.1160140186548233,
        -0.024821944534778595,
        -0.03733518719673157,
        0.024361679330468178,
        0.06755390018224716,
        0.1601019948720932
      ],
      [
        -0.02901068516075611,
        -0.08190823346376419,
        0.02498343400657177,
        0.035950254648923874,
        -0.0683656856417656,
        0.050276536494493484,
        -0.07051342725753784,
        -0.11015887558460236,
        -0.11440213024616241,
        0.1061912402510643,
        -0.06459678709506989,
        0.02377701923251152,
        -0.03402973338961601,
        0.1379987895488739,
        0.056332219392061234,
        -0.026354657486081123,
        0.17018885910511017,
        0.02838754467666149,
        -0.05167120322585106,
        -0.06073152273893356,
        -0.0455416701734066,
        0.08554954826831818,
        0.017880139872431755,
        -0.08978220820426941,
        -0.12421310693025589,
        -0.06794561445713043,
        0.04752064868807793,
        -0.051184676587581635,
        0.07487274706363678,
        0.08822640776634216,
        -0.08517542481422424,
        0.09072140604257584,
        -0.06998494267463684,
        0.11760778725147247,
        0.053062159568071365,
        0.049782536923885345,
        0.07867448031902313,
        0.027368856593966484,
        0.11386888474225998,
        -0.03541700914502144,
        -0.008490996435284615,
        0.0185331292450428,
        0.14910949766635895,
        0.016302701085805893,
        -0.008383277803659439,
        0.05199141055345535,
        0.13468226790428162,
        0.0660305917263031,
        0.07928658276796341,
        -0.06399500370025635,
        -0.060357965528964996,
        0.03480519726872444,
        -0.02667776495218277,
        -0.06463123112916946,
        -0.11728915572166443,
        -0.04571961238980293,
        0.10023491829633713,
        0.004909444600343704,
        0.0990886241197586,
        -0.05263066291809082,
        -0.029432354494929314,
        0.07976391166448593,
        0.10364042967557907,
        0.19137071073055267,
        0.12347982078790665,
        0.21031878888607025,
        0.17793510854244232,
        -0.0045042880810797215,
        0.12384440004825592,
        0.10570118576288223,
        0.13593219220638275,
        -0.0026724182534962893
      ],
      [
        0.08725980669260025,
        0.07217545807361603,
        -0.03949761390686035,
        -0.13406968116760254,
        0.02925875224173069,
        -0.05450686439871788,
        -0.09372986853122711,
        0.041935645043849945,
        0.0485936664044857,
        -0.07276429235935211,
        -0.12632305920124054,
        -0.07022633403539658,
        -0.10304363816976547,
        -0.09149140119552612,
        0.07648000121116638,
        -0.04412756487727165,
        0.04004661366343498,
        -0.07858501374721527,
        -0.1218230202794075,
        0.07562735676765442,
        0.027446728199720383,
        -0.09296738356351852,
        0.07090117782354355,
        -0.10480315238237381,
        -0.1391897201538086,
        -0.14156611263751984,
        -0.11966235190629959,
        -0.01799437217414379,
        0.030533993616700172,
        0.03446386009454727,
        -0.04796839877963066,
        0.10975558310747147,
        -0.11816719174385071,
        0.07204131036996841,
        0.07686646282672882,
        0.10121455788612366,
        0.056582894176244736,
        -0.008094028569757938,
        -0.11059053987264633,
        0.02241656556725502,
        0.10360334813594818,
        -0.08887746185064316,
        0.009704632684588432,
        -0.011250418610870838,
        0.04958410561084747,
        -0.011916924268007278,
        0.0014585091266781092,
        0.03293394669890404,
        -0.11479444056749344,
        -0.0234230924397707,
        0.034570250660181046,
        -0.09545769542455673,
        0.0643332377076149,
        -0.11116335541009903,
        0.07005099952220917,
        -0.06493491679430008,
        0.07411162555217743,
        -0.031063007190823555,
        -0.06541115045547485,
        -0.09463511407375336,
        -0.03934813663363457,
        -0.0929487869143486,
        -0.10122095793485641,
        0.10318456590175629,
        0.12704907357692719,
        0.01456192135810852,
        -0.08976157009601593,
        -0.06588498502969742,
        0.10565153509378433,
        -0.02831520326435566,
        -0.10544637590646744,
        0.10580384731292725
      ],
      [
        0.016207173466682434,
        0.0030770432204008102,
        -0.11292237788438797,
        -0.12104212492704391,
        -0.018033266067504883,
        -0.026302039623260498,
        -0.13659119606018066,
        -0.14710254967212677,
        -0.13521578907966614,
        -0.02983381226658821,
        0.01044490560889244,
        0.029085863381624222,
        0.07201426476240158,
        0.05378931388258934,
        -0.053710613399744034,
        0.0034878242295235395,
        0.006694970186799765,
        0.02091202326118946,
        -0.003814643481746316,
        -0.05561980977654457,
        -0.11936263740062714,
        -0.08147493004798889,
        -0.07877016812562943,
        -0.10456695407629013,
        0.046923864632844925,
        0.03783455863595009,
        -0.07128136605024338,
        -0.10202071815729141,
        -0.021515170112252235,
        0.05535297468304634,
        0.08866787701845169,
        -0.06901846081018448,
        0.0715516209602356,
        -0.04732467234134674,
        -0.04056360945105553,
        -0.04126662760972977,
        0.02177620306611061,
        0.01917204074561596,
        -0.004648080561310053,
        -0.11547083407640457,
        -0.04742742329835892,
        0.02599266730248928,
        -0.012931907549500465,
        0.08903317898511887,
        -0.0370822511613369,
        -0.03214768320322037,
        0.0012576582375913858,
        0.08259311318397522,
        0.046164169907569885,
        0.10051906108856201,
        -0.10973513126373291,
        -0.06122851371765137,
        0.037488844245672226,
        0.06666775047779083,
        0.05941839516162872,
        -0.02736985683441162,
        0.11472037434577942,
        -0.011921997182071209,
        -0.08786270767450333,
        0.0902479737997055,
        0.024787863716483116,
        0.12011602520942688,
        0.055666614323854446,
        0.15641705691814423,
        0.11422227323055267,
        0.14375470578670502,
        -0.016663597896695137,
        0.11768025904893875,
        0.12144888937473297,
        0.06432288885116577,
        0.005185278598219156,
        0.08908914029598236
      ],
      [
        -0.0893586128950119,
        -0.0074437507428228855,
        0.12865261733531952,
        -0.09974246472120285,
        -0.07086505740880966,
        0.11975744366645813,
        0.1287994384765625,
        0.013291046023368835,
        -0.016593975946307182,
        0.10435257852077484,
        -0.04659928008913994,
        0.058354027569293976,
        -0.061404697597026825,
        -0.03240944445133209,
        -0.06411633640527725,
        0.01351079810410738,
        -0.029950736090540886,
        0.07634936273097992,
        -0.06394349783658981,
        -0.06120750680565834,
        0.02634039893746376,
        -0.1082533746957779,
        0.11841390281915665,
        -0.11349915713071823,
        0.0712355524301529,
        0.05282056704163551,
        0.143124520778656,
        -0.05392410233616829,
        -0.002639549085870385,
        -0.011625717394053936,
        -0.08406639099121094,
        0.13224267959594727,
        0.08391816914081573,
        0.04132398962974548,
        -0.046339914202690125,
        -0.04901324585080147,
        0.12321975082159042,
        -0.09061206132173538,
        0.05782688409090042,
        0.028749871999025345,
        0.09557129442691803,
        -0.0026409171987324953,
        0.12249130010604858,
        0.029465965926647186,
        -0.11392360180616379,
        0.08940823376178741,
        -0.09434674680233002,
        0.06333715468645096,
        0.019023627042770386,
        0.004963005427271128,
        0.06695110350847244,
        0.15011675655841827,
        -0.027037959545850754,
        -0.0356098972260952,
        -0.03108949027955532,
        -0.01207741443067789,
        0.052466269582509995,
        0.12546955049037933,
        0.14358088374137878,
        0.038369983434677124,
        0.10344395786523819,
        0.09233186393976212,
        0.14621254801750183,
        0.1340462863445282,
        0.07295836508274078,
        0.034431710839271545,
        0.11691270768642426,
        0.017991021275520325,
        0.11137363314628601,
        -0.019584912806749344,
        -0.06477092951536179,
        0.14471489191055298
      ],
      [
        0.12081852555274963,
        0.1303654909133911,
        0.04990004748106003,
        0.16656537353992462,
        0.10425449907779694,
        0.00838844571262598,
        0.10154750943183899,
        0.01565767265856266,
        0.12892059981822968,
        -0.06811004132032394,
        0.025677742436528206,
        -0.06133689358830452,
        -0.11701614409685135,
        0.04003606736660004,
        0.030461883172392845,
        0.11118104308843613,
        -0.04266776517033577,
        0.11566371470689774,
        0.028067637234926224,
        0.12980704009532928,
        -0.08243338763713837,
        0.14492817223072052,
        0.1339123696088791,
        0.17375662922859192,
        0.18050912022590637,
        -0.024180054664611816,
        0.12692201137542725,
        0.11171441525220871,
        -0.04043174162507057,
        0.19579263031482697,
        -0.04018348455429077,
        -0.03031877987086773,
        0.05075724422931671,
        -0.0901409313082695,
        0.14193080365657806,
        0.04159858077764511,
        -0.07758379727602005,
        -0.03213485702872276,
        0.10216262191534042,
        0.07424914091825485,
        0.08686104416847229,
        0.001345265656709671,
        0.11678766459226608,
        0.02423907443881035,
        0.14519049227237701,
        0.1572948396205902,
        0.05955993011593819,
        0.17105935513973236,
        0.07504577934741974,
        -0.0040695262141525745,
        0.14162471890449524,
        0.13614077866077423,
        0.19943250715732574,
        0.15994276106357574,
        0.11567836999893188,
        0.12538322806358337,
        0.17249861359596252,
        -0.028984934091567993,
        -0.0077668726444244385,
        0.07852805405855179,
        -0.07347867637872696,
        -0.08743663132190704,
        0.016370723024010658,
        0.02555229514837265,
        -0.03914829343557358,
        0.025879599153995514,
        0.022868653759360313,
        0.12510177493095398,
        0.10081592947244644,
        0.0755087360739708,
        0.055321402847766876,
        -0.019763510674238205
      ],
      [
        -0.03650360181927681,
        -0.0511246919631958,
        -0.06266851723194122,
        0.0483730211853981,
        0.15186993777751923,
        0.057967305183410645,
        -0.03215037286281586,
        -0.010448792949318886,
        0.07758879661560059,
        0.09130371361970901,
        0.09232970327138901,
        0.10816280543804169,
        0.019280092790722847,
        -0.032482996582984924,
        0.12607406079769135,
        0.04143763706088066,
        0.08734575659036636,
        0.06225651502609253,
        0.0566159188747406,
        0.10099255293607712,
        -0.04429206624627113,
        0.07315660268068314,
        -0.08752530068159103,
        0.10967922955751419,
        0.10127739608287811,
        -0.04625318571925163,
        -0.024694297462701797,
        0.1438320428133011,
        0.07934218645095825,
        0.06469062715768814,
        0.08529441803693771,
        -0.04488927125930786,
        -0.06473081558942795,
        0.09138546884059906,
        -0.042827457189559937,
        -0.00350416311994195,
        0.055187251418828964,
        -0.03297292813658714,
        -0.09277386218309402,
        0.08919373154640198,
        0.054359618574380875,
        0.12283603101968765,
        -0.06494241952896118,
        0.012392165139317513,
        0.06906349956989288,
        -0.00913234706968069,
        0.014370869845151901,
        0.0871458575129509,
        0.07618117332458496,
        0.0359070785343647,
        -0.04157271236181259,
        0.024158064275979996,
        -0.035895608365535736,
        0.03637804090976715,
        0.16726945340633392,
        0.13640835881233215,
        0.16826564073562622,
        -0.016895858570933342,
        0.0193506870418787,
        0.026731081306934357,
        -0.05555713176727295,
        0.025543900206685066,
        0.05270979180932045,
        0.011528179980814457,
        -0.035828281193971634,
        -0.03634831681847572,
        0.08724147081375122,
        -0.019535034894943237,
        -0.08514758944511414,
        0.09791559725999832,
        -0.030189434066414833,
        0.054704755544662476
      ],
      [
        -0.09291286021471024,
        -0.043051768094301224,
        -0.05464767664670944,
        0.0327889509499073,
        0.04495950788259506,
        0.08036092668771744,
        0.10503911972045898,
        0.05965900048613548,
        -0.09774433821439743,
        0.11973181366920471,
        0.03334255516529083,
        -0.007779079023748636,
        -0.05409971997141838,
        0.10765479505062103,
        0.019996054470539093,
        0.02968992479145527,
        0.10870743542909622,
        -0.11861070245504379,
        0.08232352137565613,
        -0.11681784689426422,
        -0.03734883293509483,
        0.031512096524238586,
        0.043249811977148056,
        0.08499868214130402,
        0.08921386301517487,
        0.038866110146045685,
        -0.0702914148569107,
        -0.04488777369260788,
        -0.10746008902788162,
        0.018586022779345512,
        -0.020034343004226685,
        0.10771209001541138,
        0.11873716861009598,
        -0.08560250699520111,
        -0.028629662469029427,
        0.08037444204092026,
        0.08046111464500427,
        0.07301902770996094,
        0.03918703645467758,
        -0.028955498710274696,
        -0.08539307117462158,
        0.028379429131746292,
        0.12007363885641098,
        0.10807294398546219,
        0.005754150450229645,
        0.016450541093945503,
        -0.10118468850851059,
        0.036277782171964645,
        0.11324496567249298,
        -0.03362157195806503,
        -0.09919455647468567,
        0.04060693085193634,
        -0.0058597056195139885,
        -0.007863791659474373,
        -0.07976558059453964,
        0.042247224599123,
        -0.03676779940724373,
        0.08310426026582718,
        -0.018613336607813835,
        0.12104284018278122,
        -0.08304497599601746,
        0.05521855130791664,
        0.003176427213475108,
        0.0950763076543808,
        -0.03519120439887047,
        0.13381069898605347,
        0.12445653975009918,
        0.10453109443187714,
        0.01832984760403633,
        0.017473625019192696,
        0.051546793431043625,
        0.15009355545043945
      ],
      [
        0.0662110224366188,
        0.04002076014876366,
        0.055397000163793564,
        0.027282599359750748,
        -0.009662843309342861,
        -0.03576198220252991,
        0.17937423288822174,
        0.18285654485225677,
        -0.01102196890860796,
        -0.04373420029878616,
        0.021085349842905998,
        0.08485320955514908,
        -0.0059352717362344265,
        -0.05730472132563591,
        -0.024548575282096863,
        0.09785981476306915,
        0.01414424180984497,
        0.021299954503774643,
        0.11127705872058868,
        0.06226903945207596,
        0.12242212146520615,
        -0.0015652476577088237,
        0.01628923788666725,
        0.03197966143488884,
        -0.02007734589278698,
        0.016749458387494087,
        0.13906176388263702,
        0.12899565696716309,
        0.03370119631290436,
        0.021621087566018105,
        0.04822582006454468,
        0.09484998136758804,
        -0.021787473931908607,
        0.1742897927761078,
        0.06164998188614845,
        -0.039888136088848114,
        0.10462124645709991,
        -0.010008538141846657,
        0.1466131955385208,
        -0.08255106955766678,
        -0.09558714926242828,
        -0.07206305861473083,
        0.08499321341514587,
        0.014986654743552208,
        -0.0637727677822113,
        -0.055655933916568756,
        0.05636337772011757,
        0.08830228447914124,
        0.08008168637752533,
        0.11698763072490692,
        0.1867983043193817,
        0.08501747995615005,
        0.07510356605052948,
        0.1746443510055542,
        0.0582415834069252,
        0.10930673778057098,
        0.054942600429058075,
        -0.020012857392430305,
        -0.03663671761751175,
        0.16255861520767212,
        0.1304115653038025,
        0.08176537603139877,
        -0.011408094316720963,
        0.08862641453742981,
        0.08721105754375458,
        -0.016131090000271797,
        0.1105935350060463,
        0.15274301171302795,
        0.18643447756767273,
        0.04634716734290123,
        0.11655563861131668,
        0.13279403746128082
      ],
      [
        -0.0441858172416687,
        -0.09321129322052002,
        0.05156869441270828,
        -0.026806702837347984,
        -0.05996039882302284,
        0.11506844311952591,
        -0.0008531803032383323,
        -0.12066274136304855,
        -0.0703880786895752,
        0.0682821124792099,
        -0.12693072855472565,
        -0.12862716615200043,
        -0.12595348060131073,
        -0.0002733892761170864,
        0.031534839421510696,
        -0.059819355607032776,
        0.09582650661468506,
        0.059191636741161346,
        -0.08494237810373306,
        0.05762435123324394,
        -0.09544134885072708,
        0.08885781466960907,
        -0.07611924409866333,
        -0.12130890786647797,
        0.025021888315677643,
        -0.02388043887913227,
        0.0955892875790596,
        0.043954070657491684,
        0.05501161143183708,
        0.037925079464912415,
        -0.0027291469741612673,
        -0.08637890964746475,
        0.043920841068029404,
        -0.01456950232386589,
        0.08294598758220673,
        0.0390203483402729,
        -0.12179096788167953,
        -0.08625403046607971,
        0.019844014197587967,
        0.01934812217950821,
        -0.030895423144102097,
        -0.11203199625015259,
        0.1150612160563469,
        0.10797202587127686,
        0.10180636495351791,
        0.06128952279686928,
        0.042270198464393616,
        0.051977209746837616,
        -0.0028678723610937595,
        0.008536051958799362,
        0.09803514927625656,
        -0.06634635478258133,
        0.12961289286613464,
        0.003122924827039242,
        0.007382392883300781,
        0.0022183768451213837,
        0.05712900310754776,
        -0.026169316843152046,
        0.11883934587240219,
        -0.043345678597688675,
        0.06341042369604111,
        -0.1055472269654274,
        -0.07451771944761276,
        -0.08994285762310028,
        -0.0987347662448883,
        0.1347227394580841,
        0.14026787877082825,
        0.029320497065782547,
        0.036058180034160614,
        0.1538422852754593,
        0.08263286203145981,
        0.058398935943841934
      ],
      [
        -0.0004459737101569772,
        0.02262508124113083,
        0.04627753049135208,
        0.06203559786081314,
        -0.09151790291070938,
        -0.06904055178165436,
        0.019210832193493843,
        0.01998029835522175,
        -0.006349556148052216,
        0.16662785410881042,
        0.11167357116937637,
        0.09546809643507004,
        -0.050961002707481384,
        0.03359604999423027,
        0.15229497849941254,
        0.08338525146245956,
        0.15760017931461334,
        -0.03664485365152359,
        0.13156400620937347,
        -0.006126102991402149,
        0.08440424501895905,
        0.02854854241013527,
        0.10107880085706711,
        -0.07122081518173218,
        -0.007706692907959223,
        0.060835085809230804,
        -0.09291616827249527,
        0.010690282098948956,
        0.12215392291545868,
        -0.09445453435182571,
        0.07479920238256454,
        0.09430117160081863,
        -0.06505057960748672,
        -0.0031544375233352184,
        -0.0301499143242836,
        0.16100680828094482,
        0.04288477450609207,
        0.12818914651870728,
        0.001062427181750536,
        -0.036712028086185455,
        -0.04017139971256256,
        0.16468651592731476,
        0.12161772698163986,
        -0.0796094685792923,
        0.11178895831108093,
        0.06167401000857353,
        0.051784638315439224,
        0.11479286849498749,
        0.11531418561935425,
        0.024381551891565323,
        0.10525939613580704,
        -0.04322585090994835,
        0.07328436523675919,
        -0.08034215122461319,
        -0.027963241562247276,
        0.04941628500819206,
        -0.04355988651514053,
        0.1977420449256897,
        0.09293416142463684,
        0.008156875148415565,
        0.18922573328018188,
        0.11866698414087296,
        0.199709951877594,
        0.06580288708209991,
        0.12635545432567596,
        -0.01621517352759838,
        0.15570369362831116,
        -0.06282688677310944,
        -0.025626128539443016,
        0.052981749176979065,
        -0.07310467958450317,
        0.06507415324449539
      ],
      [
        0.1111319363117218,
        -0.0677465945482254,
        0.012781286612153053,
        0.006218923721462488,
        -0.007450155448168516,
        0.1244962215423584,
        0.012438692152500153,
        -0.090362049639225,
        0.09572529792785645,
        -0.06616226583719254,
        -0.007603846024721861,
        -0.10076987743377686,
        0.06150644272565842,
        0.030437391251325607,
        0.005457636900246143,
        0.023077499121427536,
        -0.021712083369493484,
        0.13094860315322876,
        0.04898013919591904,
        0.049294792115688324,
        0.07188176363706589,
        -0.01818487048149109,
        -0.0378098301589489,
        0.08657513558864594,
        0.01812354288995266,
        0.1298064887523651,
        -0.056766413152217865,
        -0.0032635494135320187,
        0.01211713720113039,
        0.08410407602787018,
        -0.10940396040678024,
        0.03362832963466644,
        -0.06719664484262466,
        0.07750823348760605,
        0.02599608153104782,
        -0.10177385061979294,
        -0.13339023292064667,
        0.10714691877365112,
        0.006199318915605545,
        -0.043096672743558884,
        -0.05093824863433838,
        0.027695026248693466,
        -0.026388080790638924,
        0.05203147977590561,
        -0.029948389157652855,
        0.036038585007190704,
        0.051538724452257156,
        -0.011703279800713062,
        0.08442005515098572,
        0.06243392825126648,
        0.09606282413005829,
        0.06326498836278915,
        0.019383160397410393,
        0.04097568616271019,
        -0.05908432975411415,
        -0.07072638720273972,
        0.13139976561069489,
        0.01636861078441143,
        0.1229056641459465,
        0.05306578427553177,
        -0.09024275094270706,
        0.04936946555972099,
        0.12305561453104019,
        -0.01102565135806799,
        -0.055573347955942154,
        0.115422323346138,
        0.11593355238437653,
        0.14504240453243256,
        0.15914228558540344,
        0.07636333256959915,
        -0.004738067276775837,
        0.11504030227661133
      ],
      [
        -0.0034302035346627235,
        0.04804448038339615,
        -0.022158298641443253,
        0.0072125038132071495,
        -0.022715093567967415,
        -0.0795198604464531,
        -0.0793815404176712,
        0.056768544018268585,
        0.004550086800009012,
        0.1388343870639801,
        -0.02229258231818676,
        0.05362580716609955,
        0.06103947013616562,
        -0.004827097989618778,
        0.01755267009139061,
        0.016948621720075607,
        0.0956059917807579,
        -0.08710775524377823,
        -0.1160108745098114,
        -0.07617945224046707,
        0.09834053367376328,
        -0.06459933519363403,
        -0.13797253370285034,
        0.07974179089069366,
        0.08095955103635788,
        -0.09374742954969406,
        -0.004047192633152008,
        0.10281655937433243,
        0.07498414814472198,
        0.05802512168884277,
        -0.09174667298793793,
        0.00854387879371643,
        0.018985487520694733,
        0.15312492847442627,
        0.06295537203550339,
        -0.013478489592671394,
        -0.007963423617184162,
        0.07524845749139786,
        -0.06535020470619202,
        -0.007846763357520103,
        0.10857919603586197,
        0.0755930170416832,
        0.12480529397726059,
        0.06202150508761406,
        -0.02972159907221794,
        0.07550086081027985,
        0.0021673706360161304,
        -0.06462815403938293,
        -0.04266956076025963,
        -0.02491685561835766,
        0.0980454608798027,
        0.09426837414503098,
        0.0651010125875473,
        -0.011746274307370186,
        -0.04254985973238945,
        0.03028736263513565,
        0.057940009981393814,
        -0.04553696885704994,
        0.18664565682411194,
        -0.029219184070825577,
        0.17843258380889893,
        0.06042923405766487,
        0.09327274560928345,
        0.07098721712827682,
        -0.07444309443235397,
        -0.020901836454868317,
        -0.046275172382593155,
        -0.04047039523720741,
        -0.008228751830756664,
        0.06587949395179749,
        0.0651242733001709,
        0.03771140053868294
      ],
      [
        -0.1302940547466278,
        0.0069864834658801556,
        -0.007238110061734915,
        -0.06252603232860565,
        -0.09575176239013672,
        0.09931181371212006,
        -0.04874315485358238,
        -0.03853799030184746,
        0.09594926983118057,
        0.08172783255577087,
        -0.07160306721925735,
        0.054411631077528,
        -0.05987859144806862,
        0.07529711723327637,
        -0.02073039673268795,
        -0.09678813815116882,
        0.05456911027431488,
        0.014387892559170723,
        0.000706668826751411,
        -0.11580537259578705,
        -0.016162050887942314,
        0.04508519172668457,
        0.053786374628543854,
        0.0039792489260435104,
        -0.15919925272464752,
        0.01017384510487318,
        -0.0733184665441513,
        -0.05870813503861427,
        -0.09780678153038025,
        -0.08310699462890625,
        0.030177032575011253,
        0.0865403562784195,
        0.07975229620933533,
        0.029728589579463005,
        0.06689396500587463,
        -0.04808300361037254,
        -0.049528270959854126,
        -0.0663260892033577,
        0.10848628729581833,
        0.107339046895504,
        -0.020567774772644043,
        0.04716799035668373,
        -0.04879971221089363,
        -0.038394030183553696,
        0.06443972140550613,
        0.040473971515893936,
        -0.026783209294080734,
        -0.028222117573022842,
        0.04239001125097275,
        -0.07581157237291336,
        -0.058184098452329636,
        -0.04367948696017265,
        0.03440973535180092,
        0.019652290269732475,
        -0.05445360019803047,
        0.13351456820964813,
        0.09076039493083954,
        -0.10889272391796112,
        -0.08017264306545258,
        0.08932916074991226,
        0.02059066854417324,
        0.10392379015684128,
        -0.05368221551179886,
        -0.02471284382045269,
        -0.12050438672304153,
        -0.08965712785720825,
        0.04841572418808937,
        0.010937375016510487,
        -0.16114668548107147,
        -0.15479695796966553,
        -0.06298823654651642,
        0.05031843110918999
      ],
      [
        0.015213079750537872,
        -0.01894611306488514,
        0.05861717462539673,
        -0.010450663045048714,
        0.14031220972537994,
        -0.01946130022406578,
        -0.038661759346723557,
        0.06231088936328888,
        0.12171715497970581,
        -0.07621502876281738,
        0.07749158889055252,
        0.10167044401168823,
        -0.08752012997865677,
        -0.040561214089393616,
        0.06316166371107101,
        -0.11878923326730728,
        -0.0771341323852539,
        0.05051134154200554,
        0.040815241634845734,
        0.11963881552219391,
        0.09437510371208191,
        0.13540448248386383,
        0.10282253473997116,
        -0.045439306646585464,
        -0.07782069593667984,
        0.04184621199965477,
        0.05264965817332268,
        0.05954943597316742,
        -0.020690223202109337,
        -0.05358657240867615,
        0.01549349445849657,
        0.1110876053571701,
        -0.10668119788169861,
        0.0595032200217247,
        0.09421277046203613,
        0.10833445936441422,
        -0.022420382127165794,
        -0.022117480635643005,
        0.030658135190606117,
        -0.11073678731918335,
        0.1145116314291954,
        -0.04656524211168289,
        0.018932094797492027,
        0.060432422906160355,
        0.019051408395171165,
        -0.02913409098982811,
        -0.011185449548065662,
        -0.037838391959667206,
        0.0984858050942421,
        -0.07952482253313065,
        0.019533421844244003,
        0.05967758595943451,
        0.07879382371902466,
        0.02213054709136486,
        0.11117486655712128,
        -0.05315698683261871,
        0.14289186894893646,
        0.10630688816308975,
        0.12980636954307556,
        -0.08998668938875198,
        0.03897969797253609,
        0.11730293929576874,
        -0.06945019215345383,
        0.06202937662601471,
        -0.04410488158464432,
        0.10324732214212418,
        0.11682917177677155,
        0.026993829756975174,
        0.08794624358415604,
        0.08280983567237854,
        0.1453406661748886,
        0.1312653124332428
      ],
      [
        0.0731169655919075,
        0.12798097729682922,
        -0.04501817747950554,
        -0.09104110300540924,
        -0.09684085845947266,
        0.07634175568819046,
        -0.12135706096887589,
        0.08083359152078629,
        0.028716351836919785,
        0.05569044500589371,
        0.10886581987142563,
        -0.02110355906188488,
        -0.03828639164566994,
        0.03240489587187767,
        -0.027399804443120956,
        -0.012120533734560013,
        -0.021046560257673264,
        -0.0963391438126564,
        -0.040844209492206573,
        -0.06362975388765335,
        0.13783667981624603,
        0.06070643663406372,
        0.12143367528915405,
        -0.0513736829161644,
        0.12784963846206665,
        0.10416939854621887,
        -0.0714314803481102,
        -0.11281043291091919,
        -0.06544677168130875,
        0.06593465059995651,
        -0.0670914426445961,
        -0.08734802901744843,
        -0.04477078840136528,
        -0.0009663712116889656,
        -0.06280694901943207,
        0.11316164582967758,
        -0.049173638224601746,
        0.0422263965010643,
        0.08307620137929916,
        -0.07444127649068832,
        0.061540763825178146,
        -0.022241631522774696,
        -0.07409844547510147,
        0.05551985278725624,
        0.09444202482700348,
        -0.07520106434822083,
        0.09314832836389542,
        -0.003796664532274008,
        -0.004140544682741165,
        0.08323506265878677,
        0.11500809341669083,
        0.1310817450284958,
        0.12484341114759445,
        -0.11218694597482681,
        0.027204181998968124,
        0.12287551164627075,
        -0.030746525153517723,
        0.013086124323308468,
        -0.07202913612127304,
        -0.04200456663966179,
        0.1434931457042694,
        0.05336578190326691,
        0.14232029020786285,
        0.022619670256972313,
        0.10008333623409271,
        0.09453588724136353,
        -0.06847897171974182,
        0.0642046108841896,
        -0.04521944373846054,
        -0.0034243541304022074,
        0.13622170686721802,
        -0.0433310903608799
      ],
      [
        0.08394836634397507,
        0.015889937058091164,
        0.062123775482177734,
        -0.1367824226617813,
        -0.04360358789563179,
        0.06283894926309586,
        0.01627814956009388,
        -0.12333635985851288,
        -0.010234806686639786,
        -0.06890038400888443,
        0.12420418858528137,
        -0.03183705732226372,
        0.10104653984308243,
        -0.01610429957509041,
        -0.09872676432132721,
        0.12579381465911865,
        0.10847225785255432,
        -0.09347684681415558,
        -0.01291343942284584,
        -0.02511413022875786,
        -0.018796393647789955,
        -0.0835505872964859,
        -0.11253564804792404,
        0.029660403728485107,
        0.05002227798104286,
        0.015156841836869717,
        0.08791394531726837,
        -0.012327988632023335,
        -0.02503550425171852,
        -0.12247776240110397,
        -0.097355417907238,
        0.0017584532033652067,
        0.03766052797436714,
        -0.00922652892768383,
        0.0367867648601532,
        -0.005382126662880182,
        0.010030489414930344,
        0.016600197181105614,
        0.1188531443476677,
        0.13215932250022888,
        -0.06135491281747818,
        0.020326055586338043,
        0.13993261754512787,
        0.06614261120557785,
        -0.023360878229141235,
        -0.010980199091136456,
        -0.11777010560035706,
        0.012877607718110085,
        -0.112578384578228,
        0.0838402733206749,
        0.1001802608370781,
        -0.0669533759355545,
        0.10363650321960449,
        -0.021847978234291077,
        0.04112660884857178,
        0.13508881628513336,
        0.05098702386021614,
        -0.06411689519882202,
        0.012345558032393456,
        0.06181963160634041,
        0.146651029586792,
        0.011390269733965397,
        -0.025712085887789726,
        -0.03296593949198723,
        0.025811662897467613,
        -0.06604522466659546,
        0.15932832658290863,
        0.07227015495300293,
        0.00503056263551116,
        0.11203857511281967,
        0.0841631293296814,
        0.10344463586807251
      ],
      [
        -0.04689230024814606,
        0.09900340437889099,
        -0.07119975239038467,
        0.11502943933010101,
        -0.07734832912683487,
        0.1447492390871048,
        0.1057634949684143,
        0.05096304789185524,
        -0.011943399906158447,
        -0.09247031807899475,
        0.009706591255962849,
        -0.08258369565010071,
        -0.15249988436698914,
        0.026938654482364655,
        -0.0012613179860636592,
        0.05048630014061928,
        0.03943753242492676,
        0.06347744911909103,
        -0.08620648831129074,
        0.09217780828475952,
        0.0011461324756965041,
        0.10322906076908112,
        0.026567334309220314,
        0.13033375144004822,
        0.04908982664346695,
        0.001264349790289998,
        0.1378125548362732,
        -0.07599382847547531,
        0.10184533894062042,
        0.050781071186065674,
        0.0006329846219159663,
        0.13435214757919312,
        -0.012664330191910267,
        0.10221101343631744,
        0.057315219193696976,
        0.0676385834813118,
        0.04669482633471489,
        -0.09318644553422928,
        0.09102523326873779,
        -0.07469392567873001,
        -0.13441050052642822,
        -0.00909450277686119,
        -0.04898141324520111,
        -0.08764343708753586,
        0.07666443288326263,
        0.09371351450681686,
        -0.08925137668848038,
        0.0762028843164444,
        0.12928801774978638,
        0.007202288135886192,
        0.07579513639211655,
        -0.05770378187298775,
        -0.005471500568091869,
        0.18113063275814056,
        0.10418268293142319,
        0.168862983584404,
        -0.046735964715480804,
        -0.08632732927799225,
        -0.07877878844738007,
        -0.018147364258766174,
        0.05995369330048561,
        -0.04664305970072746,
        -0.08618590235710144,
        -0.11342336982488632,
        0.09467311203479767,
        -0.06716158241033554,
        -0.03544314205646515,
        0.09299517422914505,
        0.1393519788980484,
        -0.006072499789297581,
        -0.04432529956102371,
        0.08036864548921585
      ],
      [
        0.09809756278991699,
        -0.13287709653377533,
        0.062009524554014206,
        0.008729295805096626,
        -0.0004621181287802756,
        -0.030857326462864876,
        -0.08771109580993652,
        -0.015855783596634865,
        -0.11732760071754456,
        0.024166088551282883,
        -0.012158517725765705,
        -0.08134611696004868,
        0.029938234016299248,
        -0.013411996886134148,
        -0.06971324235200882,
        0.0987778827548027,
        -0.04919758439064026,
        -0.02613718807697296,
        0.12903065979480743,
        -0.044395383447408676,
        -0.08369014412164688,
        -0.038482312113046646,
        -0.10121599584817886,
        0.0976962000131607,
        -0.020469946786761284,
        0.08329351991415024,
        0.04523709788918495,
        -0.017832152545452118,
        -0.004014360252767801,
        -0.07195247709751129,
        0.08544445037841797,
        -0.05963370203971863,
        0.021558107808232307,
        -0.05713905394077301,
        0.01210979837924242,
        0.013458892703056335,
        0.0020533918868750334,
        0.009327025152742863,
        -0.07613299041986465,
        -0.07079742848873138,
        -0.04277251288294792,
        0.10136586427688599,
        -0.08041954785585403,
        0.08032560348510742,
        -0.09159903973340988,
        0.04002424329519272,
        -0.07412654906511307,
        0.06416558474302292,
        0.09730569273233414,
        0.0783655121922493,
        -0.13874369859695435,
        -0.006419291719794273,
        -0.02537657879292965,
        0.09965766966342926,
        -0.10241427272558212,
        0.008243845775723457,
        0.03449482098221779,
        0.03866561874747276,
        0.0029227877967059612,
        0.025034628808498383,
        -0.07389754801988602,
        -0.07153572142124176,
        0.013545610010623932,
        0.14852790534496307,
        -0.008113652467727661,
        0.02324875071644783,
        0.12333980947732925,
        -0.05715769901871681,
        -0.07398480921983719,
        -0.030763894319534302,
        0.08333612978458405,
        -0.01317940466105938
      ],
      [
        -0.024350110441446304,
        -0.032655179500579834,
        -0.1436947137117386,
        -0.07102412730455399,
        -0.06562638282775879,
        0.08215897530317307,
        -0.013673159293830395,
        -0.10540619492530823,
        0.13677556812763214,
        0.1582195907831192,
        0.14579755067825317,
        0.03823549672961235,
        0.08545755594968796,
        0.056866906583309174,
        0.06835342943668365,
        0.15952949225902557,
        0.018330950289964676,
        -0.10163463652133942,
        0.06179733946919441,
        0.07117787003517151,
        -0.04600217938423157,
        0.01609850488603115,
        -0.1076025441288948,
        -0.04320618882775307,
        -0.12614743411540985,
        0.036495961248874664,
        -0.06422518938779831,
        -0.03136420249938965,
        0.013031337410211563,
        -0.08797264099121094,
        -0.004591614473611116,
        -0.027915561571717262,
        0.13660970330238342,
        0.0743524506688118,
        0.013567068614065647,
        0.07524635642766953,
        0.16379882395267487,
        0.07825160771608353,
        0.045612651854753494,
        0.014149229973554611,
        0.15245717763900757,
        0.028642037883400917,
        -0.0459267720580101,
        0.022188961505889893,
        -0.004418833646923304,
        -0.054445140063762665,
        0.029054805636405945,
        -0.045029349625110626,
        -0.06284547597169876,
        0.06404295563697815,
        -0.02287987247109413,
        0.06938467174768448,
        0.02480936609208584,
        -0.039038725197315216,
        0.014858642593026161,
        -0.05278277397155762,
        -0.04083370789885521,
        -0.009023863822221756,
        0.18157605826854706,
        0.11027070879936218,
        0.018371205776929855,
        0.030678732320666313,
        0.1770465075969696,
        0.030019525438547134,
        0.15899524092674255,
        0.09487554430961609,
        0.1452503204345703,
        -0.10806409269571304,
        0.06124359369277954,
        -0.03966616094112396,
        -0.06832963228225708,
        -0.14546149969100952
      ],
      [
        -0.09397530555725098,
        0.05257540941238403,
        -0.12777511775493622,
        -0.016732968389987946,
        -0.07043705880641937,
        -0.09543543308973312,
        0.029988134279847145,
        0.042103514075279236,
        -0.12956495583057404,
        0.043911658227443695,
        -0.0012749582529067993,
        0.0894559770822525,
        -0.09982990473508835,
        -0.07842482626438141,
        0.008324635215103626,
        -0.07722817361354828,
        -0.10057437419891357,
        0.09509074687957764,
        0.08707637339830399,
        -0.010824628174304962,
        0.12351275235414505,
        -0.1010497510433197,
        0.030719256028532982,
        0.07271123677492142,
        0.07412368059158325,
        -0.04715118557214737,
        0.056588467210531235,
        0.07629690319299698,
        -0.027929067611694336,
        -0.06472916156053543,
        -0.13982093334197998,
        -0.05388620123267174,
        0.10169433802366257,
        0.09366297721862793,
        -0.014718113467097282,
        -0.04771708324551582,
        -0.05625255033373833,
        0.025419708341360092,
        0.13503113389015198,
        -0.03207414969801903,
        -0.10089652240276337,
        0.0070373546332120895,
        0.05246639996767044,
        -0.01159543264657259,
        0.002706606173887849,
        0.1320653259754181,
        -0.002449679421260953,
        -0.019792456179857254,
        -0.07657705247402191,
        -0.04937067627906799,
        0.11009345948696136,
        -0.13139893114566803,
        0.0980241671204567,
        -0.07622777670621872,
        -0.10370609164237976,
        -0.04328073188662529,
        -0.008275325410068035,
        0.058095648884773254,
        -0.014404202811419964,
        0.03920111060142517,
        -0.0175879318267107,
        -0.02376675046980381,
        0.1314588189125061,
        0.15130767226219177,
        0.07402647286653519,
        0.15454410016536713,
        0.07586120069026947,
        0.016750840470194817,
        0.11438113451004028,
        0.02242024429142475,
        0.10776782780885696,
        -0.03584026172757149
      ],
      [
        -0.0035862086806446314,
        -0.11725641041994095,
        0.06889588385820389,
        -0.03971949219703674,
        0.10877560824155807,
        -0.023915257304906845,
        0.07331603765487671,
        -0.03622919321060181,
        0.08009722083806992,
        0.1337079554796219,
        0.07941372692584991,
        0.16959397494792938,
        0.03256059065461159,
        0.06331367045640945,
        0.14237962663173676,
        0.1470886766910553,
        -0.05771784111857414,
        -0.015640420839190483,
        0.03840987756848335,
        -0.01439611241221428,
        0.015367461368441582,
        -0.03004850447177887,
        0.06619978696107864,
        0.04385758563876152,
        -0.0476619228720665,
        0.07756990939378738,
        0.050876013934612274,
        -0.014452227391302586,
        0.03943122923374176,
        0.0611545629799366,
        0.1197206974029541,
        0.07474547624588013,
        0.12119879573583603,
        0.026682157069444656,
        0.1981298327445984,
        0.08415532112121582,
        0.04679691046476364,
        0.05469661206007004,
        0.1258382648229599,
        0.12728561460971832,
        0.13075469434261322,
        -0.059001486748456955,
        0.125994473695755,
        0.10662467032670975,
        -0.04751182347536087,
        -0.006088910158723593,
        -0.06277988851070404,
        -0.05462631210684776,
        -0.01955488510429859,
        0.14197413623332977,
        0.14487752318382263,
        0.12117402255535126,
        0.0811646431684494,
        -0.02299392782151699,
        -0.0026320554316043854,
        0.07770237326622009,
        0.19982083141803741,
        0.21986480057239532,
        0.006897560320794582,
        0.176833838224411,
        -0.02457742765545845,
        0.19377397000789642,
        0.1583022177219391,
        0.16542954742908478,
        0.09889739751815796,
        0.02692773938179016,
        -0.0691080316901207,
        0.016006719321012497,
        0.020665708929300308,
        -0.026624687016010284,
        0.05891212075948715,
        -0.06512892246246338
      ],
      [
        0.10679113119840622,
        0.1291462630033493,
        0.000727406470105052,
        0.05893471837043762,
        -0.06847767531871796,
        -0.017937390133738518,
        0.059181857854127884,
        0.01597466506063938,
        0.08871636539697647,
        -0.05949283763766289,
        0.10145850479602814,
        -0.02388489432632923,
        0.06810413300991058,
        0.022525228559970856,
        -0.08281218260526657,
        -0.042060982435941696,
        -0.105826735496521,
        -0.0308501198887825,
        -0.014912493526935577,
        -0.07852605730295181,
        0.09942938387393951,
        -0.035162024199962616,
        -0.0586993582546711,
        0.10954774916172028,
        -0.08084847033023834,
        -0.08596161007881165,
        0.10238725692033768,
        -0.009730692952871323,
        0.02163749933242798,
        -0.017412204295396805,
        -0.04683241993188858,
        -0.11288698017597198,
        -0.08988077938556671,
        0.03708347678184509,
        -0.13044776022434235,
        -0.0291373860090971,
        -0.040026117116212845,
        0.0035180409904569387,
        0.11034546047449112,
        0.06082208827137947,
        0.10636037588119507,
        -0.01480891089886427,
        0.12361947447061539,
        0.08691830933094025,
        0.13024652004241943,
        -0.03657747432589531,
        0.041909243911504745,
        -0.01672486774623394,
        0.04779677838087082,
        -0.05040246993303299,
        -0.06389065086841583,
        -0.0897786021232605,
        -0.08571689575910568,
        0.019967427477240562,
        -0.059477198868989944,
        0.043183695524930954,
        0.07475483417510986,
        0.08505817502737045,
        -0.11788253486156464,
        0.02926766127347946,
        -0.07449063658714294,
        -0.06742855161428452,
        0.06534434854984283,
        -0.026611601933836937,
        0.03665431588888168,
        0.12265428900718689,
        0.11795040965080261,
        -0.014716780744493008,
        0.13118191063404083,
        0.1097363829612732,
        0.14172548055648804,
        0.015352088026702404
      ],
      [
        -0.030812997370958328,
        0.06571487337350845,
        0.12005915492773056,
        0.09372015297412872,
        0.06595063954591751,
        0.027898967266082764,
        -0.11337101459503174,
        0.09938479959964752,
        0.12898944318294525,
        -0.03797777369618416,
        0.08793656527996063,
        -0.04259495809674263,
        0.11507615447044373,
        0.0929412990808487,
        -0.008136620745062828,
        -0.018433470278978348,
        -0.0152054438367486,
        -0.021053824573755264,
        -0.08296018838882446,
        -0.015462218783795834,
        -0.007676963694393635,
        -0.05457753688097,
        0.10528349876403809,
        -0.007912189699709415,
        -0.0804782509803772,
        -0.016397250816226006,
        -0.08163869380950928,
        -0.06810683757066727,
        0.04845510795712471,
        0.1335873305797577,
        0.1163029819726944,
        0.13447068631649017,
        0.05625678226351738,
        -0.07738180458545685,
        -0.025263741612434387,
        -0.014701055362820625,
        0.017776886001229286,
        -0.030541224405169487,
        -0.09676976501941681,
        -0.07704782485961914,
        0.0943426862359047,
        0.046850498765707016,
        6.937522266525775e-05,
        -0.03681488707661629,
        -0.032523263245821,
        -0.11669168621301651,
        -0.07876858115196228,
        0.028404247015714645,
        0.11872812360525131,
        0.00825071707367897,
        0.11467177420854568,
        -0.03192844241857529,
        0.08640855550765991,
        0.0776725485920906,
        -0.044812679290771484,
        -0.01097608357667923,
        -0.0183296836912632,
        0.06067011132836342,
        0.16268394887447357,
        0.04233729466795921,
        -0.0540495403110981,
        0.13260307908058167,
        0.1292838454246521,
        0.14753741025924683,
        -0.025622602552175522,
        0.06761953979730606,
        -0.07071542739868164,
        -0.013862533494830132,
        0.03735501691699028,
        0.13242733478546143,
        0.018587900325655937,
        0.030133213847875595
      ],
      [
        0.001215305645018816,
        0.12883761525154114,
        0.049902722239494324,
        0.015562421642243862,
        -0.0330219529569149,
        0.06254147738218307,
        0.028162164613604546,
        0.0006077125435695052,
        0.020157132297754288,
        -0.03104083612561226,
        0.07404670119285583,
        0.15858440101146698,
        0.12605446577072144,
        0.1300521045923233,
        0.04488086327910423,
        -0.0321202352643013,
        0.01856425777077675,
        0.002838566666468978,
        0.1980120688676834,
        -0.010662069544196129,
        0.020230934023857117,
        0.16396579146385193,
        0.07609353959560394,
        0.16864049434661865,
        0.12691499292850494,
        0.14868414402008057,
        0.012182970531284809,
        0.05976610630750656,
        -0.013057904317975044,
        -0.043145254254341125,
        -0.05350419506430626,
        0.1032545268535614,
        0.04017999395728111,
        0.12291713058948517,
        0.08528869599103928,
        0.11017221212387085,
        0.043735697865486145,
        0.08617651462554932,
        0.04139792174100876,
        0.1854480803012848,
        -0.039460428059101105,
        -0.00550020020455122,
        -0.024158626794815063,
        0.1283721774816513,
        0.17971213161945343,
        -0.006576176732778549,
        0.05647413060069084,
        0.1762143224477768,
        0.15270009636878967,
        0.17618267238140106,
        0.07336011528968811,
        0.007381880655884743,
        0.09745192527770996,
        0.13075491786003113,
        0.004259397275745869,
        -0.03337612748146057,
        -0.0381685234606266,
        -0.029400426894426346,
        0.12698255479335785,
        0.06444642692804337,
        0.006580723449587822,
        0.1785467565059662,
        0.17250168323516846,
        0.15903687477111816,
        0.06422431021928787,
        0.18464718759059906,
        0.1618177741765976,
        0.19751563668251038,
        0.10946112126111984,
        -0.037017859518527985,
        0.1684795469045639,
        0.1431763768196106
      ],
      [
        -0.10401912033557892,
        -0.06481526792049408,
        -0.01893489435315132,
        -0.004945968743413687,
        -0.001081181806512177,
        0.1313125491142273,
        -0.0521102249622345,
        -0.04027439281344414,
        -0.011261397041380405,
        0.04269113019108772,
        0.019232062622904778,
        -0.08466505259275436,
        0.060830675065517426,
        -0.0666823536157608,
        0.04703564569354057,
        -0.1014220118522644,
        -0.05946863815188408,
        -0.03994567692279816,
        -0.049013447016477585,
        0.0625862255692482,
        -0.11175249516963959,
        -0.06125040724873543,
        0.023759538307785988,
        -0.02416822873055935,
        0.07903996855020523,
        0.024648264050483704,
        -0.011094436049461365,
        0.12370660901069641,
        0.1490582525730133,
        0.08533775061368942,
        0.04085634648799896,
        0.13307920098304749,
        0.06501508504152298,
        0.004260890651494265,
        -0.009768293239176273,
        -0.0005257422453723848,
        -0.06588099151849747,
        0.11448388546705246,
        -0.028124842792749405,
        0.05523397773504257,
        0.004989046603441238,
        -0.09049146622419357,
        0.03649451956152916,
        0.07310287654399872,
        -0.014002700336277485,
        -0.09599360823631287,
        -0.11684803664684296,
        -0.07334045320749283,
        0.10173477232456207,
        0.138772115111351,
        0.13967567682266235,
        -0.00922168605029583,
        0.11562394350767136,
        0.13504967093467712,
        0.12560227513313293,
        0.023199470713734627,
        0.06298210471868515,
        -0.00917941052466631,
        0.052256450057029724,
        0.11833200603723526,
        0.04945296049118042,
        -0.04586534574627876,
        0.12628702819347382,
        -0.046028584241867065,
        -0.019346721470355988,
        -0.10248544067144394,
        0.11699916422367096,
        -0.08286671340465546,
        0.11711937934160233,
        0.032339371740818024,
        0.05613495782017708,
        0.07931065559387207
      ],
      [
        0.027665909379720688,
        0.07533127814531326,
        -0.00907076895236969,
        0.09920676052570343,
        0.09753765910863876,
        -0.0747726708650589,
        0.1015985980629921,
        -0.1203274205327034,
        0.030569590628147125,
        -0.0339905209839344,
        -0.10362523794174194,
        -0.00565152894705534,
        -0.08475352078676224,
        -0.15012437105178833,
        -0.05904953181743622,
        -0.1027229055762291,
        -0.01605929620563984,
        0.03041861578822136,
        0.033369030803442,
        0.07932928204536438,
        -0.1470065414905548,
        0.00717021944001317,
        -0.08568952232599258,
        -0.09974751621484756,
        -0.014524620026350021,
        0.016019288450479507,
        -0.11000911146402359,
        0.05806712061166763,
        0.007544384337961674,
        -0.11945702880620956,
        -0.09761397540569305,
        0.07014171034097672,
        0.03269456699490547,
        -0.08093054592609406,
        -0.13229596614837646,
        -0.10224480926990509,
        -0.06081267446279526,
        -0.027088792994618416,
        -0.12514939904212952,
        0.03902045637369156,
        -0.037916526198387146,
        0.07409676909446716,
        -0.13018257915973663,
        -0.11351136118173599,
        -0.010252554900944233,
        -0.049848418682813644,
        -0.09760307520627975,
        -0.14122864603996277,
        -0.049277570098638535,
        -0.018811602145433426,
        0.012447823770344257,
        -0.07455268502235413,
        -0.047599103301763535,
        -0.00013696230598725379,
        -0.039059240370988846,
        0.049430012702941895,
        -0.09550334513187408,
        -0.10470394045114517,
        -0.053657758980989456,
        -0.10819980502128601,
        0.04113716259598732,
        -0.019306188449263573,
        -0.1433030664920807,
        -0.07865104079246521,
        0.0987735390663147,
        0.0708007887005806,
        0.0748489499092102,
        -0.07636470347642899,
        -0.13405640423297882,
        0.07770299911499023,
        -0.10870767384767532,
        -0.07294993847608566
      ],
      [
        -0.10519710928201675,
        0.047913309186697006,
        -0.04164735972881317,
        0.027821358293294907,
        0.07869472354650497,
        -0.005867199040949345,
        -0.0007945335237309337,
        0.04418104141950607,
        -0.08391420543193817,
        0.011254980228841305,
        0.0027821543626487255,
        -0.029712552204728127,
        0.07522297650575638,
        0.1410353183746338,
        0.1252938061952591,
        0.1304013878107071,
        -0.057725753635168076,
        0.1534895896911621,
        -0.053106941282749176,
        -0.00806363020092249,
        -0.016455532982945442,
        0.021140288561582565,
        -0.007071652449667454,
        -0.07795890420675278,
        -0.07419918477535248,
        0.06433665007352829,
        0.08242186158895493,
        0.01749313250184059,
        0.10296369343996048,
        0.10647595673799515,
        0.10360579192638397,
        0.02844304032623768,
        0.050844673067331314,
        -0.0257356446236372,
        -0.03512425348162651,
        -0.082903653383255,
        0.04625215753912926,
        -0.0630815401673317,
        0.13828688859939575,
        0.05561436340212822,
        0.16088414192199707,
        0.15638139843940735,
        -0.08134045451879501,
        0.06575628370046616,
        -0.07833483815193176,
        0.01402845699340105,
        -0.03581105172634125,
        0.07787071168422699,
        -0.08975064754486084,
        -0.004276040475815535,
        0.07340681552886963,
        -0.12645655870437622,
        -0.03273628279566765,
        0.09445414692163467,
        -0.04834076389670372,
        0.07854505628347397,
        0.03559856861829758,
        0.0073087457567453384,
        -0.0741112232208252,
        -0.05185001716017723,
        0.09271086752414703,
        -0.015216046944260597,
        0.06350220739841461,
        0.10482188314199448,
        -0.05194918438792229,
        -0.059799741953611374,
        0.09960918128490448,
        0.05186014249920845,
        0.07608677446842194,
        0.005500617902725935,
        0.0308222696185112,
        -0.07580330222845078
      ],
      [
        -0.06469693779945374,
        0.005096436478197575,
        -0.064839206635952,
        0.10987888276576996,
        0.023808548226952553,
        0.09201378375291824,
        0.03440246358513832,
        -0.10847438126802444,
        0.12134142965078354,
        0.09919854998588562,
        0.07944482564926147,
        0.07419398427009583,
        -0.057829294353723526,
        0.00369029282592237,
        -0.054090555757284164,
        0.04789932444691658,
        -0.12220040708780289,
        0.004681086633354425,
        0.04446154087781906,
        -0.009110383689403534,
        -0.10096658021211624,
        -0.08421368896961212,
        -0.04391898959875107,
        0.003833751194179058,
        0.019432546570897102,
        -0.007524344138801098,
        -0.024932606145739555,
        -0.0907229408621788,
        0.11791609227657318,
        0.007579974830150604,
        -0.05335145816206932,
        -0.06450220942497253,
        -0.060630884021520615,
        -0.009949767962098122,
        -0.10892775654792786,
        -0.09563925117254257,
        0.10512781888246536,
        0.07509862631559372,
        -0.1288910210132599,
        -0.06670837104320526,
        -0.08097061514854431,
        -0.07170530408620834,
        -0.023582682013511658,
        -0.04263298586010933,
        0.023687925189733505,
        0.0556863509118557,
        0.0763792097568512,
        -0.0648099035024643,
        0.05061914026737213,
        -0.04570133984088898,
        -0.09335067123174667,
        0.07239583134651184,
        0.06048931926488876,
        0.015443941578269005,
        0.012696403078734875,
        0.12890613079071045,
        0.10818590223789215,
        0.05081656575202942,
        -0.08485680818557739,
        -0.030440231785178185,
        -0.025905929505825043,
        -0.0708579272031784,
        0.09619596600532532,
        0.10181727260351181,
        0.03448773920536041,
        -0.051122672855854034,
        0.0958247259259224,
        0.05455426871776581,
        0.13432817161083221,
        0.141263946890831,
        0.07587958127260208,
        -0.023706573992967606
      ],
      [
        -0.07228197157382965,
        -0.0969681665301323,
        0.06454404443502426,
        -0.10442949831485748,
        0.08951003104448318,
        0.05000504478812218,
        0.08781889081001282,
        -0.03263380005955696,
        0.044954072684049606,
        0.07201746851205826,
        0.03508983924984932,
        0.11702315509319305,
        0.03401080146431923,
        0.10398602485656738,
        -0.04458460211753845,
        -0.01621169224381447,
        0.06296900659799576,
        0.005444177892059088,
        0.13366664946079254,
        0.03135976940393448,
        0.057484667748212814,
        0.09849601984024048,
        -0.11229907721281052,
        0.030304891988635063,
        0.01484041940420866,
        -0.06433767825365067,
        0.10931619256734848,
        0.09823349118232727,
        -0.0522381067276001,
        0.06040404364466667,
        0.09446580708026886,
        0.04940386861562729,
        -0.03516899421811104,
        0.017925843596458435,
        0.06704047322273254,
        0.11199407279491425,
        0.04993022605776787,
        0.1350312978029251,
        0.13142670691013336,
        0.10634352266788483,
        0.13311989605426788,
        0.04426635429263115,
        0.11131034791469574,
        -0.07766053080558777,
        0.010222166776657104,
        0.13494130969047546,
        0.11348088085651398,
        0.0298934243619442,
        -0.007279728073626757,
        0.004259500652551651,
        0.009445929899811745,
        0.03272496536374092,
        -0.07244203984737396,
        0.12057381123304367,
        -0.07529737800359726,
        0.011568923480808735,
        0.030099110677838326,
        0.0803944393992424,
        -0.0035729180090129375,
        -0.028940686956048012,
        -0.024600667878985405,
        -0.05733408033847809,
        -0.022936828434467316,
        -0.07117825746536255,
        0.11779289692640305,
        0.11122651398181915,
        0.02208346128463745,
        0.027383459731936455,
        -0.0020054602064192295,
        -0.05852771922945976,
        0.05095333978533745,
        0.051602013409137726
      ],
      [
        -0.07524638622999191,
        -0.01845194213092327,
        0.14181160926818848,
        0.13533352315425873,
        -0.047218479216098785,
        -0.0731753408908844,
        0.10490491986274719,
        -0.10874275118112564,
        0.02831171825528145,
        0.11262603849172592,
        0.036957766860723495,
        -0.03928443789482117,
        0.013535776175558567,
        0.04166768491268158,
        0.09374698251485825,
        -0.07239825278520584,
        0.09581148624420166,
        -0.11050672829151154,
        0.1304265260696411,
        -0.10829406976699829,
        -0.0030612677801400423,
        0.07037626951932907,
        -0.027773793786764145,
        0.09172374755144119,
        0.06402882933616638,
        0.010532564483582973,
        0.08445537090301514,
        -0.04085620120167732,
        -0.00438967440277338,
        0.04418891668319702,
        0.11961398273706436,
        0.10221655666828156,
        0.0853615403175354,
        -0.06733695417642593,
        -0.058732420206069946,
        -0.099777452647686,
        -0.037610046565532684,
        0.1111811101436615,
        0.04897772893309593,
        -0.009982955642044544,
        0.003380795009434223,
        0.032273102551698685,
        -0.05748744308948517,
        0.02265394851565361,
        0.08160217851400375,
        -0.06462050974369049,
        -0.08087341487407684,
        0.07549532502889633,
        -0.0492972694337368,
        0.10069356858730316,
        0.07411154359579086,
        -0.06013111397624016,
        -0.038570139557123184,
        0.10527841746807098,
        -0.09974540770053864,
        -0.027577485889196396,
        -0.0028338993433862925,
        0.11738871783018112,
        0.10872669517993927,
        -0.0983913466334343,
        -0.027544774115085602,
        -0.06421345472335815,
        0.0063146138563752174,
        0.005925871431827545,
        0.017183322459459305,
        -0.04008728638291359,
        0.0754670798778534,
        0.01863406039774418,
        0.03510522469878197,
        0.022027021273970604,
        -0.061052896082401276,
        -4.485479439608753e-05
      ],
      [
        -0.06494966149330139,
        0.08382464945316315,
        0.05376363545656204,
        -0.05087266117334366,
        -0.11496245861053467,
        -0.0016937452601268888,
        0.007408331148326397,
        -0.03581535816192627,
        -0.05348226800560951,
        0.0353054516017437,
        -0.13960343599319458,
        -0.03044443577528,
        -0.05826779454946518,
        0.010069496929645538,
        0.07353933155536652,
        0.05312342196702957,
        -0.05605822801589966,
        -0.1313931941986084,
        0.02317851595580578,
        -0.09736549854278564,
        -0.0445319339632988,
        0.05636456608772278,
        -0.08312653750181198,
        0.11093432456254959,
        -0.07107990235090256,
        -0.0791027620434761,
        0.03427068144083023,
        -0.09416066855192184,
        -0.02056906744837761,
        0.04301175847649574,
        -0.11607971787452698,
        -0.08081062883138657,
        -0.11530174314975739,
        0.08356788009405136,
        0.10200634598731995,
        -0.10739824920892715,
        -0.008994191884994507,
        -0.010916481725871563,
        0.051070570945739746,
        -0.0331219844520092,
        -0.12452832609415054,
        0.03246884420514107,
        -0.12245965003967285,
        -0.01638828217983246,
        0.10684490948915482,
        -0.07608924806118011,
        0.013955419883131981,
        0.002618191996589303,
        0.0004941386287100613,
        0.10742328315973282,
        -0.008871013298630714,
        -0.050359096378088,
        -0.062285952270030975,
        0.011400604620575905,
        0.01425197347998619,
        0.07557860761880875,
        0.012020506896078587,
        0.11047104746103287,
        0.09104864299297333,
        -0.10214598476886749,
        -0.09637463092803955,
        -0.10815105587244034,
        0.051836006343364716,
        0.07386299222707748,
        -0.05326997861266136,
        -0.04352916032075882,
        -0.006521310657262802,
        0.1460113823413849,
        0.14644597470760345,
        -0.022817915305495262,
        -0.0007837424054741859,
        0.1275196075439453
      ],
      [
        -0.06961958110332489,
        -0.1368897259235382,
        -0.0942174643278122,
        0.06909456104040146,
        -0.11032995581626892,
        0.07165081053972244,
        -0.10435393452644348,
        -0.04864399507641792,
        -0.0728374645113945,
        -0.058910153806209564,
        0.0040806252509355545,
        0.11354662477970123,
        0.0414905920624733,
        -0.047610823065042496,
        0.02787519432604313,
        0.04311463609337807,
        0.008103849366307259,
        -0.04110078886151314,
        -0.00013222842244431376,
        0.024135909974575043,
        0.012476679868996143,
        -0.061821699142456055,
        -0.10921952873468399,
        -0.003944681957364082,
        -0.14157724380493164,
        0.02207186445593834,
        0.058089688420295715,
        -0.042739566415548325,
        0.007138257846236229,
        -0.07083740085363388,
        -0.07588950544595718,
        -0.0037556583993136883,
        -0.14676311612129211,
        -0.10722650587558746,
        -0.1264166384935379,
        0.012646901421248913,
        0.031385697424411774,
        0.013559422455728054,
        -0.024138299748301506,
        -0.05517981946468353,
        0.09558004885911942,
        0.11540959030389786,
        0.03701192885637283,
        0.07934625446796417,
        0.06155645474791527,
        0.0694614052772522,
        -0.006476133596152067,
        -0.09674707800149918,
        -0.013960258103907108,
        0.09037407487630844,
        -0.14877144992351532,
        0.027524737641215324,
        0.04312901943922043,
        -0.0390806570649147,
        0.024149535223841667,
        0.02629757672548294,
        -0.01788703165948391,
        0.02344692312180996,
        0.02220907062292099,
        0.07549754530191422,
        0.14905722439289093,
        0.006615441292524338,
        0.046465322375297546,
        0.12030929327011108,
        -0.0417766273021698,
        0.03446346893906593,
        0.10870443284511566,
        0.06001231446862221,
        0.09833862632513046,
        0.02683243900537491,
        -0.009291849099099636,
        -0.10556007921695709
      ],
      [
        -0.03436312824487686,
        0.04459037259221077,
        0.10211651027202606,
        0.0394606739282608,
        0.025696098804473877,
        0.017019979655742645,
        0.07198730111122131,
        0.08178942650556564,
        0.11678218841552734,
        0.12490261346101761,
        0.06303799152374268,
        0.10794436931610107,
        -0.007940035313367844,
        -0.014270571060478687,
        0.053547583520412445,
        -0.09811895340681076,
        -0.04531863331794739,
        -0.07993810623884201,
        -0.03309289366006851,
        -0.07457235455513,
        -0.032029323279857635,
        -0.05276644974946976,
        -0.011244812980294228,
        -0.0023077959194779396,
        -0.030300965532660484,
        -0.09698262810707092,
        0.09212626516819,
        -0.09339770674705505,
        -0.03956611827015877,
        0.06472615152597427,
        0.14395557343959808,
        0.048419464379549026,
        -0.0130176842212677,
        0.046258579939603806,
        -0.036551401019096375,
        -0.0009059272706508636,
        -0.03964271396398544,
        0.11437874287366867,
        -0.0023147468455135822,
        0.05224965885281563,
        -0.036430876702070236,
        0.0291574876755476,
        0.06891926378011703,
        0.0982964038848877,
        0.09624151885509491,
        0.024032536894083023,
        -0.06088046357035637,
        -0.05030711740255356,
        -0.030596455559134483,
        -0.007498596329241991,
        0.039562907069921494,
        0.06380900740623474,
        0.008476347662508488,
        0.018428005278110504,
        0.05269164592027664,
        0.06254196912050247,
        0.07645899057388306,
        -0.03895474597811699,
        0.18071898818016052,
        0.0708785206079483,
        -0.014747736975550652,
        0.06734832376241684,
        -0.08585375547409058,
        0.0795837938785553,
        -0.06457416713237762,
        0.06833545863628387,
        0.040722258388996124,
        -0.0956229493021965,
        -0.02963878959417343,
        -0.03729279711842537,
        -0.04105040058493614,
        0.10568469762802124
      ],
      [
        0.053357381373643875,
        -0.05950203537940979,
        -0.07723713666200638,
        -0.11751942336559296,
        -0.10727137327194214,
        0.08291251957416534,
        -0.09518009424209595,
        0.0020688259974122047,
        0.10375567525625229,
        -0.11877523362636566,
        0.0694071352481842,
        0.058138199150562286,
        0.051199425011873245,
        -0.04412192106246948,
        -0.06993777304887772,
        -0.02065277472138405,
        0.052669160068035126,
        0.07915706187486649,
        0.07677255570888519,
        0.03014320135116577,
        0.033569756895303726,
        0.014771387912333012,
        0.09647878259420395,
        -0.051277436316013336,
        0.05607752501964569,
        0.10576865822076797,
        0.09654302150011063,
        0.05463923141360283,
        -0.07361531257629395,
        -0.04275628551840782,
        -0.07291993498802185,
        -0.11640221625566483,
        -0.09425695240497589,
        -0.1233770027756691,
        -0.06706396490335464,
        0.020168809220194817,
        0.02556249499320984,
        -0.1100386306643486,
        -0.06116694584488869,
        0.08214026689529419,
        0.07989993691444397,
        -0.03417104110121727,
        0.06370024383068085,
        -0.08661066740751266,
        -0.06652922183275223,
        -0.12169467657804489,
        0.10597196221351624,
        -0.0756910964846611,
        -0.0847376361489296,
        -0.09744692593812943,
        -0.09405359625816345,
        0.049032289534807205,
        -0.11488749831914902,
        -0.007296107243746519,
        -0.1388932466506958,
        -0.06109867990016937,
        -0.09546329081058502,
        0.05436292290687561,
        -0.008866862393915653,
        0.07329049706459045,
        -0.09531410783529282,
        0.020512569695711136,
        -0.0017622871091589332,
        -0.04984983429312706,
        0.005760938860476017,
        -0.005000959616154432,
        -0.023718655109405518,
        -0.09965591132640839,
        0.09208529442548752,
        -0.013056967407464981,
        -0.03002958372235298,
        0.1034371629357338
      ],
      [
        0.01618630439043045,
        0.05582665279507637,
        0.002438892610371113,
        -0.04357628524303436,
        0.03526413068175316,
        -0.10891929268836975,
        0.07204096019268036,
        -0.07341272383928299,
        0.10406367480754852,
        0.09059154987335205,
        -0.09611161053180695,
        0.10409948974847794,
        0.10711420327425003,
        -0.09966994822025299,
        0.08978515863418579,
        0.030180934816598892,
        -0.0013932735892012715,
        0.061570148915052414,
        -0.05972132086753845,
        -0.056690678000450134,
        0.0055350870825350285,
        0.06978960335254669,
        0.08071184158325195,
        0.010381625965237617,
        -0.00864341575652361,
        -0.08828273415565491,
        0.057445649057626724,
        0.00316839711740613,
        -0.04667767882347107,
        0.06612412631511688,
        0.12838684022426605,
        -0.09269669651985168,
        0.08927755802869797,
        -0.04852379485964775,
