{
  "model_architecture": {
    "input_size": 72,
    "hidden_size": 64,
    "output_size": 24,
    "num_layers": 1
  },
  "parameters": {
    "lstm.weight_ih_l0": [
      [
        -0.08265049755573273,
        -0.020890340209007263,
        0.023173540830612183,
        0.013895493932068348,
        0.032952625304460526,
        -0.10291275382041931,
        0.04915905371308327,
        -0.04881632700562477,
        -0.09354700148105621,
        0.07604917883872986,
        -0.06190411373972893,
        -0.02595144882798195,
        -0.060869891196489334,
        0.047215767204761505,
        0.07584221661090851,
        0.003560043405741453,
        -0.09490267932415009,
        -0.14219257235527039,
        -0.026083432137966156,
        0.010463627986609936,
        0.08297503739595413,
        -0.011606207117438316,
        -0.15303722023963928,
        0.08390405774116516,
        -0.1182175949215889,
        -0.05020749568939209,
        -0.042765483260154724,
        -0.005059278104454279,
        0.09918128699064255,
        -0.12353755533695221,
        -0.10768990218639374,
        -0.03346816450357437,
        -0.006985125131905079,
        0.09617997705936432,
        0.07529454678297043,
        -0.03280830755829811,
        0.0762711763381958,
        0.03482603281736374,
        0.0746254101395607,
        -0.1431242823600769,
        0.0919468104839325,
        -0.10629019141197205,
        0.06537356227636337,
        0.042340926826000214,
        -0.09551035612821579,
        0.05933711677789688,
        -0.00848908256739378,
        -0.025835581123828888,
        -0.07450228929519653,
        0.022621991112828255,
        0.0837627723813057,
        0.08938193321228027,
        0.038040369749069214,
        -0.0859747976064682,
        -0.1131386011838913,
        -0.05499358847737312,
        0.03028426505625248,
        -0.054253917187452316,
        0.0653671845793724,
        0.0602772980928421,
        -0.07354482263326645,
        -0.09050094336271286,
        -0.05970330536365509,
        -0.042838431894779205,
        0.0757858082652092,
        -0.013915344141423702,
        -0.13422632217407227,
        0.050776150077581406,
        -0.04048898071050644,
        0.08751749247312546,
        0.07047441601753235,
        0.09063923358917236
      ],
      [
        0.14393331110477448,
        0.11247081309556961,
        0.16426287591457367,
        0.09745865315198898,
        0.09328357875347137,
        -0.05020742490887642,
        0.06230980157852173,
        -0.04252410680055618,
        -0.09189406037330627,
        -0.008904801681637764,
        0.06752876192331314,
        0.025746719911694527,
        0.13941724598407745,
        -0.08697819709777832,
        -0.04806539788842201,
        0.014417771250009537,
        -0.030227579176425934,
        0.13778159022331238,
        0.043421778827905655,
        -0.025681180879473686,
        -0.05217979475855827,
        0.14248467981815338,
        0.06051214411854744,
        0.1290166825056076,
        0.08398193120956421,
        0.12495960295200348,
        -0.018927166238427162,
        0.029404502362012863,
        -0.005708493757992983,
        0.03282850235700607,
        -0.018484026193618774,
        0.12298907339572906,
        -0.0006871407385915518,
        0.1475372314453125,
        0.13811643421649933,
        0.04125822335481644,
        0.06824600696563721,
        0.13639995455741882,
        0.06201408430933952,
        -0.04570657014846802,
        0.02823605202138424,
        -0.01785421557724476,
        -0.06709954142570496,
        0.011731548234820366,
        0.06879287213087082,
        -0.04986117035150528,
        0.10506390035152435,
        0.11478304117918015,
        -0.0697905644774437,
        0.022277964279055595,
        -0.04581211507320404,
        0.04608996585011482,
        0.09477689862251282,
        0.12660226225852966,
        0.05523519590497017,
        0.01288357563316822,
        0.0517733134329319,
        0.09240211546421051,
        0.023588109761476517,
        -0.05538378655910492,
        0.060866840183734894,
        0.10105619579553604,
        0.07921870052814484,
        0.044064804911613464,
        0.07076282799243927,
        -0.07218913733959198,
        0.07579047977924347,
        0.12594491243362427,
        0.10139068961143494,
        0.04177055507898331,
        0.05104566738009453,
        0.05195625126361847
      ],
      [
        0.0492367222905159,
        0.019269628450274467,
        0.019443824887275696,
        -0.03390078619122505,
        0.05052229389548302,
        0.1336105465888977,
        0.09306120127439499,
        0.07695900648832321,
        -0.10681776702404022,
        -0.11283809691667557,
        -0.07774794846773148,
        -0.0873832255601883,
        -0.11232395470142365,
        -0.01793590746819973,
        -0.011566928587853909,
        -0.09437105804681778,
        0.03430307283997536,
        0.049634356051683426,
        0.04339372739195824,
        -0.07012014091014862,
        -0.05831155925989151,
        -0.06496138870716095,
        -0.017514808103442192,
        0.021336419507861137,
        0.08188006281852722,
        -0.032816365361213684,
        0.00881202518939972,
        0.11584238708019257,
        -0.03737063705921173,
        0.0918254628777504,
        0.057287055999040604,
        0.00899592600762844,
        -0.1070113480091095,
        0.048523347824811935,
        0.0926339328289032,
        -0.10948964953422546,
        0.135213240981102,
        -0.08989590406417847,
        -0.029824959114193916,
        0.02288489229977131,
        0.13496017456054688,
        0.03078036941587925,
        -0.012355392798781395,
        0.09046801179647446,
        0.12726205587387085,
        -0.03133627772331238,
        0.012843197211623192,
        0.04570963606238365,
        -0.062255728989839554,
        0.14354448020458221,
        0.13094228506088257,
        -0.08520393073558807,
        0.0036313298624008894,
        0.015864063054323196,
        0.07510686665773392,
        0.11309795081615448,
        -0.021161893382668495,
        -0.04728231206536293,
        0.01109679788351059,
        0.0644875168800354,
        0.04920158162713051,
        -0.0022960149217396975,
        0.14394739270210266,
        0.07315244525671005,
        -0.0167922992259264,
        0.05984658747911453,
        0.01301286369562149,
        0.014611066319048405,
        0.060541681945323944,
        0.09215755015611649,
        0.14792680740356445,
        -0.06256870925426483
      ],
      [
        -0.07196260243654251,
        -0.012919697910547256,
        -0.11335544288158417,
        0.022438770160079002,
        0.05183564871549606,
        -0.12763655185699463,
        0.07904347777366638,
        -0.021941043436527252,
        0.03621750324964523,
        0.0065926495008170605,
        -0.012019994668662548,
        -0.10733916610479355,
        -0.015423395670950413,
        0.02116110734641552,
        0.0010782156605273485,
        0.0838046446442604,
        0.10422863066196442,
        -0.01507376879453659,
        0.05498852580785751,
        0.07381344586610794,
        0.1338469684123993,
        -0.010000268928706646,
        0.04146682471036911,
        -0.09427276998758316,
        0.005648534744977951,
        -0.11242905259132385,
        0.10724061727523804,
        -0.016866078600287437,
        -0.005557973403483629,
        -0.062169525772333145,
        0.055721648037433624,
        -0.09475111216306686,
        0.03770263120532036,
        -0.08655311167240143,
        0.04204980283975601,
        0.035258542746305466,
        0.040365733206272125,
        0.07833345234394073,
        0.12002214044332504,
        0.05986909568309784,
        -0.015522581525146961,
        0.09256377071142197,
        -0.011400249786674976,
        0.0038763785269111395,
        0.024725090712308884,
        0.07566910237073898,
        -0.10807674378156662,
        0.0010893268045037985,
        0.1130991131067276,
        0.09833931177854538,
        -0.07597865164279938,
        0.08028759807348251,
        -0.005128931254148483,
        -0.024672172963619232,
        0.10977331548929214,
        -0.09835898131132126,
        -0.09914112836122513,
        -0.016769826412200928,
        0.11715269088745117,
        0.032379817217588425,
        0.10229413956403732,
        0.08226139843463898,
        0.1394241750240326,
        0.16158004105091095,
        0.1551753431558609,
        0.06815560907125473,
        0.11217755079269409,
        -0.006415007170289755,
        0.05362540856003761,
        -0.02976691536605358,
        -0.0022905708756297827,
        0.14952148497104645
      ],
      [
        -0.1283378303050995,
        -0.04069602116942406,
        0.035651978105306625,
        -0.05923372507095337,
        -0.059660159051418304,
        0.031121160835027695,
        0.109284408390522,
        -0.011048393324017525,
        0.04601341858506203,
        0.13968421518802643,
        0.12649783492088318,
        -0.020429546013474464,
        -0.10023551434278488,
        -0.059356335550546646,
        0.00515228696167469,
        0.029009973630309105,
        0.007989608682692051,
        0.06131623312830925,
        -0.04298694059252739,
        0.041601136326789856,
        0.014110831543803215,
        -0.05073845386505127,
        0.09473162144422531,
        0.03356018289923668,
        0.00938169751316309,
        -0.008556060492992401,
        0.04077749699354172,
        -0.08856485038995743,
        0.01772812195122242,
        0.09496276080608368,
        0.10383404046297073,
        0.054316096007823944,
        0.02791139855980873,
        0.08850257843732834,
        0.12655046582221985,
        -0.057084932923316956,
        -0.08204330503940582,
        0.027377987280488014,
        0.0046555837616324425,
        0.015000684186816216,
        0.016385231167078018,
        -0.0321359746158123,
        0.13929907977581024,
        0.046418800950050354,
        0.04145590960979462,
        0.11719586700201035,
        0.12189183384180069,
        -0.11103561520576477,
        -0.10024955868721008,
        -0.10860686004161835,
        0.12101729959249496,
        0.0019290465861558914,
        0.012849580496549606,
        0.14110468327999115,
        -0.08071247488260269,
        0.09439414739608765,
        0.17007406055927277,
        0.07325803488492966,
        0.09350115805864334,
        0.13504235446453094,
        -0.030746011063456535,
        0.06456682831048965,
        0.07146916538476944,
        0.04458237439393997,
        0.15000052750110626,
        0.044174157083034515,
        0.1372167021036148,
        -0.043662168085575104,
        -0.0784306526184082,
        0.1370597630739212,
        0.121221624314785,
        0.039271946996450424
      ],
      [
        0.10542277991771698,
        0.0589664950966835,
        0.03174973279237747,
        0.09909207373857498,
        -0.0865795910358429,
        0.0863204374909401,
        0.0584116205573082,
        -0.08437860757112503,
        -0.07185996323823929,
        0.048755235970020294,
        -0.09358067065477371,
        -0.041067831218242645,
        -0.0676938071846962,
        -0.13739579916000366,
        -0.09813281148672104,
        0.04879610240459442,
        0.044388700276613235,
        0.04543774574995041,
        0.06803183257579803,
        -0.07496855407953262,
        -0.09095665067434311,
        -0.1251567304134369,
        0.05542486906051636,
        0.0686737447977066,
        0.0791785940527916,
        0.13243916630744934,
        0.05064348131418228,
        -0.03949180990457535,
        0.1262056529521942,
        0.13264036178588867,
        0.038507599383592606,
        0.08964946866035461,
        -0.09373492747545242,
        -0.08873430639505386,
        -0.06758242100477219,
        -0.03668687492609024,
        -0.11461356282234192,
        -0.07267013192176819,
        0.038874462246894836,
        -0.1286231130361557,
        0.011412772350013256,
        -0.005887332372367382,
        -0.034123100340366364,
        0.0009195412858389318,
        -0.028998808935284615,
        0.019184701144695282,
        0.013272000476717949,
        0.09798077493906021,
        0.1460961103439331,
        0.013167246244847775,
        -0.08658288419246674,
        -0.06207331269979477,
        -0.012745775282382965,
        0.09035184979438782,
        0.11054150015115738,
        0.0556977242231369,
        -0.05393599718809128,
        -0.00849957950413227,
        0.07214448601007462,
        -0.104377880692482,
        -0.1173553466796875,
        0.040139760822057724,
        -0.13660287857055664,
        0.012468568049371243,
        -0.12530417740345,
        0.01277666911482811,
        -0.05868193879723549,
        0.09010317921638489,
        -0.009381338953971863,
        0.04532733932137489,
        0.14685936272144318,
        0.1426076889038086
      ],
      [
        -0.12937918305397034,
        -0.059183694422245026,
        0.019962133839726448,
        0.05304333567619324,
        0.0918366089463234,
        0.0371679924428463,
        0.04911324381828308,
        0.020693963393568993,
        -0.0978156253695488,
        -0.07198749482631683,
        -0.05738665163516998,
        -0.031321607530117035,
        0.06257762759923935,
        -0.08288130909204483,
        -0.01604444347321987,
        -0.03746093809604645,
        0.07746212929487228,
        0.06324030458927155,
        0.02981843426823616,
        -0.13903309404850006,
        -0.09111347049474716,
        -0.03842265531420708,
        -0.10561905801296234,
        -0.041491854935884476,
        0.0040276190266013145,
        -0.07673580944538116,
        -0.13461101055145264,
        0.01707700453698635,
        -0.12905339896678925,
        -0.018272066488862038,
        -0.02902570366859436,
        0.023992018774151802,
        -0.1253701001405716,
        -0.11028232425451279,
        0.006496251095086336,
        -0.1390344649553299,
        -0.0010570203885436058,
        0.09006788581609726,
        -0.1081250011920929,
        0.09253734350204468,
        -0.08132920414209366,
        -0.009390968829393387,
        -0.08110059797763824,
        -0.13246087729930878,
        0.08908464759588242,
        -0.061665941029787064,
        0.005102318245917559,
        -0.03899059817194939,
        0.03699829429388046,
        -0.03521522507071495,
        0.058184605091810226,
        0.09384305775165558,
        -0.034301891922950745,
        0.06688030064105988,
        -0.10992715507745743,
        -0.007816377095878124,
        0.06550408154726028,
        -0.13231435418128967,
        -0.003520404454320669,
        -0.006646980997174978,
        -0.0171341635286808,
        0.01860635355114937,
        0.021425819024443626,
        -0.10915767401456833,
        0.07151449471712112,
        -0.09957322478294373,
        -0.04663432762026787,
        -0.10046768933534622,
        -0.022637473419308662,
        0.0016497685573995113,
        0.11007420718669891,
        0.005781597923487425
      ],
      [
        -0.06589531153440475,
        0.06602470576763153,
        -0.02386779524385929,
        0.06856205314397812,
        -0.008959712460637093,
        -0.06726144999265671,
        0.1369924247264862,
        -0.0476330891251564,
        -0.06724271923303604,
        0.07978963106870651,
        -0.028714682906866074,
        0.12151314318180084,
        0.06619653105735779,
        0.03984060138463974,
        -0.01654752902686596,
        -0.10636147111654282,
        0.029827795922756195,
        -0.10886860638856888,
        -0.09391739219427109,
        -0.12186015397310257,
        -0.03133757784962654,
        0.13369697332382202,
        0.004612849559634924,
        0.014362177811563015,
        -0.08644327521324158,
        0.13689936697483063,
        -0.05021152272820473,
        -0.04850621148943901,
        0.10393732786178589,
        0.023963015526533127,
        0.0969325602054596,
        0.05735154077410698,
        -0.06199069693684578,
        0.0807657390832901,
        -0.05009255185723305,
        0.024320777505636215,
        0.07367900013923645,
        -0.04263235256075859,
        0.0834510400891304,
        -0.01339432317763567,
        -0.12282255291938782,
        0.006323866546154022,
        0.09699022769927979,
        0.06179561838507652,
        -0.0870291218161583,
        0.0067455158568918705,
        0.12112174928188324,
        -0.04779139161109924,
        -0.009963666088879108,
        -0.009614396840333939,
        -0.025477157905697823,
        0.1438794583082199,
        0.11444257944822311,
        0.1277099996805191,
        0.1136268898844719,
        -0.0690280944108963,
        -0.08431590348482132,
        -0.07755676656961441,
        0.04828482121229172,
        0.035422418266534805,
        0.11896126717329025,
        0.08904479444026947,
        0.0005832715542055666,
        -0.08650950342416763,
        -0.05039892718195915,
        -0.03368381783366203,
        0.014981544576585293,
        0.10953084379434586,
        0.01837635599076748,
        -0.03813861683011055,
        -0.03411947190761566,
        -0.04039119556546211
      ],
      [
        0.012766469269990921,
        0.005099864210933447,
        -0.0821826159954071,
        0.11929512023925781,
        0.04166112467646599,
        0.058878712356090546,
        0.048776283860206604,
        0.054380517452955246,
        0.004337815567851067,
        -0.022694649174809456,
        -0.11599451303482056,
        0.04512791708111763,
        -0.008286083117127419,
        0.03314061090350151,
        0.1254628300666809,
        -0.048529185354709625,
        0.02883504331111908,
        -0.05938176065683365,
        -0.11114279925823212,
        -0.09221275895833969,
        -0.05719098076224327,
        0.022012706845998764,
        -0.11252591013908386,
        0.0650772675871849,
        0.005895879119634628,
        -0.10027126967906952,
        -0.014045368880033493,
        -0.10856432467699051,
        0.09573353081941605,
        0.0869910717010498,
        -0.0774516835808754,
        0.05372263491153717,
        -0.04629632085561752,
        -0.109519824385643,
        -0.08961877226829529,
        -0.007455537095665932,
        0.06898767501115799,
        -0.05611903592944145,
        -0.06007364019751549,
        0.053893040865659714,
        0.0031352650839835405,
        0.054820466786623,
        0.11577111482620239,
        -0.09692827612161636,
        -0.09361224621534348,
        -0.11265876144170761,
        -0.0994877889752388,
        0.09363947808742523,
        -0.09065324068069458,
        -0.04723621904850006,
        0.063593789935112,
        -0.059188954532146454,
        -0.039176926016807556,
        -0.01572563126683235,
        0.0373271219432354,
        0.057735610753297806,
        -0.0028406293131411076,
        -0.07505211234092712,
        -0.031261105090379715,
        0.002183411968871951,
        -0.014399887062609196,
        0.08296076953411102,
        0.05811850726604462,
        -0.03586472570896149,
        0.08856996148824692,
        0.03984685614705086,
        -0.01863136701285839,
        -0.027665747329592705,
        0.024329181760549545,
        0.04063761606812477,
        -0.0695575699210167,
        0.005976581946015358
      ],
      [
        0.033125922083854675,
        0.10162712633609772,
        0.11224742233753204,
        0.08495807647705078,
        0.05675883963704109,
        0.05421308055520058,
        0.0447123683989048,
        0.0465923547744751,
        -0.08358410000801086,
        -0.06978073716163635,
        -0.11292728036642075,
        0.032017868012189865,
        0.06935503333806992,
        -0.0625755712389946,
        0.09540858119726181,
        -0.11557245999574661,
        0.0920654907822609,
        -0.04030260816216469,
        -0.08390137553215027,
        0.046321794390678406,
        0.04891004413366318,
        -0.024370083585381508,
        -0.07010313123464584,
        0.037955280393362045,
        0.07312386482954025,
        0.008717169053852558,
        -0.05938486382365227,
        0.09951622039079666,
        0.06879454851150513,
        -0.11047323048114777,
        0.09833947569131851,
        0.02168130688369274,
        -0.0994027704000473,
        -0.09103795886039734,
        0.018407350406050682,
        -0.12385434657335281,
        0.07519938051700592,
        0.007351446431130171,
        0.07848654687404633,
        -0.051032114773988724,
        0.09048588573932648,
        0.03312542662024498,
        -0.030347855761647224,
        -0.12833595275878906,
        -0.023026762530207634,
        -0.10971804708242416,
        -0.14895646274089813,
        -0.07575486600399017,
        -0.08472126722335815,
        0.04802081733942032,
        -0.024931184947490692,
        0.10183898359537125,
        -0.0744132325053215,
        0.04472765699028969,
        0.10140757262706757,
        -0.03815699368715286,
        -0.09499228745698929,
        0.044963378459215164,
        -0.007592649664729834,
        0.01570790819823742,
        0.04901875928044319,
        0.08158788084983826,
        0.06095130369067192,
        -0.08595678955316544,
        -0.11969959735870361,
        -0.06845210492610931,
        -0.04688549041748047,
        0.05553506687283516,
        -0.010647122748196125,
        -0.12215568125247955,
        -0.06921740621328354,
        -0.08344990015029907
      ],
      [
        -0.12474234402179718,
        0.10255417227745056,
        -0.10551420599222183,
        -0.01016943994909525,
        0.09181568771600723,
        0.05692058801651001,
        -0.06796443462371826,
        -0.03005625121295452,
        -0.0019234090577811003,
        -0.1232263594865799,
        -0.13414746522903442,
        -0.13795028626918793,
        -0.04311760142445564,
        -0.08077047765254974,
        -0.018573852255940437,
        -0.10391180962324142,
        -0.13356806337833405,
        0.04739120230078697,
        -0.10109126567840576,
        -0.1386888027191162,
        -0.09027715027332306,
        0.08225860446691513,
        -0.12566974759101868,
        0.07430842518806458,
        0.10669446736574173,
        -0.052233096212148666,
        -0.11915122717618942,
        -0.04859639331698418,
        -0.11316165328025818,
        -0.12304111570119858,
        0.04318512603640556,
        -0.08272586762905121,
        0.008622713387012482,
        -0.05950083211064339,
        -0.08491828292608261,
        0.009219048544764519,
        -0.11017969995737076,
        0.05892487242817879,
        0.06274466961622238,
        0.08024591952562332,
        0.000474104774184525,
        0.05838741734623909,
        0.028584443032741547,
        0.05319017916917801,
        -0.0783681869506836,
        -0.12288406491279602,
        -0.06480047851800919,
        0.081966832280159,
        0.0998924970626831,
        0.1294349879026413,
        -0.08448049426078796,
        -0.10537151247262955,
        0.012236152775585651,
        -0.10180753469467163,
        -0.028822598978877068,
        -0.037095218896865845,
        0.05599162355065346,
        0.10590018332004547,
        0.01573200151324272,
        0.046647705137729645,
        -0.08187858015298843,
        0.05661346763372421,
        -0.0017654849216341972,
        -0.07632540166378021,
        -0.027084628120064735,
        -0.0877108946442604,
        0.05387663468718529,
        0.11603900790214539,
        -0.08128327131271362,
        -0.03582141175866127,
        -0.06571920216083527,
        -0.013485672883689404
      ],
      [
        0.034455399960279465,
        0.0320269800722599,
        -0.1084076389670372,
        -0.09807208925485611,
        -0.13577936589717865,
        0.00335668190382421,
        -0.06502284109592438,
        -0.0779215544462204,
        -0.06308785825967789,
        0.06990594416856766,
        0.14236053824424744,
        -0.04441684111952782,
        -0.02467931993305683,
        0.04499467834830284,
        0.12427458167076111,
        0.05152621865272522,
        -0.08380147069692612,
        0.04324846714735031,
        -0.0019466275116428733,
        0.1409946084022522,
        -0.06815696507692337,
        -0.05692432075738907,
        -0.09122966974973679,
        -0.04419476538896561,
        0.006453760899603367,
        -0.14947018027305603,
        -0.03830251842737198,
        0.052370477467775345,
        -0.0016448561800643802,
        -0.05517566576600075,
        -0.0737549215555191,
        -0.1348564773797989,
        0.0457950122654438,
        -0.026009222492575645,
        0.06137751042842865,
        0.09102097898721695,
        0.16024871170520782,
        0.10705820471048355,
        -0.05607011541724205,
        0.14847958087921143,
        0.000750327599234879,
        -0.05877730995416641,
        -0.06540067493915558,
        0.09015528112649918,
        0.015794727951288223,
        -0.10922174155712128,
        0.008797265589237213,
        -0.14537157118320465,
        0.08048862963914871,
        -0.07168281823396683,
        -0.009870627894997597,
        0.05989504233002663,
        -0.06580797582864761,
        -0.05617361143231392,
        -0.07124724239110947,
        0.033013686537742615,
        0.08169913291931152,
        0.09294097125530243,
        -0.03567814826965332,
        0.10641122609376907,
        0.16263684630393982,
        -0.01632595807313919,
        0.11429569125175476,
        0.1099737361073494,
        -0.0017087142914533615,
        0.1169782355427742,
        0.14952358603477478,
        0.13400132954120636,
        0.1466348022222519,
        -0.038561560213565826,
        -0.08348239958286285,
        -0.0011960264528170228
      ],
      [
        0.14048276841640472,
        -0.031160376965999603,
        0.1257254034280777,
        -0.07274653762578964,
        -0.06296008825302124,
        -0.10536423325538635,
        -0.027825260534882545,
        -0.01732713356614113,
        0.016309984028339386,
        0.06355492025613785,
        -0.12492600828409195,
        0.020931826904416084,
        -0.025290753692388535,
        -0.1399848908185959,
        -0.08808945119380951,
        -0.0927499309182167,
        0.05909235402941704,
        0.04031295329332352,
        -0.0612526573240757,
        0.09039561450481415,
        0.02759232185781002,
        -0.08928077667951584,
        -0.0046539222821593285,
        0.06527150422334671,
        -0.03574014827609062,
        0.05376359820365906,
        0.06228276342153549,
        -0.06116101145744324,
        0.014458234421908855,
        0.11182607710361481,
        0.046526502817869186,
        0.03761826828122139,
        -0.0022764205932617188,
        -0.02463705651462078,
        -0.1025104895234108,
        -0.02065216191112995,
        -0.00657560583204031,
        -0.1292332112789154,
        -0.06347217410802841,
        -0.07739106565713882,
        -0.03134993091225624,
        -0.06235272064805031,
        -0.0752929151058197,
        0.02629281021654606,
        0.14680235087871552,
        -0.0573597326874733,
        0.032775767147541046,
        0.061664994806051254,
        -0.057727694511413574,
        0.05058180168271065,
        -0.012377255596220493,
        0.1335216909646988,
        0.09053866565227509,
        0.019145607948303223,
        -0.053673647344112396,
        0.10588674992322922,
        0.04757485166192055,
        0.01616252027451992,
        -0.05887162685394287,
        -0.12319677323102951,
        -0.11864540725946426,
        0.0485542006790638,
        0.10010514408349991,
        -0.08419227600097656,
        -0.03885769471526146,
        0.014126903377473354,
        -0.06486321985721588,
        0.005097730550915003,
        -0.05908554419875145,
        -0.04642760753631592,
        0.11752916872501373,
        0.11235925555229187
      ],
      [
        -0.057278767228126526,
        0.08301135897636414,
        -0.02094874531030655,
        0.05955980345606804,
        -0.007425893563777208,
        0.10871119797229767,
        0.05097736045718193,
        -0.06581491976976395,
        -0.0697440654039383,
        0.14498624205589294,
        0.12928976118564606,
        -0.08275976777076721,
        0.04925988242030144,
        -0.01747724786400795,
        0.025152157992124557,
        0.08143749088048935,
        0.09131251275539398,
        0.008042286150157452,
        0.01858128421008587,
        0.008164113387465477,
        0.0048806676641106606,
        0.042824674397706985,
        0.0199811402708292,
        -0.11592929810285568,
        -0.0009717178763821721,
        0.0926753506064415,
        0.11175713688135147,
        0.041615139693021774,
        0.11944905668497086,
        -0.0900469571352005,
        0.061970360577106476,
        0.030311722308397293,
        0.11884234100580215,
        0.006199684925377369,
        -0.03794606029987335,
        0.022214524447917938,
        0.13327541947364807,
        0.15445345640182495,
        0.1270827203989029,
        -0.019851356744766235,
        -0.004120208788663149,
        -0.019138338044285774,
        -0.07240313291549683,
        -0.0585603192448616,
        0.001210790709592402,
        -0.06641390919685364,
        0.059219855815172195,
        0.12585534155368805,
        0.0695044994354248,
        0.08587703853845596,
        -0.08857985585927963,
        0.008618893101811409,
        -0.07243473827838898,
        0.07233037799596786,
        -0.02515227347612381,
        0.057532552629709244,
        0.01278110034763813,
        0.00586328050121665,
        -0.02609388530254364,
        -0.012752425856888294,
        0.09346172958612442,
        -0.05111788958311081,
        0.02092839777469635,
        0.02930566668510437,
        0.14618843793869019,
        0.16386055946350098,
        0.12618780136108398,
        0.16413310170173645,
        -0.08816634118556976,
        0.1473408192396164,
        0.09466411173343658,
        0.13909512758255005
      ],
      [
        0.015221815556287766,
        0.1253681629896164,
        -0.07191729545593262,
        0.01944638416171074,
        0.010797938331961632,
        0.08896864205598831,
        0.0008090408518910408,
        -0.05229288339614868,
        0.12376050651073456,
        -0.06308156996965408,
        -0.02180236391723156,
        0.03682022914290428,
        0.036383163183927536,
        -0.06395745277404785,
        0.08490794897079468,
        -0.03366745263338089,
        0.02930663526058197,
        -0.10550979524850845,
        0.021485306322574615,
        -0.08587299287319183,
        -0.025097114965319633,
        -0.02861628867685795,
        0.007527617737650871,
        -0.072762630879879,
        -0.0784447193145752,
        0.07199310511350632,
        0.013721968047320843,
        0.14277561008930206,
        -0.050397880375385284,
        0.09496931731700897,
        0.11143844574689865,
        -0.0296306312084198,
        0.04611432924866676,
        0.12089337408542633,
        -0.0978686511516571,
        -0.07213825732469559,
        0.07038852572441101,
        0.025007173418998718,
        -0.06642793118953705,
        -0.09326040744781494,
        0.027812356129288673,
        0.07523657381534576,
        -0.06156716123223305,
        0.026823116466403008,
        0.12026479095220566,
        -0.08615238219499588,
        0.004663705360144377,
        0.002547613810747862,
        0.12130264937877655,
        -0.05557096377015114,
        0.11540194600820541,
        0.14633582532405853,
        -0.05671128258109093,
        0.005422779358923435,
        0.05968346819281578,
        0.013459897600114346,
        0.1420927196741104,
        -0.07929886877536774,
        0.05579240992665291,
        -0.048594631254673004,
        0.0004551923193503171,
        0.0016997891943901777,
        0.12244770675897598,
        0.12879382073879242,
        0.036210011690855026,
        0.1242397278547287,
        -0.03326083719730377,
        -0.02615790069103241,
        -0.06346500664949417,
        0.05241211876273155,
        0.049065276980400085,
        -0.05019142106175423
      ],
      [
        0.10618729144334793,
        0.09549564123153687,
        -0.019483856856822968,
        0.0940738171339035,
        0.10749998688697815,
        0.14415070414543152,
        0.11740005761384964,
        0.1310669183731079,
        0.09971543401479721,
        -0.049552157521247864,
        0.03490331396460533,
        -0.027650754898786545,
        -0.030017323791980743,
        0.12248104810714722,
        0.03360937908291817,
        0.15750083327293396,
        0.14271430671215057,
        0.142380952835083,
        -0.019714390859007835,
        0.09251025319099426,
        0.1061766967177391,
        0.11506177484989166,
        0.08967434614896774,
        0.0954657644033432,
        -0.018957162275910378,
        0.06450481712818146,
        0.07502219825983047,
        0.0035701722372323275,
        0.04459883272647858,
        0.07384250313043594,
        0.09013492614030838,
        -0.007754410617053509,
        0.07370178401470184,
        -0.04321419075131416,
        0.05000631511211395,
        0.08595097810029984,
        0.08009523898363113,
        0.005198740866035223,
        -0.05951332673430443,
        0.030370742082595825,
        0.003270836314186454,
        -0.06170007586479187,
        0.08334604650735855,
        0.005990565288811922,
        0.08242128789424896,
        0.0052688890136778355,
        -0.021420560777187347,
        0.01212115678936243,
        0.07480603456497192,
        -0.0962710976600647,
        -0.07936979830265045,
        0.13098658621311188,
        0.07784665375947952,
        0.014874134212732315,
        -0.008275335654616356,
        0.08619867265224457,
        0.05899133160710335,
        0.0005505302106030285,
        0.14966385066509247,
        0.13483794033527374,
        0.09679145365953445,
        0.007317663636058569,
        -0.05924762412905693,
        -0.020732952281832695,
        0.01940702274441719,
        -0.0445023775100708,
        0.010700668208301067,
        0.16906669735908508,
        0.15709419548511505,
        0.1565748155117035,
        0.0450766421854496,
        0.0638049766421318
      ],
      [
        0.011702637188136578,
        0.0868351012468338,
        -0.05375855788588524,
        0.15192687511444092,
        0.04412743076682091,
        -0.06104696914553642,
        0.10912766307592392,
        -0.08432725816965103,
        0.05675804987549782,
        0.0023764856159687042,
        -0.04017111659049988,
        -0.12889988720417023,
        -0.09503121674060822,
        0.07959093898534775,
        0.004800011869519949,
        0.057190727442502975,
        -0.11659896373748779,
        0.0022619871888309717,
        -0.003653019666671753,
        0.0595896877348423,
        0.10342057794332504,
        0.05916215106844902,
        -0.0324350968003273,
        0.14840170741081238,
        -0.05508963763713837,
        0.09924020618200302,
        0.17199288308620453,
        -0.02444404363632202,
        0.10511302202939987,
        -0.007954851724207401,
        0.09298502653837204,
        0.010930486023426056,
        0.1052057147026062,
        -0.0015988866798579693,
        0.08725278079509735,
        0.01792842335999012,
        0.10078412294387817,
        0.005802631378173828,
        -0.06974347680807114,
        0.051465343683958054,
        -0.047608260065317154,
        0.0267453845590353,
        0.021413529291749,
        -0.02606116235256195,
        0.12100985646247864,
        -0.0435105562210083,
        -0.05359231308102608,
        0.1536749005317688,
        0.02183266542851925,
        -0.01288775447756052,
        0.10025645792484283,
        0.14285267889499664,
        0.07472020387649536,
        0.1538158357143402,
        0.14161793887615204,
        0.01827250048518181,
        0.11563988775014877,
        -0.017081111669540405,
        0.10970176756381989,
        -0.1388799399137497,
        -0.10630926489830017,
        -0.11994689702987671,
        -0.07521077990531921,
        -0.07449912279844284,
        -0.08948418498039246,
        0.0018594563007354736,
        0.0856558233499527,
        0.11953358352184296,
        0.07300809770822525,
        0.07178657501935959,
        0.11556830257177353,
        -0.01744488999247551
      ],
      [
        -0.002575305290520191,
        0.11425386369228363,
        0.023315127938985825,
        0.11482691019773483,
        -0.0562906339764595,
        0.0038895898032933474,
        0.12059840559959412,
        0.05314961075782776,
        0.013484586961567402,
        -0.025827279314398766,
        -0.08077165484428406,
        -0.04458267241716385,
        -0.04586200788617134,
        -0.10138826817274094,
        0.07051040232181549,
        0.03592180088162422,
        0.06658241897821426,
        0.055341605097055435,
        0.008540648967027664,
        0.054383762180805206,
        0.05325084924697876,
        0.03152726590633392,
        -0.053280796855688095,
        -0.08646318316459656,
        0.11300961673259735,
        -0.054153185337781906,
        -0.02862587757408619,
        0.043631065636873245,
        0.1405227780342102,
        -0.08448054641485214,
        0.10778003931045532,
        0.009850007481873035,
        0.039446618407964706,
        0.05398968979716301,
        -0.06326277554035187,
        -0.11098391562700272,
        0.08001799881458282,
        0.09441155195236206,
        -0.10695298761129379,
        0.02178078331053257,
        0.028740134090185165,
        0.11384232342243195,
        -0.09789591282606125,
        -0.009887625463306904,
        -0.01038249023258686,
        -0.05594681203365326,
        0.019327662885189056,
        -0.03930341452360153,
        0.15047290921211243,
        0.1565699428319931,
        0.07486050575971603,
        0.09937913715839386,
        -0.0046180235221982,
        0.03245488181710243,
        -0.06417316943407059,
        0.01684616692364216,
        0.0632551982998848,
        -0.025049513205885887,
        0.025556905195116997,
        0.0010895469458773732,
        -0.04111349582672119,
        0.041901327669620514,
        0.011670708656311035,
        -0.08086743950843811,
        0.006963369902223349,
        -0.06533250957727432,
        0.08945997059345245,
        -0.06322264671325684,
        0.08775284141302109,
        0.09867283701896667,
        0.17838159203529358,
        0.07414945214986801
      ],
      [
        -0.04541163891553879,
        -0.11561030894517899,
        -0.0040664286352694035,
        0.09122487157583237,
        -0.036947641521692276,
        0.10512910783290863,
        -0.007874535396695137,
        -0.0667925626039505,
        -0.10198043286800385,
        0.09067854285240173,
        -0.0036819172091782093,
        -0.07547784596681595,
        -0.12204720079898834,
        0.05993381887674332,
        0.01827816851437092,
        0.057092681527137756,
        -0.1214338019490242,
        0.03302288055419922,
        0.04584834724664688,
        -0.11218026280403137,
        0.1135491281747818,
        -0.04517494887113571,
        0.002331688767299056,
        0.09314426779747009,
        0.09156356006860733,
        -0.10853192210197449,
        -0.04036285728216171,
        -0.062172628939151764,
        0.10836342722177505,
        0.07712079584598541,
        0.05589593946933746,
        -0.052983932197093964,
        -0.10560250282287598,
        0.045646049082279205,
        -0.13221655786037445,
        -0.06034843996167183,
        0.07126814872026443,
        -0.0051756505854427814,
        -0.09628410637378693,
        0.009299060329794884,
        0.04876852035522461,
        0.02514190785586834,
        0.029960807412862778,
        0.07742402702569962,
        0.026393383741378784,
        0.07430081069469452,
        0.0876815915107727,
        0.03761160001158714,
        0.07707592844963074,
        0.030030613765120506,
        -0.01647706888616085,
        -0.07242629677057266,
        0.116690993309021,
        0.11991062760353088,
        -0.025720462203025818,
        0.09715307503938675,
        -0.05775340273976326,
        -0.029904179275035858,
        0.09888312965631485,
        -0.07417330890893936,
        0.07283204048871994,
        -0.06220715492963791,
        0.022243402898311615,
        -0.09899138659238815,
        0.04342027008533478,
        0.10305247455835342,
        0.059585485607385635,
        -0.024543900042772293,
        0.13211897015571594,
        0.1276259869337082,
        0.02718045935034752,
        0.01481049694120884
      ],
      [
        -0.042730145156383514,
        -0.09663470834493637,
        0.10788349062204361,
        -0.02187461405992508,
        -0.13005882501602173,
        -0.04705576226115227,
        0.024649763479828835,
        0.03273950517177582,
        0.02849235199391842,
        0.033910248428583145,
        -0.04118159040808678,
        -0.07450264692306519,
        -0.024361424148082733,
        -0.04928731173276901,
        0.11126890778541565,
        -0.044811684638261795,
        -0.06286543607711792,
        -0.0747293159365654,
        0.02921467088162899,
        0.12132789194583893,
        0.0743035227060318,
        0.04122630134224892,
        0.09987909346818924,
        -0.07077480107545853,
        0.08798932284116745,
        0.06636372953653336,
        -0.04866955801844597,
        -0.12843850255012512,
        -0.10144730657339096,
        0.11447159945964813,
        -0.07722750306129456,
        -0.09116682410240173,
        0.11681418865919113,
        0.03409760445356369,
        -0.03046419285237789,
        -0.0729692354798317,
        -0.011590462177991867,
        0.08484828472137451,
        0.005497231613844633,
        0.05915754288434982,
        0.08680117130279541,
        -0.010078763589262962,
        0.10725732892751694,
        -0.025122415274381638,
        -0.09348669648170471,
        -0.07828747481107712,
        0.06457623839378357,
        0.094071164727211,
        0.01972769759595394,
        0.010942078195512295,
        0.10651563853025436,
        -0.05483194440603256,
        -0.010112503543496132,
        0.0409250371158123,
        0.053744059056043625,
        0.1256352663040161,
        -0.08082382380962372,
        -0.013102799654006958,
        0.08934960514307022,
        0.07782065123319626,
        -0.07357455790042877,
        0.08185376971960068,
        0.07885563373565674,
        -0.04609427601099014,
        0.02902827039361,
        0.1088486835360527,
        0.06815458834171295,
        -0.015005831606686115,
        0.09211227297782898,
        -0.05034559220075607,
        -0.0537174828350544,
        0.03701906278729439
      ],
      [
        0.02240762487053871,
        0.1147354394197464,
        0.04304151237010956,
        -0.09493638575077057,
        -0.02957388013601303,
        -0.06673000752925873,
        0.06728518754243851,
        0.07447198033332825,
        0.09396705776453018,
        0.11991008371114731,
        -0.07608379423618317,
        0.08434201776981354,
        0.0007174041238613427,
        0.05351186543703079,
        0.132354736328125,
        0.0558762326836586,
        0.046276554465293884,
        -0.08235194534063339,
        -0.055438555777072906,
        -0.07522973418235779,
        0.08325332403182983,
        0.13937623798847198,
        0.018288571387529373,
        0.07785733044147491,
        -0.09777563065290451,
        -0.10357800871133804,
        -0.07892327010631561,
        -0.1105164960026741,
        0.07979241758584976,
        0.08366227895021439,
        0.049706924706697464,
        -0.06865391880273819,
        0.018131965771317482,
        0.05478787049651146,
        -0.0705423578619957,
        -0.0008350881398655474,
        -0.019964538514614105,
        -0.06927704811096191,
        0.11634818464517593,
        0.075013168156147,
        -0.04449930414557457,
        0.017945360392332077,
        0.0014870591694489121,
        0.08421769738197327,
        -0.05650452524423599,
        -0.0641954317688942,
        0.07201310992240906,
        -0.07339226454496384,
        0.11963699012994766,
        -0.07347941398620605,
        -0.0022931296844035387,
        0.04171011969447136,
        -0.020498385652899742,
        0.12036865949630737,
        -0.05520843341946602,
        -0.0488409623503685,
        0.05185110867023468,
        0.11775213479995728,
        -0.07549557834863663,
        -0.08265997469425201,
        0.1037835106253624,
        -0.05802985280752182,
        0.04052691161632538,
        -0.03458466753363609,
        -0.09912968426942825,
        0.031033329665660858,
        -0.031345196068286896,
        -0.029034482315182686,
        0.04860563948750496,
        0.030521750450134277,
        0.08830059319734573,
        0.06797762960195541
      ],
      [
        0.10221858322620392,
        0.02784505859017372,
        -0.07334889471530914,
        -0.010096079669892788,
        -0.058049917221069336,
        0.010196547023952007,
        -0.04863820970058441,
        0.053241610527038574,
        0.04162299260497093,
        0.0715089738368988,
        0.10283198952674866,
        -0.06922580301761627,
        0.08312756568193436,
        -0.13331754505634308,
        0.059520699083805084,
        0.016008947044610977,
        -0.013893493451178074,
        -0.041076626628637314,
        0.07940448075532913,
        -0.0710887685418129,
        0.04437048360705376,
        -0.1312377005815506,
        0.10299840569496155,
        -0.08583610504865646,
        0.11284343153238297,
        0.010956778191030025,
        -0.07717671990394592,
        -0.06142261251807213,
        -0.04952138662338257,
        0.08962225168943405,
        -0.010763607919216156,
        -0.037812672555446625,
        0.13991239666938782,
        0.004229205194860697,
        0.01080375351011753,
        0.06670153886079788,
        0.10211388766765594,
        -0.0013767777709290385,
        -0.15261322259902954,
        -0.1088949665427208,
        -0.1362811028957367,
        -0.127325639128685,
        -0.00038005903479643166,
        0.004901019856333733,
        0.035456471145153046,
        -0.08372247219085693,
        0.008936003781855106,
        0.0945744588971138,
        -0.008307209238409996,
        -0.08892464637756348,
        -0.028512930497527122,
        -0.05953429639339447,
        -0.05885361135005951,
        0.06261688470840454,
        -0.0386829636991024,
        0.15762202441692352,
        0.15355509519577026,
        -0.09504980593919754,
        -0.0064843022264540195,
        0.07920606434345245,
        0.06117299944162369,
        -0.0635223314166069,
        -0.08482904732227325,
        0.0930619090795517,
        -0.12832863628864288,
        0.06116706132888794,
        -0.1159583106637001,
        -0.10161428898572922,
        0.06832689791917801,
        0.10776390135288239,
        0.017267145216464996,
        0.03626254200935364
      ],
      [
        -0.0263862032443285,
        -0.02509068325161934,
        0.02744239754974842,
        0.011946002952754498,
        0.04063669964671135,
        -0.03673907369375229,
        0.006382585968822241,
        -0.0753004252910614,
        -0.010668132454156876,
        0.1162707582116127,
        0.06617362052202225,
        -0.026052629575133324,
        -0.025576232001185417,
        -0.06121661886572838,
        -0.11118260025978088,
        -0.007317258045077324,
        0.0747760534286499,
        0.020571136847138405,
        -0.039109211415052414,
        0.04514572024345398,
        0.06344760954380035,
        -0.011547957547008991,
        0.133237823843956,
        0.13582435250282288,
        -0.03857351467013359,
        -0.0786818414926529,
        0.011577821336686611,
        0.11017521470785141,
        0.010123505257070065,
        -0.006841059308499098,
        0.016256744042038918,
        -0.04356107860803604,
        0.0008212100947275758,
        -0.06816047430038452,
        -0.04128696024417877,
        0.10869424045085907,
        0.054027657955884933,
        -0.016329985111951828,
        0.06597219407558441,
        -0.045974913984537125,
        0.04514818266034126,
        0.08141035586595535,
        0.04216615483164787,
        0.0575391910970211,
        -0.040871210396289825,
        -0.024045398458838463,
        0.05211503431200981,
        0.059684690088033676,
        0.04324799031019211,
        -0.04816662147641182,
        0.08823871612548828,
        -0.01055817399173975,
        0.1495191901922226,
        0.057118453085422516,
        -0.06696666777133942,
        0.16280122101306915,
        -0.07535282522439957,
        -0.0761072114109993,
        0.053084373474121094,
        0.03497961908578873,
        -0.004582896828651428,
        0.12240707874298096,
        0.0023291162215173244,
        -0.06718093156814575,
        0.0502566434442997,
        -0.1039259284734726,
        0.06799648702144623,
        -0.0014212365495041013,
        0.08426877856254578,
        -0.07238367944955826,
        0.14013361930847168,
        0.14830532670021057
      ],
      [
        0.12376115471124649,
        -0.05605115368962288,
        -0.0815783366560936,
        0.14767222106456757,
        -0.06263981759548187,
        -0.058578409254550934,
        -0.0724981501698494,
        0.0316363163292408,
        -0.08872608095407486,
        -0.0791270062327385,
        0.08150584995746613,
        0.009155712090432644,
        0.04224301502108574,
        -0.05915325507521629,
        0.105404332280159,
        0.05371607095003128,
        0.08893313258886337,
        0.024807346984744072,
        -0.13727769255638123,
        0.07342983037233353,
        0.02277294360101223,
        0.03515280783176422,
        -0.007082645781338215,
        0.1081196591258049,
        0.03335489332675934,
        -0.07400987297296524,
        0.13570192456245422,
        -0.03987342491745949,
        -0.05616338178515434,
        0.08520752936601639,
        0.04622554033994675,
        0.033889736980199814,
        -0.03554535657167435,
        0.020391536876559258,
        0.02712530642747879,
        0.021702200174331665,
        -0.02072293683886528,
        -0.06098706275224686,
        -0.10091704875230789,
        -0.10820960253477097,
        0.1023181825876236,
        0.05211731046438217,
        0.050078216940164566,
        0.018215050920844078,
        0.004454100038856268,
        -0.007394228596240282,
        0.11428193747997284,
        0.0934513732790947,
        0.16635355353355408,
        -0.0667402446269989,
        -0.04458383470773697,
        0.14001113176345825,
        -0.0657079666852951,
        0.10714638233184814,
        -0.03887774422764778,
        0.09135722368955612,
        0.07993833720684052,
        -0.056450024247169495,
        0.025208406150341034,
        -0.06687690317630768,
        0.10057678818702698,
        0.02729717455804348,
        0.005962749477475882,
        -0.09107774496078491,
        0.10512463003396988,
        0.1262722909450531,
        0.08880253881216049,
        0.12097393721342087,
        0.09097932279109955,
        0.13557709753513336,
        0.05110456794500351,
        0.14389799535274506
      ],
      [
        0.04741000011563301,
        -0.07136846333742142,
        -0.12872736155986786,
        -0.0058458540588617325,
        0.047069571912288666,
        0.06203997880220413,
        -0.10032214224338531,
        0.08976779133081436,
        -0.09795491397380829,
        -0.05356769263744354,
        0.05415939539670944,
        -0.10262495279312134,
        -0.05165417864918709,
        0.048083189874887466,
        0.04023955762386322,
        -0.033140089362859726,
        -0.008406520821154118,
        0.12272763252258301,
        -0.05284924805164337,
        -0.0612976960837841,
        0.0387938991189003,
        -0.06762589514255524,
        -0.10952117294073105,
        0.05114704743027687,
        -0.07592292875051498,
        -0.06593715399503708,
        0.08139832317829132,
        -0.1146417036652565,
        0.08503378927707672,
        0.09620237350463867,
        0.08776702731847763,
        -0.04435589909553528,
        -0.0502755343914032,
        -0.12777112424373627,
        -0.03656153753399849,
        0.0386308878660202,
        0.03078186698257923,
        0.040927257388830185,
        0.0783190131187439,
        -0.02027900144457817,
        0.005163609981536865,
        0.1240360289812088,
        0.08613093942403793,
        0.11304231733083725,
        -0.013756358064711094,
        -0.03682853654026985,
        -0.09209128469228745,
        -0.09429138898849487,
        0.08413808047771454,
        -0.02627788670361042,
        -0.028530512005090714,
        0.019691234454512596,
        0.013169835321605206,
        0.07279276847839355,
        -0.05863066762685776,
        0.125818133354187,
        0.051203563809394836,
        -0.04693561792373657,
        0.0361924022436142,
        -0.0056551252491772175,
        -0.031844038516283035,
        -0.005530822090804577,
        -0.07785029709339142,
        0.12301276624202728,
        -0.0682537704706192,
        -0.07732009142637253,
        -0.03269002214074135,
        -0.0574842169880867,
        -0.06377999484539032,
        0.10161823779344559,
        0.10069730132818222,
        0.13629397749900818
      ],
      [
        -0.11254417896270752,
        -0.018350031226873398,
        0.021156445145606995,
        -0.049916576594114304,
        0.06867305189371109,
        -0.10703819990158081,
        0.0005038838717155159,
        0.10431414097547531,
        -0.05180298909544945,
        0.00966696348041296,
        0.07110424339771271,
        -0.09854487329721451,
        -0.050213608890771866,
        -0.018760688602924347,
        0.019298143684864044,
        0.016565730795264244,
        0.1247035413980484,
        0.030641520395874977,
        0.007923780009150505,
        -0.026807982474565506,
        0.025425471365451813,
        -0.09734957665205002,
        -0.07084987312555313,
        0.004967781715095043,
        0.05632299184799194,
        -0.03253144770860672,
        -0.12487970292568207,
        0.008979275822639465,
        -0.01950768195092678,
        -0.010902549140155315,
        -0.03304571658372879,
        0.007953633554279804,
        0.06578332930803299,
        -0.04067553952336311,
        -0.040414709597826004,
        -0.09063291549682617,
        0.09111174196004868,
        -0.011746209114789963,
        0.035097554326057434,
        -0.03753124549984932,
        0.104405477643013,
        0.005271858535706997,
        -0.015654182061553,
        0.12210004031658173,
        0.12399251759052277,
        0.06464327126741409,
        0.008528467267751694,
        0.10529585182666779,
        0.0393419973552227,
        -0.05602574720978737,
        -0.03992566466331482,
        -0.08880875259637833,
        0.048031773418188095,
        0.11458506435155869,
        -0.09826928377151489,
        0.11366588622331619,
        0.10328618437051773,
        -0.01765552908182144,
        0.06889402866363525,
        0.0507308691740036,
        -0.004342074040323496,
        0.06373502314090729,
        0.04430367797613144,
        -0.035524237900972366,
        0.001323263393715024,
        -0.02630995213985443,
        0.050473492592573166,
        0.04705415293574333,
        -0.06897024065256119,
        0.1177220568060875,
        -0.01426481269299984,
        0.08359209448099136
      ],
      [
        -0.017837142571806908,
        0.03745247796177864,
        0.07343675196170807,
        -0.06380648165941238,
        0.07959100604057312,
        0.07145044207572937,
        0.016077980399131775,
        0.10263298451900482,
        0.09220510721206665,
        0.01293609756976366,
        -0.0403495654463768,
        0.09588626027107239,
        0.07791434228420258,
        -0.05577392131090164,
        0.054551102221012115,
        -0.09195409715175629,
        0.06207325682044029,
        0.006442904472351074,
        0.006091444753110409,
        0.06735476851463318,
        0.07110690325498581,
        -0.0768897607922554,
        0.012253757566213608,
        0.0915769636631012,
        0.0670611560344696,
        0.03899350017309189,
        -0.011959712952375412,
        0.05367441102862358,
        0.07803777605295181,
        0.10885090380907059,
        -0.049397483468055725,
        0.14491884410381317,
        0.08704453706741333,
        -0.08656370639801025,
        -0.02023768238723278,
        -0.00297411042265594,
        0.11527655273675919,
        0.06715741753578186,
        0.015523838810622692,
        0.026908451691269875,
        0.03247987851500511,
        0.06468576192855835,
        -0.023667939007282257,
        0.058413706719875336,
        -0.09254089742898941,
        -0.005171558354049921,
        -0.030054869130253792,
        0.016775010153651237,
        0.05844702571630478,
        0.09644632041454315,
        0.14853516221046448,
        0.08325941115617752,
        -0.08634886145591736,
        -0.06016559526324272,
        -0.005111366510391235,
        0.13665111362934113,
        0.0018332017352804542,
        0.16980290412902832,
        0.09167618304491043,
        -0.05784403160214424,
        0.1671006828546524,
        0.029929600656032562,
        0.027906453236937523,
        0.14558404684066772,
        -0.09112241119146347,
        0.0953521803021431,
        0.06072663143277168,
        -0.07826657593250275,
        0.06295286864042282,
        0.06895675510168076,
        0.1521039754152298,
        0.15235957503318787
      ],
      [
        -0.03569352254271507,
        -0.005998630076646805,
        0.04105733707547188,
        -0.023762842640280724,
        0.049527186900377274,
        -0.039113905280828476,
        0.05769436061382294,
        0.07160928845405579,
        0.1692894548177719,
        0.06051899120211601,
        0.02536664716899395,
        0.06858497858047485,
        -0.06827521324157715,
        -0.12166048586368561,
        0.05465064197778702,
        -0.044402141124010086,
        -0.13219766318798065,
        0.049788713455200195,
        0.02391551062464714,
        0.037709567695856094,
        0.011270573362708092,
        0.0015733003383502364,
        -0.009538386017084122,
        -0.046694714576005936,
        -0.07731424272060394,
        0.1378781646490097,
        0.0757376030087471,
        0.08306421339511871,
        0.15964992344379425,
        -0.033152513206005096,
        0.02965651825070381,
        0.10327661782503128,
        -0.06001852825284004,
        0.07702261954545975,
        0.04364240914583206,
        -0.002165646757930517,
        0.07373987883329391,
        0.030736703425645828,
        -0.06573324650526047,
        -0.13171043992042542,
        0.06511223316192627,
        -0.09107925742864609,
        -0.08359229564666748,
        -0.031247396022081375,
        -0.1371619701385498,
        -0.05664457380771637,
        -0.053823765367269516,
        -0.030413202941417694,
        -0.0007597075309604406,
        0.01168742310255766,
        0.14820823073387146,
        0.03657893091440201,
        0.04095989093184471,
        0.14194126427173615,
        0.03700093552470207,
        0.1662829965353012,
        0.04181342571973801,
        -0.046085961163043976,
        0.059620752930641174,
        0.04704628139734268,
        -0.024598978459835052,
        0.05850532278418541,
        -0.0021875924430787563,
        0.06592124700546265,
        -0.13296069204807281,
        -0.06362459808588028,
        -0.054180387407541275,
        0.025147076696157455,
        0.03952781856060028,
        0.04651786759495735,
        0.10175373405218124,
        0.08081214129924774
      ],
      [
        0.04062832519412041,
        -0.061575647443532944,
        -0.007361198775470257,
        -0.12947744131088257,
        0.054268356412649155,
        -0.04478760436177254,
        -0.0867401733994484,
        0.06482324749231339,
        -0.08790505677461624,
        0.10626103729009628,
        -0.010132852010428905,
        -0.12041562050580978,
        0.10749074816703796,
        -0.09167567640542984,
        0.12884531915187836,
        -0.09795311838388443,
        -0.11136799305677414,
        0.0787273645401001,
        -0.10866694152355194,
        0.035740114748477936,
        0.12278240919113159,
        -0.007393421605229378,
        -0.0035603633150458336,
        0.09254425764083862,
        0.06730104982852936,
        0.11429288238286972,
        0.0002708255487959832,
        0.029002977535128593,
        -0.09700310975313187,
        0.11575863510370255,
        0.10712585598230362,
        -0.05902104452252388,
        0.03314513713121414,
        -0.0737217515707016,
        -0.01718546263873577,
        -0.0315936878323555,
        0.034028925001621246,
        -0.003999683074653149,
        0.025936516001820564,
        0.050859030336141586,
        0.08583372086286545,
        -0.07968378812074661,
        0.062163788825273514,
        0.1073007881641388,
        -0.03505546972155571,
        0.06279649585485458,
        0.10477393120527267,
        0.04816224426031113,
        -0.09383680671453476,
        -0.10834232717752457,
        -0.034538716077804565,
        -0.024112235754728317,
        0.053364142775535583,
        0.10536771267652512,
        -0.014947229065001011,
        0.13643991947174072,
        0.03149735555052757,
        -0.05454379320144653,
        0.1018853411078453,
        -0.048319000750780106,
        0.12090273946523666,
        0.00782383419573307,
        0.15841904282569885,
        0.04797278717160225,
        0.06229788437485695,
        -0.02756160870194435,
        -0.06246940419077873,
        0.15576153993606567,
        -0.009382045827805996,
        0.16753987967967987,
        0.0799534022808075,
        0.011600200086832047
      ],
      [
        0.08471441268920898,
        0.009245690889656544,
        0.05118098855018616,
        -0.06657345592975616,
        -0.03950260207056999,
        0.10541864484548569,
        -0.017347246408462524,
        0.03903396427631378,
        0.10632100701332092,
        0.038940295577049255,
        0.07158137112855911,
        -0.11196962743997574,
        0.1133439913392067,
        -0.09863372147083282,
        -0.08127330988645554,
        -0.09603864699602127,
        -0.057041916996240616,
        -0.04575413092970848,
        -0.05265487730503082,
        0.061262357980012894,
        0.04116714745759964,
        0.08517923951148987,
        -0.10393080860376358,
        -0.05157757177948952,
        -0.009158222004771233,
        0.03154992684721947,
        0.08090735226869583,
        0.044571198523044586,
        -0.018382307142019272,
        0.10847865045070648,
        -0.09486393630504608,
        0.04040355235338211,
        -0.05909249559044838,
        -0.0835050418972969,
        -0.011037697084248066,
        -0.021663494408130646,
        -0.013881351798772812,
        -0.07143130153417587,
        -0.08565811067819595,
        -0.10677574574947357,
        0.1312253475189209,
        0.12692195177078247,
        0.11839515715837479,
        0.04033071547746658,
        -0.03025212697684765,
        -0.0036674714647233486,
        -0.10295109450817108,
        0.040289584547281265,
        -0.033915743231773376,
        0.0068487790413200855,
        0.021305417641997337,
        0.12438495457172394,
        -0.04061074182391167,
        0.011484779417514801,
        0.045238740742206573,
        -0.017350347712635994,
        -0.05557712912559509,
        0.027321167290210724,
        -0.05972393974661827,
        0.015985727310180664,
        0.06899186968803406,
        0.07473193854093552,
        0.15019722282886505,
        0.15251243114471436,
        -0.07748406380414963,
        0.10535098612308502,
        0.004991052206605673,
        -0.028896421194076538,
        0.0998120829463005,
        0.08986819535493851,
        0.06934024393558502,
        0.09537006169557571
      ],
      [
        0.023431019857525826,
        -0.08007308095693588,
        0.1391133964061737,
        0.09888684004545212,
        -0.02735690027475357,
        0.09672906994819641,
        0.07340659946203232,
        -0.048689525574445724,
        0.09254158288240433,
        0.05903664603829384,
        0.023040754720568657,
        -0.10737698525190353,
        -0.06790339946746826,
        0.07322166860103607,
        -0.08347472548484802,
        0.08425288647413254,
        -0.06414910405874252,
        0.10242941230535507,
        0.1028873398900032,
        -0.007246639113873243,
        -0.06250056624412537,
        0.1273101568222046,
        0.03077642247080803,
        0.13268032670021057,
        0.061704616993665695,
        -0.08709178864955902,
        -0.06426097452640533,
        0.08774888515472412,
        0.024463467299938202,
        0.12145175039768219,
        0.08830714970827103,
        0.04364607483148575,
        0.013873285613954067,
        0.06957700848579407,
        -0.0826134905219078,
        -0.046551063656806946,
        -0.04396573826670647,
        -0.0031403375323861837,
        -0.013972788117825985,
        0.11386602371931076,
        0.054621290415525436,
        0.010677031241357327,
        -0.010049945674836636,
        0.1325133740901947,
        0.061455097049474716,
        0.1558699756860733,
        0.0761008933186531,
        0.10360898822546005,
        0.0510665625333786,
        0.024162398651242256,
        0.15525642037391663,
        0.014651280827820301,
        -0.02266102284193039,
        0.12256554514169693,
        -0.061013273894786835,
        -0.02548537217080593,
        0.10837020725011826,
        -0.056553542613983154,
        0.08226051181554794,
        -0.04242631420493126,
        -0.012198391370475292,
        0.10872448235750198,
        0.09632110595703125,
        0.07503287494182587,
        0.15025481581687927,
        -0.00624476931989193,
        0.011373833753168583,
        0.08522585779428482,
        0.02824486419558525,
        -0.01531214639544487,
        0.015588349662721157,
        0.13147537410259247
      ],
      [
        0.1158885508775711,
        -0.03602210432291031,
        0.12450519949197769,
        -0.0791248083114624,
        0.12119179219007492,
        0.017007313668727875,
        0.03271050751209259,
        0.0914154127240181,
        -0.0642540380358696,
        -0.04854830354452133,
        0.01923501305282116,
        0.12639595568180084,
        0.0929458737373352,
        0.15480849146842957,
        0.00925030279904604,
        0.06995956599712372,
        0.12590272724628448,
        0.14173975586891174,
        0.14246918261051178,
        0.010810134932398796,
        0.03671698644757271,
        -0.021678782999515533,
        0.03715259209275246,
        -0.0009999379981309175,
        -0.04474267363548279,
        -0.05974141135811806,
        0.0017626662738621235,
        -0.04586910828948021,
        0.03437599539756775,
        0.12359417229890823,
        -0.06582498550415039,
        -0.08027640730142593,
        0.006705332547426224,
        -0.08318466693162918,
        -0.0022275391966104507,
        0.11256568878889084,
        0.025883585214614868,
        -0.04890862852334976,
        0.1574988067150116,
        -0.0027299197390675545,
        0.046432461589574814,
        0.14056101441383362,
        0.08635713905096054,
        0.1159544512629509,
        -0.07252610474824905,
        -0.0018859272822737694,
        -0.05039018765091896,
        0.06534360349178314,
        0.15907104313373566,
        0.028272829949855804,
        0.09630294889211655,
        -0.016018947586417198,
        -0.0010366991627961397,
        -0.07972333580255508,
        0.07828616350889206,
        0.16520023345947266,
        0.1365809142589569,
        0.05016757547855377,
        0.025784701108932495,
        -0.03126974403858185,
        0.07131849974393845,
        0.01664081960916519,
        0.13949516415596008,
        0.17147716879844666,
        0.04362596198916435,
        0.0005187297938391566,
        0.12146362662315369,
        0.16959048807621002,
        0.007424754556268454,
        0.15219740569591522,
        0.031312234699726105,
        -0.07497187703847885
      ],
      [
        -0.1097438856959343,
        -0.038611020892858505,
        0.06893639266490936,
        0.08996766805648804,
        -0.1293361485004425,
        -0.03733677417039871,
        -0.13193950057029724,
        0.07256292551755905,
        0.05195298418402672,
        -0.1299257129430771,
        -0.09943471848964691,
        -0.03813820332288742,
        -0.12931571900844574,
        0.05805185064673424,
        -0.1363169103860855,
        -0.10674390941858292,
        -0.08613935112953186,
        0.02806488424539566,
        -0.058890681713819504,
        -0.12146613746881485,
        -0.008885426446795464,
        0.007161873858422041,
        0.11679089814424515,
        -0.010529400780797005,
        -0.04467831179499626,
        0.03841453790664673,
        -0.1344662755727768,
        0.050924334675073624,
        -0.061007287353277206,
        -0.12138064950704575,
        -0.11358087509870529,
        0.02469000220298767,
        0.01119122002273798,
        0.08410313725471497,
        -0.14522768557071686,
        0.07851053774356842,
        -0.004793017171323299,
        -0.06701892614364624,
        0.03315557911992073,
        0.0294718686491251,
        -0.014448992908000946,
        0.01249064039438963,
        0.09033112227916718,
        0.05699005722999573,
        0.10489581525325775,
        -0.03881163150072098,
        0.07457016408443451,
        0.007377450820058584,
        0.03328736498951912,
        -0.08029331266880035,
        0.038146525621414185,
        -0.0721798986196518,
        -0.1210792288184166,
        -0.09683245420455933,
        -0.00462285615503788,
        0.08060504496097565,
        0.08714532852172852,
        0.023423442617058754,
        -0.09680887311697006,
        0.016881490126252174,
        -0.09174560755491257,
        -0.006123020779341459,
        0.09859808534383774,
        -0.05631481856107712,
        0.11086320877075195,
        0.035264596343040466,
        0.08570253103971481,
        0.011708774603903294,
        -0.043404899537563324,
        0.012161584571003914,
        0.0720149502158165,
        0.17096275091171265
      ],
      [
        -0.1104607805609703,
        0.05483716353774071,
        -0.062285736203193665,
        -0.04188919439911842,
        -0.08463966846466064,
        -0.062005870044231415,
        0.046990785747766495,
        0.0865100845694542,
        -0.04540696740150452,
        0.03607967123389244,
        0.048403140157461166,
        0.10982554405927658,
        -0.03854640573263168,
        0.061723463237285614,
        0.10758031904697418,
        -0.03538718819618225,
        0.046074215322732925,
        -0.09407812356948853,
        -0.10849150270223618,
        0.04386290907859802,
        -0.038913704454898834,
        -0.004088736604899168,
        -0.11015171557664871,
        0.04665834829211235,
        0.11544238030910492,
        -0.03529646247625351,
        0.014969272539019585,
        0.08091631531715393,
        0.04894285649061203,
        0.06020481139421463,
        -0.10335119068622589,
        0.05389103665947914,
        0.01001595426350832,
        -0.09243359416723251,
        0.09022108465433121,
        0.004535106010735035,
        0.0698113888502121,
        -0.06994610279798508,
        -0.12312570214271545,
        -0.045078784227371216,
        -0.005255662836134434,
        -0.017914993688464165,
        0.04302917793393135,
        -0.041231121867895126,
        0.10627245157957077,
        -0.06367460638284683,
        0.06209365278482437,
        0.07941944897174835,
        -0.04005332663655281,
        -0.12384401261806488,
        -0.018501542508602142,
        -0.0649552121758461,
        -0.09147421270608902,
        0.10169945657253265,
        -0.036619722843170166,
        -0.10354834794998169,
        -0.06187596544623375,
        -0.0047667501494288445,
        -0.05032286047935486,
        -0.04620455577969551,
        -0.06394485384225845,
        0.050835300236940384,
        0.022158071398735046,
        -0.044507723301649094,
        0.10139626264572144,
        0.06388917565345764,
        0.05038442835211754,
        0.09237314760684967,
        -0.03197074308991432,
        -0.08852535486221313,
        -0.084994837641716,
        0.054711975157260895
      ],
      [
        0.09503264725208282,
        -0.06118670105934143,
        -0.05097789317369461,
        0.08858701586723328,
        -0.018234828487038612,
        -0.005005533806979656,
        -0.07037926465272903,
        -0.008355307392776012,
        -0.07293292135000229,
        0.07033976912498474,
        -0.045676637440919876,
        -0.08167143911123276,
        -0.028998861089348793,
        -0.06382577121257782,
        -0.12900736927986145,
        -0.13573826849460602,
        -0.007577177602797747,
        0.07752765715122223,
        0.055507633835077286,
        -0.0681457445025444,
        -0.05510639771819115,
        -0.13434547185897827,
        -0.035348452627658844,
        -0.06596113741397858,
        -0.04470111429691315,
        -0.02991192229092121,
        -0.02965506725013256,
        0.004435473121702671,
        -0.008179371245205402,
        0.10352868586778641,
        0.105196014046669,
        -0.008055860176682472,
        -0.10863421112298965,
        -0.019662925973534584,
        -0.08201981335878372,
        0.09032497555017471,
        -0.10239134728908539,
        -0.050522010773420334,
        -0.15736140310764313,
        0.080093152821064,
        -0.09647021442651749,
        -0.05222732573747635,
        -0.12775327265262604,
        0.08227846026420593,
        0.06197291612625122,
        -0.0004922825610265136,
        0.004389374982565641,
        0.05227119103074074,
        0.03725843131542206,
        -0.10797099024057388,
        -0.0027690408751368523,
        0.11053819954395294,
        0.08198317885398865,
        -0.018809879198670387,
        0.02305608056485653,
        0.03706325590610504,
        0.0945371687412262,
        -0.11552741378545761,
        -0.08086918294429779,
        -0.06038355454802513,
        -0.042128320783376694,
        0.04174495488405228,
        -0.1351194977760315,
        -0.08693671971559525,
        -0.11199648678302765,
        0.08320476859807968,
        -0.0013511034194380045,
        0.021185733377933502,
        -0.13609585165977478,
        -0.07166075706481934,
        -0.09424713253974915,
        -0.07990767806768417
      ],
      [
        -0.025395184755325317,
        -0.1079476848244667,
        0.13037823140621185,
        -0.013895047828555107,
        0.03940059617161751,
        0.0653405711054802,
        0.09879665821790695,
        -0.04488765075802803,
        -0.09667742997407913,
        -0.03848162293434143,
        0.04273104667663574,
        -0.03621166571974754,
        0.0012944568879902363,
        -0.005562813952565193,
        -0.10935620963573456,
        -0.04112250730395317,
        0.1064530462026596,
        0.12999488413333893,
        0.0211536455899477,
        0.06460737437009811,
        0.1331983059644699,
        -0.026660094037652016,
        0.12672409415245056,
        -0.043574895709753036,
        0.011794227175414562,
        -0.0312802754342556,
        0.06877291947603226,
        0.11368494480848312,
        0.027549592778086662,
        -0.06751611828804016,
        -0.05302542820572853,
        0.12543167173862457,
        -0.06414123624563217,
        -0.11234503984451294,
        0.0085122250020504,
        0.057994525879621506,
        -0.06383410096168518,
        -0.05510259047150612,
        -0.05634436383843422,
        -0.058069344609975815,
        0.04825662821531296,
        -0.051149457693099976,
        0.015314598567783833,
        0.07293713837862015,
        0.12246966361999512,
        0.1024734228849411,
        0.06193775683641434,
        -0.05983445420861244,
        -0.040599845349788666,
        0.09781093150377274,
        0.0648021250963211,
        0.06248431280255318,
        0.02093917690217495,
        -0.03921957314014435,
        -0.06658457964658737,
        0.05205089598894119,
        0.059817422181367874,
        0.13830141723155975,
        -0.004463964607566595,
        -0.09186376631259918,
        -0.011822627857327461,
        -0.09077149629592896,
        -0.09177834540605545,
        0.045657362788915634,
        -0.03902436047792435,
        -0.059186868369579315,
        0.03987402096390724,
        -0.05602338910102844,
        0.05994651839137077,
        -0.027495548129081726,
        0.02270464040338993,
        0.1665903925895691
      ],
      [
        -0.005947911646217108,
        -0.02854115329682827,
        0.027590185403823853,
        0.07345113903284073,
        -0.10258356481790543,
        -0.09896517544984818,
        0.12558044493198395,
        -0.0679885670542717,
        0.02193240448832512,
        0.005119731184095144,
        0.050668228417634964,
        -0.10324988514184952,
        -0.05659271776676178,
        -0.08686840534210205,
        0.01765170507133007,
        -0.007445789407938719,
        -0.11144127696752548,
        -0.10610376298427582,
        0.0025448105297982693,
        0.09918733686208725,
        0.060855258256196976,
        -0.06031994894146919,
        0.08614852279424667,
        0.06714411079883575,
        0.0486941859126091,
        -0.04636706784367561,
        -0.013106905855238438,
        -0.0879027247428894,
        0.026035821065306664,
        0.13063156604766846,
        -0.06791478395462036,
        -0.09303586184978485,
        0.09533534944057465,
        0.02394137904047966,
        0.12238173186779022,
        0.051987577229738235,
        -0.09048990905284882,
        0.11950638890266418,
        -0.005900504533201456,
        0.02135203219950199,
        0.1101817712187767,
        0.036043208092451096,
        0.00976161751896143,
        0.08027399331331253,
        0.02965119667351246,
        -0.0023880198132246733,
        0.08623161166906357,
        0.06311856955289841,
        -0.06753644347190857,
        0.03465242683887482,
        0.1017628014087677,
        0.11991852521896362,
        0.013730736449360847,
        -0.0632159560918808,
        -0.07036459445953369,
        0.09438131749629974,
        -0.09260531514883041,
        -0.010244589298963547,
        -0.014434801414608955,
        0.013677695766091347,
        0.07087192684412003,
        0.06343740224838257,
        0.01617411896586418,
        0.04128049686551094,
        -0.037368349730968475,
        0.05921812355518341,
        -0.08116739243268967,
        0.15690113604068756,
        0.11328203231096268,
        0.12530049681663513,
        0.025674834847450256,
        0.04426862299442291
      ],
      [
        0.03874245285987854,
        -0.13224628567695618,
        -0.09039878100156784,
        -0.13175055384635925,
        -0.04449670761823654,
        -0.06183899939060211,
        -0.035391584038734436,
        -0.003251942340284586,
        0.02659671939909458,
        -0.07320534437894821,
        -0.0807146281003952,
        -0.09158582240343094,
        -0.10987569391727448,
        -0.01565311662852764,
        -0.03239298239350319,
        0.10168683528900146,
        -0.08541107922792435,
        -0.04780614376068115,
        -0.0922076627612114,
        -0.013692682608962059,
        0.04167730361223221,
        -0.1246778666973114,
        -0.004168332554399967,
        -0.12001654505729675,
        -0.07124505192041397,
        -0.038413144648075104,
        -0.02060934156179428,
        -0.13557831943035126,
        0.033677585422992706,
        -0.12830159068107605,
        -0.08886074274778366,
        -0.10836175084114075,
        -0.1403629332780838,
        -0.014043883420526981,
        0.03003193810582161,
        -0.08042304217815399,
        -0.11785175651311874,
        -0.029062964022159576,
        0.05323239043354988,
        0.01110668946057558,
        0.006949594244360924,
        -0.04802384600043297,
        0.0439840666949749,
        -0.08793170005083084,
        -0.1268334686756134,
        0.0569164976477623,
        0.08124185353517532,
        0.0450267530977726,
        -0.11972174048423767,
        0.06154552102088928,
        -0.039023302495479584,
        -0.015065840445458889,
        -0.012489662505686283,
        -0.1251281350851059,
        0.04945507273077965,
        0.061507776379585266,
        0.004423408769071102,
        -0.07596777379512787,
        -0.11521710455417633,
        0.06595340371131897,
        0.045883744955062866,
        0.06658501923084259,
        -0.07899955660104752,
        -0.019850654527544975,
        0.12045010924339294,
        0.1265697479248047,
        0.08408007025718689,
        0.11549640446901321,
        0.042984891682863235,
        -0.1130731999874115,
        0.12427666038274765,
        0.015065797604620457
      ],
      [
        0.07736387848854065,
        0.021376363933086395,
        -0.01803675666451454,
        0.14475679397583008,
        0.01715363748371601,
        -0.0951564610004425,
        0.06530918180942535,
        0.13320475816726685,
        0.055183712393045425,
        -0.1190599873661995,
        0.09940873831510544,
        -0.02724265493452549,
        -0.05790681764483452,
        0.02689114585518837,
        0.09287534654140472,
        -0.09044883400201797,
        -0.11671490967273712,
        -0.05279315263032913,
        -0.09621226042509079,
        0.04969514533877373,
        -0.10388308018445969,
        -0.0994780957698822,
        -0.07321693748235703,
        0.1338939219713211,
        -0.09047438949346542,
        -0.021903356537222862,
        0.12842904031276703,
        -0.06917896866798401,
        0.020802831277251244,
        0.08345671743154526,
        -0.042999736964702606,
        -0.08171787112951279,
        -0.09054963290691376,
        -0.07411375641822815,
        0.10531047731637955,
        -0.002618222264572978,
        -0.08178286999464035,
        0.017874930053949356,
        -0.11843481659889221,
        -0.10812092572450638,
        0.019597092643380165,
        -0.10593070089817047,
        -0.017163991928100586,
        0.024788012728095055,
        0.1074376106262207,
        -0.08125225454568863,
        0.09560029953718185,
        0.060896098613739014,
        0.028761068359017372,
        0.07231533527374268,
        -0.0819501131772995,
        0.09239700436592102,
        0.16003669798374176,
        -0.07808168977499008,
        0.00641371076926589,
        0.04263215512037277,
        -0.08800113946199417,
        0.007834131829440594,
        0.027635499835014343,
        -0.11226091533899307,
        -0.08270686864852905,
        0.062096960842609406,
        0.08429258316755295,
        0.005983270239084959,
        0.04722265526652336,
        -0.09369304776191711,
        0.03330731764435768,
        0.10618824511766434,
        -0.07745058834552765,
        -0.0021260667126625776,
        0.09734299033880234,
        0.17990484833717346
      ],
      [
        0.03962235897779465,
        0.07912871986627579,
        -0.1000295877456665,
        -0.06978175044059753,
        0.08054094016551971,
        0.0916624441742897,
        -0.026125136762857437,
        0.007475223392248154,
        -0.0197878647595644,
        -0.09499620646238327,
        0.028179822489619255,
        0.0015931156231090426,
        -0.14433196187019348,
        -0.03216616064310074,
        0.03223346173763275,
        -0.06459544599056244,
        -0.06277956068515778,
        0.010978670790791512,
        -0.049900516867637634,
        0.09009067714214325,
        -0.10110935568809509,
        -0.041619934141635895,
        0.01618073880672455,
        -0.07918034493923187,
        0.10047034174203873,
        0.11178284883499146,
        0.11247558146715164,
        0.10760209709405899,
        0.05367547646164894,
        -0.13273122906684875,
        -0.029470648616552353,
        -0.06552740186452866,
        -0.032977014780044556,
        -0.15006835758686066,
        0.017237244173884392,
        -0.04413881152868271,
        -0.14855565130710602,
        -0.07154104113578796,
        -0.038953863084316254,
        -0.10142456740140915,
        0.021204950287938118,
        0.007575373165309429,
        0.00268797785975039,
        0.052455510944128036,
        0.12673592567443848,
        0.06165187433362007,
        0.016187554225325584,
        -0.03519999608397484,
        0.08009283244609833,
        0.060272470116615295,
        -0.0180413406342268,
        -0.06564552336931229,
        -0.05252677574753761,
        0.09190616011619568,
        -0.09929369390010834,
        0.11187930405139923,
        -0.12541227042675018,
        -0.04702722653746605,
        -0.10972290486097336,
        -0.043398723006248474,
        -0.033567145466804504,
        0.07628561556339264,
        -0.0723046362400055,
        -0.00041050580330193043,
        -0.043034180998802185,
        0.1416860669851303,
        -0.08360377699136734,
        0.11034180968999863,
        0.09165621548891068,
        -0.05013412609696388,
        -0.020842745900154114,
        -0.05405671149492264
      ],
      [
        0.08616769313812256,
        0.13811883330345154,
        -0.02767939679324627,
        -0.10569390654563904,
        0.10114867240190506,
        0.033266421407461166,
        -0.09203559905290604,
        0.09135960787534714,
        -0.015891345217823982,
        -0.05578896775841713,
        0.08369957655668259,
        -0.05648734048008919,
        0.11861632764339447,
        0.049696095287799835,
        -0.061471398919820786,
        -0.07026605308055878,
        0.10444299876689911,
        -0.1098136305809021,
        -0.004274269100278616,
        0.07885019481182098,
        -0.005421933718025684,
        0.10123180598020554,
        0.010825117118656635,
        0.13037274777889252,
        0.013545828871428967,
        -0.04723845422267914,
        0.05289658531546593,
        0.11203641444444656,
        -0.06320414692163467,
        -0.0612948052585125,
        0.13499167561531067,
        -0.07546157389879227,
        0.06159282848238945,
        -0.02662593685090542,
        0.10565563291311264,
        -0.07905637472867966,
        0.12714418768882751,
        -0.09400366991758347,
        -0.10220968723297119,
        -0.05383336916565895,
        0.12660378217697144,
        0.01927865482866764,
        -0.08523672074079514,
        0.07773081213235855,
        0.06647013127803802,
        0.030068842694163322,
        0.14278177917003632,
        0.10624895989894867,
        0.036668092012405396,
        0.02896197699010372,
        0.06814221292734146,
        -0.04104156419634819,
        -0.06500139832496643,
        0.10675806552171707,
        0.10153628140687943,
        0.03240185230970383,
        0.06422032415866852,
        -0.06280425935983658,
        -0.08139213919639587,
        -0.08704420924186707,
        -0.05855543911457062,
        -0.04154194891452789,
        0.14914675056934357,
        0.05409407988190651,
        0.029408643022179604,
        0.14367352426052094,
        -0.002465037861838937,
        -0.006238917354494333,
        0.06488699465990067,
        0.048297811299562454,
        0.11512239277362823,
        0.12676851451396942
      ],
      [
        0.023207904770970345,
        -0.08493170142173767,
        -0.08288159221410751,
        0.04728291556239128,
        0.021273985505104065,
        0.036034706979990005,
        0.03946777805685997,
        0.06216837093234062,
        0.09852316230535507,
        0.0862276628613472,
        0.08566151559352875,
        -0.08672872930765152,
        0.12079811096191406,
        0.10041087865829468,
        -0.015590154565870762,
        0.02198384515941143,
        0.02659255638718605,
        0.09098941087722778,
        -0.10010397434234619,
        0.09151789546012878,
        0.08621016144752502,
        0.012535059824585915,
        0.09446241706609726,
        -0.11648127436637878,
        0.03208428621292114,
        -0.053489893674850464,
        0.09679902344942093,
        0.03531600534915924,
        -0.1028774157166481,
        -0.05968718230724335,
        -0.02026049979031086,
        -0.09170514345169067,
        0.043009255081415176,
        -0.02437945269048214,
        -0.01414637453854084,
        -0.03566413000226021,
        -0.06028927490115166,
        -0.07450718432664871,
        -0.04050356522202492,
        0.09200733155012131,
        -0.07459791004657745,
        0.13412067294120789,
        -0.07831409573554993,
        -0.03235328570008278,
        -0.10106246918439865,
        -0.09515407681465149,
        0.11154869198799133,
        -0.009925625286996365,
        0.0812363550066948,
        -0.01854318380355835,
        0.024745719507336617,
        -0.004638695158064365,
        0.010971630923449993,
        -0.03546720743179321,
        0.12255202233791351,
        0.0961693748831749,
        0.1378461718559265,
        0.09164521098136902,
        0.0826302170753479,
        0.0549408383667469,
        0.07882433384656906,
        -0.03638926520943642,
        0.028463557362556458,
        0.04748012498021126,
        0.12286156415939331,
        0.0318303145468235,
        0.1208060011267662,
        -0.03266022726893425,
        0.13429978489875793,
        0.09487541019916534,
        0.0386592261493206,
        0.058897364884614944
      ],
      [
        0.019688677042722702,
        0.07291945815086365,
        0.1286657303571701,
        -0.07914061099290848,
        0.08696126192808151,
        0.07404178380966187,
        0.031556859612464905,
        -0.024570850655436516,
        -0.01914808712899685,
        0.09904512017965317,
        -0.08866136521100998,
        -0.020912164822220802,
        0.0951073095202446,
        0.11204146593809128,
        0.06842252612113953,
        0.0411011278629303,
        -0.05153346434235573,
        0.13264979422092438,
        -0.08256179839372635,
        -0.09441602230072021,
        -0.004217052832245827,
        0.08521945774555206,
        0.049754928797483444,
        -0.0690564513206482,
        -0.00563194090500474,
        0.09021899104118347,
        -0.04740989953279495,
        -0.028006592765450478,
        0.05567842349410057,
        0.10030960291624069,
        -0.1054328978061676,
        0.11169207096099854,
        0.06139425188302994,
        -0.019931597635149956,
        0.015848061069846153,
        -0.06480216234922409,
        -0.048230137676000595,
        0.13378432393074036,
        0.027629807591438293,
        -0.01885858364403248,
        0.09406380355358124,
        -0.04720510542392731,
        0.08542934060096741,
        -0.010728484950959682,
        -0.0791037529706955,
        0.1178542748093605,
        0.08442673832178116,
        0.12222027778625488,
        -0.00491755735129118,
        -0.07710251212120056,
        -0.04880264028906822,
        -0.043084364384412766,
        -0.09386017173528671,
        -0.051725540310144424,
        0.12442184239625931,
        -0.08034142106771469,
        0.04118397831916809,
        -0.09011229127645493,
        0.020940164104104042,
        0.057778920978307724,
        -0.03630015254020691,
        0.09786584228277206,
        0.04639463871717453,
        0.02109150029718876,
        0.14861582219600677,
        0.04656774550676346,
        0.05811049044132233,
        0.16472357511520386,
        -0.0822649896144867,
        -0.01399040687829256,
        -0.062051285058259964,
        0.10252487659454346
      ],
      [
        -0.0713929608464241,
        0.09770721942186356,
        0.1262630820274353,
        0.11085452139377594,
        -0.03162974864244461,
        0.10539739578962326,
        -0.06426816433668137,
        -0.08102377504110336,
        -0.014613991603255272,
        -0.04398481175303459,
        0.028726544231176376,
        0.03385188803076744,
        0.06585723161697388,
        0.015083516016602516,
        0.025461288169026375,
        -0.022515134885907173,
        -0.039285145699977875,
        -0.05245235189795494,
        0.05587030202150345,
        0.0643710270524025,
        0.02878475934267044,
        -0.100523941218853,
        -0.03587416186928749,
        0.12328901886940002,
        -0.09794751554727554,
        -0.03252775967121124,
        -0.10890853404998779,
        0.08411192148923874,
        0.07694506645202637,
        0.1264207661151886,
        -0.0965227335691452,
        -0.11067179590463638,
        0.033142320811748505,
        -0.030344637110829353,
        -0.0032543428242206573,
        0.03311307355761528,
        0.0810045376420021,
        0.06376063823699951,
        0.04710673913359642,
        -0.009617754258215427,
        0.07879790663719177,
        -0.009237801656126976,
        0.09149862825870514,
        -0.09866278618574142,
        0.0014750717673450708,
        -0.07774611562490463,
        -0.06728310883045197,
        -0.019099174067378044,
        -0.06262952089309692,
        0.07035891711711884,
        -0.033615682274103165,
        0.05119705945253372,
        -0.07362121343612671,
        -0.05618199706077576,
        0.059109799563884735,
        -0.0243068914860487,
        0.11852405965328217,
        0.019774841144680977,
        0.09755563735961914,
        -0.02518821693956852,
        -0.0619361475110054,
        -0.05354899540543556,
        -0.08776184171438217,
        0.011190136894583702,
        0.11549047380685806,
        0.13756059110164642,
        -0.0009328689775429666,
        0.11119962483644485,
        0.06367335468530655,
        0.06929376721382141,
        0.06243331357836723,
        0.1628950834274292
      ],
      [
        0.05557987466454506,
        0.1079402044415474,
        0.1708708554506302,
        0.05469001829624176,
        0.13400886952877045,
        0.13928332924842834,
        0.01418482605367899,
        0.18491895496845245,
        0.2267952561378479,
        0.1386389583349228,
        0.19566571712493896,
        0.024226054549217224,
        0.00977874081581831,
        0.17546668648719788,
        0.19736376404762268,
        0.009457428008317947,
        0.19950738549232483,
        -0.02108149603009224,
        0.2036249041557312,
        0.08961442112922668,
        0.09201955050230026,
        0.17171558737754822,
        0.0068345763720571995,
        0.11353522539138794,
        0.11602123826742172,
        0.021148350089788437,
        0.1667933166027069,
        0.05635799840092659,
        0.04508105665445328,
        0.005503673572093248,
        0.007574793417006731,
        0.08170124143362045,
        0.1696239709854126,
        0.15665937960147858,
        0.10005898773670197,
        0.08811712265014648,
        0.0758003517985344,
        0.030321922153234482,
        0.004902465734630823,
        0.11964423954486847,
        0.08679945021867752,
        0.06669165194034576,
        0.05635284259915352,
        0.2086997628211975,
        0.013783091679215431,
        -0.028521278873085976,
        0.164870947599411,
        0.17428089678287506,
        0.012562776915729046,
        0.13638916611671448,
        -0.0210927315056324,
        0.06575717031955719,
        0.22147256135940552,
        0.06395174562931061,
        0.011310786940157413,
        0.07969509065151215,
        0.07823177427053452,
        0.09015466272830963,
        0.22773440182209015,
        0.019232572987675667,
        0.10558683425188065,
        0.04523993283510208,
        0.23746879398822784,
        0.15013346076011658,
        0.07397337257862091,
        -0.010863970033824444,
        -5.566282197833061e-05,
        -0.0014358758926391602,
        0.17783910036087036,
        0.17869605123996735,
        -0.01231497060507536,
        0.12258447706699371
      ],
      [
        0.0883481353521347,
        0.12257315963506699,
        -0.04383477568626404,
        0.019924137741327286,
        -0.07123468816280365,
        -0.053377408534288406,
        0.07998543977737427,
        -0.09656441956758499,
        -0.0875052735209465,
        0.014599611982703209,
        -0.010534497909247875,
        -0.09536454826593399,
        -0.07380019873380661,
        -0.07043630629777908,
        0.03964535519480705,
        -0.027103308588266373,
        0.08678936213254929,
        -0.09371409565210342,
        -0.06968223303556442,
        0.0986134335398674,
        -0.07320675253868103,
        0.1496192067861557,
        0.0997328832745552,
        0.13778692483901978,
        0.051963578909635544,
        0.029393421486020088,
        -0.07682086527347565,
        0.023013126105070114,
        0.0060808733105659485,
        0.09728452563285828,
        -0.08188469707965851,
        -0.042856767773628235,
        -0.07866544276475906,
        0.05237649381160736,
        0.01732967421412468,
        -0.0917920395731926,
        -0.04343252629041672,
        0.0275864340364933,
        -0.00884055532515049,
        0.054081741720438004,
        -0.005605173297226429,
        0.018337298184633255,
        -0.027733102440834045,
        0.03988880664110184,
        0.07286913692951202,
        0.09996552020311356,
        -0.048778045922517776,
        -0.07076530903577805,
        -0.008967593312263489,
        -0.059137940406799316,
        -0.0013776831328868866,
        -0.0014014819171279669,
        -0.03251379355788231,
        -0.10425375401973724,
        0.08517605066299438,
        -0.10280625522136688,
        -0.07575279474258423,
        0.02394447848200798,
        0.07771507650613785,
        0.11597436666488647,
        -0.004938425496220589,
        0.029994260519742966,
        0.1177593246102333,
        0.08029191941022873,
        0.003442246001213789,
        -0.0058375634253025055,
        0.018665820360183716,
        0.0016386571805924177,
        -0.06100453436374664,
        0.03299973905086517,
        -0.09021907299757004,
        0.02983434870839119
      ],
      [
        -0.0055422475561499596,
        0.015528757125139236,
        0.08135303109884262,
        0.0532744862139225,
        -0.030715007334947586,
        -0.005718681029975414,
        0.055847372859716415,
        -0.05654711276292801,
        -0.015344535000622272,
        -0.07824935764074326,
        0.10133320838212967,
        0.041165780276060104,
        0.04956704378128052,
        0.000688745582010597,
        -0.0014452917966991663,
        -0.06187239661812782,
        -0.09804004430770874,
        0.023864392191171646,
        -0.004127217922359705,
        -0.08619450777769089,
        0.05471086874604225,
        -0.0702064111828804,
        -0.0898052528500557,
        -0.022746048867702484,
        -0.12997613847255707,
        -0.06336931884288788,
        0.0670953318476677,
        -0.09616115689277649,
        -0.04627683013677597,
        0.007347836159169674,
        0.09478475898504257,
        0.10059621185064316,
        -0.012098420411348343,
