{
  "model_architecture": {
    "input_size": 72,
    "hidden_size": 64,
    "output_size": 24,
    "num_layers": 1
  },
  "parameters": {
    "lstm.weight_ih_l0": [
      [
        -0.028594467788934708,
        0.07863231748342514,
        -0.09950076788663864,
        0.13213102519512177,
        0.10367649793624878,
        0.026669014245271683,
        0.06514755636453629,
        0.017401304095983505,
        -0.03913642466068268,
        0.06207272410392761,
        -0.02053217403590679,
        0.12451712787151337,
        -0.02972976677119732,
        0.05044545233249664,
        0.045367587357759476,
        -0.08072113990783691,
        -0.045872025191783905,
        -0.11294873803853989,
        -0.09456869214773178,
        0.09680589288473129,
        0.08698853105306625,
        0.09006867557764053,
        0.04625772312283516,
        -0.12398597598075867,
        0.04788865149021149,
        -0.016149168834090233,
        -0.04377618432044983,
        0.03418351709842682,
        -0.10087466984987259,
        0.1099378913640976,
        -0.019622890278697014,
        0.14131954312324524,
        -0.05769823119044304,
        -0.036943353712558746,
        0.13476517796516418,
        -0.09374096244573593,
        -0.05859418213367462,
        0.0897306278347969,
        -0.010210875421762466,
        -0.054002560675144196,
        0.04763002321124077,
        -0.01710551045835018,
        -0.11853956431150436,
        -0.07038514316082001,
        -0.02987205609679222,
        -0.04663977026939392,
        -0.05756395682692528,
        0.11038210988044739,
        -0.0008722774218767881,
        0.013140089809894562,
        -0.0066633266396820545,
        -0.007199022453278303,
        -0.030474452301859856,
        -0.04794009029865265,
        0.09090974181890488,
        -0.024871788918972015,
        -0.010200615040957928,
        -0.11151391267776489,
        0.020397281274199486,
        0.10781503468751907,
        -0.042580168694257736,
        -0.08909223973751068,
        0.01646455191075802,
        0.09375160187482834,
        0.05364159494638443,
        -0.03821677342057228,
        0.09900303184986115,
        -0.11532939225435257,
        -0.13992469012737274,
        0.02336951717734337,
        0.06636586040258408,
        -0.11996065825223923
      ],
      [
        -0.05424056202173233,
        -0.04570293426513672,
        -0.10660267621278763,
        0.12357631325721741,
        -0.08396916836500168,
        0.09195340424776077,
        -0.11135076731443405,
        -0.11169082671403885,
        0.11925236880779266,
        -0.011094865389168262,
        0.07113387435674667,
        0.05057249963283539,
        -0.03684931993484497,
        -0.09847678989171982,
        -0.06534084677696228,
        0.0682021901011467,
        -0.07346141338348389,
        0.06265297532081604,
        -0.13790421187877655,
        -0.026280788704752922,
        -0.12359391897916794,
        -0.09687358140945435,
        -0.1224098727107048,
        -0.0010672450298443437,
        -0.10275929421186447,
        -0.048832472413778305,
        0.005856163799762726,
        0.09088478982448578,
        -0.02557964064180851,
        0.07444632798433304,
        0.1231769248843193,
        0.09611336141824722,
        -0.0423852875828743,
        -0.031870465725660324,
        0.10404403507709503,
        0.10960846394300461,
        0.07987590879201889,
        0.10426352918148041,
        0.04363935813307762,
        -0.06603683531284332,
        0.0564529187977314,
        0.09289872646331787,
        -0.11268340796232224,
        0.07882604748010635,
        0.08704677224159241,
        -0.1377960592508316,
        0.08262497931718826,
        -0.04550878331065178,
        0.085800901055336,
        -0.06381582468748093,
        0.02573530748486519,
        0.03784238547086716,
        -0.03793606162071228,
        -0.06751760840415955,
        -0.08522345870733261,
        0.10827632993459702,
        0.1571199744939804,
        0.07532805949449539,
        0.04226681590080261,
        -0.05302329361438751,
        -0.06002137437462807,
        -0.04059622809290886,
        0.11840587109327316,
        0.07355786114931107,
        0.1100490391254425,
        0.030671363696455956,
        0.037855617702007294,
        0.04435539245605469,
        0.10002177953720093,
        0.03223031386733055,
        0.031390346586704254,
        -0.055621158331632614
      ],
      [
        -0.039036717265844345,
        -0.08225098997354507,
        2.6720052119344473e-05,
        -0.07379550486803055,
        -0.07426147907972336,
        -0.058114808052778244,
        0.007715308107435703,
        -0.02603662759065628,
        -0.09519515186548233,
        -0.12693777680397034,
        0.10251763463020325,
        -0.04042382910847664,
        -0.018678665161132812,
        -0.014832491986453533,
        -0.01522922609001398,
        -0.05284320190548897,
        -0.05902558192610741,
        -0.03991207107901573,
        -0.08767262101173401,
        0.059498876333236694,
        0.016674822196364403,
        -0.08068553358316422,
        -0.005560761317610741,
        0.07452358305454254,
        -0.03113965503871441,
        0.11468210816383362,
        -0.11819294840097427,
        0.09584621340036392,
        -0.001546450424939394,
        0.07552817463874817,
        -0.04095349460840225,
        0.06321795284748077,
        -0.07578296214342117,
        -0.046356260776519775,
        -0.07370053231716156,
        0.04709149897098541,
        0.1241624653339386,
        0.09987790882587433,
        0.04446801543235779,
        -0.10719843208789825,
        0.08230485022068024,
        -0.03579029440879822,
        -0.05768592283129692,
        0.017904765903949738,
        -0.024355750530958176,
        -0.010941851884126663,
        0.030973458662629128,
        -0.05712221935391426,
        -0.013097146525979042,
        -0.09705597907304764,
        0.09856341034173965,
        -0.06488087773323059,
        -0.04672062024474144,
        0.08884011954069138,
        0.11936237663030624,
        -0.03579792380332947,
        -0.09713936597108841,
        0.11417212337255478,
        -0.12098770588636398,
        0.07278767973184586,
        -0.02916017733514309,
        0.07652465254068375,
        0.08066786825656891,
        0.051670242100954056,
        0.04695636406540871,
        -0.10805431753396988,
        -0.12072855979204178,
        -0.03327810391783714,
        0.00020569819025695324,
        0.08410634845495224,
        0.04245036095380783,
        -0.08020216226577759
      ],
      [
        0.07384692877531052,
        0.09499558806419373,
        0.029730362817645073,
        0.060051292181015015,
        -0.04570776969194412,
        0.012684954330325127,
        -0.003902055788785219,
        0.11964918673038483,
        -0.020935747772455215,
        0.05226002633571625,
        0.015500426292419434,
        -0.020783917978405952,
        -0.06007274240255356,
        -0.036196768283843994,
        -0.10229852050542831,
        -0.0444481335580349,
        -0.038423195481300354,
        0.04031926393508911,
        0.049757394939661026,
        -0.08566710352897644,
        -0.14987723529338837,
        0.0338304229080677,
        -0.10912439972162247,
        0.08201145380735397,
        -0.05693219602108002,
        0.05791623890399933,
        -0.025427300482988358,
        0.039545655250549316,
        0.0033139903098344803,
        -0.016615567728877068,
        0.0972483828663826,
        0.03172701969742775,
        -0.019517775624990463,
        -0.08311458677053452,
        0.12259207665920258,
        0.024183468893170357,
        0.06000436097383499,
        -0.12078497558832169,
        0.06209392100572586,
        -0.047680798918008804,
        0.056407589465379715,
        0.027932757511734962,
        0.009240983054041862,
        -0.10130959004163742,
        -0.06201905757188797,
        -0.027227921411395073,
        -0.12200040370225906,
        0.10321372002363205,
        -0.054813310503959656,
        -0.027265392243862152,
        0.12656056880950928,
        0.06543921679258347,
        0.04981166869401932,
        -0.0864642783999443,
        -0.02909594587981701,
        -0.028577832505106926,
        -0.08551857620477676,
        0.037365496158599854,
        -0.014076558873057365,
        -0.08144734054803848,
        -0.014401419088244438,
        0.06722971051931381,
        0.0045253378339111805,
        0.04726214334368706,
        0.019645975902676582,
        0.04502580314874649,
        0.08856967091560364,
        0.004334278404712677,
        -0.00988337304443121,
        0.05465671047568321,
        -0.08265799283981323,
        0.04769964516162872
      ],
      [
        -0.07602055370807648,
        0.08251588046550751,
        0.003584644990041852,
        0.08720432221889496,
        -0.0470178984105587,
        0.1379086673259735,
        0.030460303649306297,
        -0.03982923924922943,
        0.0951441079378128,
        0.10980724543333054,
        0.02089366503059864,
        0.02545258030295372,
        -0.12483895570039749,
        0.011044718325138092,
        0.033243272453546524,
        -0.07038400322198868,
        -0.00734396418556571,
        -0.09370924532413483,
        -0.018011659383773804,
        0.08351816982030869,
        -0.022153474390506744,
        0.02409929595887661,
        0.09741143882274628,
        0.08139162510633469,
        0.0015831197379156947,
        0.12334203720092773,
        -0.03313737362623215,
        -0.0830916315317154,
        0.11596209555864334,
        0.10069689154624939,
        -0.041627831757068634,
        -0.009933019988238811,
        -0.07972858101129532,
        -0.09629953652620316,
        -0.09989448636770248,
        -0.0703960657119751,
        -0.07973504811525345,
        -0.11268091946840286,
        0.04417676106095314,
        -0.002425755839794874,
        -0.08045092225074768,
        0.10668613761663437,
        0.034785229712724686,
        0.025306355208158493,
        -0.09396578371524811,
        -0.012942754663527012,
        -0.04120743274688721,
        0.12914910912513733,
        0.1516966074705124,
        -0.03535567969083786,
        0.1288895159959793,
        -0.03531349077820778,
        0.14451418817043304,
        0.09755177050828934,
        0.06973528116941452,
        0.05035705119371414,
        0.08210647106170654,
        -0.07293641567230225,
        0.051998477429151535,
        0.03562399372458458,
        0.11524274200201035,
        0.0076674120500683784,
        -0.06838860362768173,
        0.09161750972270966,
        0.0771949365735054,
        -0.07539915293455124,
        0.06410221755504608,
        -0.07047183066606522,
        0.09167943149805069,
        -0.03550420701503754,
        0.023403730243444443,
        0.08248522877693176
      ],
      [
        -0.03867705911397934,
        0.03407798334956169,
        -0.02280779369175434,
        -0.027509557083249092,
        0.012261479161679745,
        0.07803802192211151,
        0.14749713242053986,
        -0.058804165571928024,
        -0.05260533094406128,
        0.08937881141901016,
        0.10842210799455643,
        -0.027215365320444107,
        -0.015220439992845058,
        0.03479423746466637,
        0.007798829115927219,
        -0.10400524735450745,
        0.06432197988033295,
        0.013149281963706017,
        -0.039462119340896606,
        -0.10014089196920395,
        -0.007955590263009071,
        -0.11093659698963165,
        -0.12992751598358154,
        -0.04909885674715042,
        0.07641934603452682,
        -0.12107154726982117,
        0.09496225416660309,
        -0.10228557139635086,
        0.057367246598005295,
        0.04239070042967796,
        -0.02501835487782955,
        -0.07110612839460373,
        0.10184486955404282,
        -0.08489858359098434,
        0.009099110029637814,
        0.03659549728035927,
        -0.09524498134851456,
        0.06719877570867538,
        -0.09285669028759003,
        -0.10899041593074799,
        0.024752864614129066,
        -0.04849337786436081,
        -0.06341633200645447,
        0.0694764256477356,
        -0.022191554307937622,
        -0.09775625169277191,
        0.05132473632693291,
        0.08960088342428207,
        0.0473298616707325,
        0.04686575010418892,
        -0.058325037360191345,
        -0.05884045362472534,
        0.05243625119328499,
        0.07668832689523697,
        -0.004316849634051323,
        0.00284966011531651,
        -0.004601634107530117,
        0.06392709910869598,
        0.1480303257703781,
        0.15707515180110931,
        0.048417963087558746,
        -0.017664756625890732,
        0.011731680482625961,
        0.08089651167392731,
        0.0044027152471244335,
        -0.058464936912059784,
        0.03779453784227371,
        0.020551979541778564,
        0.015398163348436356,
        -0.022860204800963402,
        0.08428381383419037,
        0.08695900440216064
      ],
      [
        -0.023358186706900597,
        -0.13649387657642365,
        0.09811939299106598,
        0.047000639140605927,
        -0.06497730314731598,
        0.034475039690732956,
        -0.08920174092054367,
        -0.012089897878468037,
        0.054877493530511856,
        -0.08510779589414597,
        0.038937486708164215,
        -0.11848664283752441,
        0.058004118502140045,
        0.013419208116829395,
        -0.09259025007486343,
        -0.041105907410383224,
        0.08531596511602402,
        -0.11480613052845001,
        -0.10704866051673889,
        0.05236923694610596,
        0.08034209161996841,
        -0.12664614617824554,
        0.04290267080068588,
        0.01611245609819889,
        0.08820629864931107,
        0.09167640656232834,
        -0.06527816504240036,
        -0.08369502425193787,
        0.03423188999295235,
        0.01545983087271452,
        0.013955246657133102,
        0.08160551637411118,
        -0.007765968795865774,
        0.038791511207818985,
        0.031713660806417465,
        0.08545854687690735,
        -0.06878236681222916,
        -0.04837746545672417,
        -0.011423484422266483,
        -0.10206461697816849,
        0.04909447208046913,
        -0.07654488831758499,
        -0.12661375105381012,
        0.09516993910074234,
        0.059869520366191864,
        0.05334518104791641,
        0.0739603266119957,
        0.021322408691048622,
        -0.10885065048933029,
        -0.1000155583024025,
        -0.03624432161450386,
        -0.0012840691488236189,
        -0.04848313704133034,
        0.08326234668493271,
        0.040344979614019394,
        -0.04339829459786415,
        0.08775226771831512,
        -0.10959974676370621,
        -0.06845397502183914,
        -0.05039623752236366,
        0.04285895824432373,
        0.017360122874379158,
        0.06378578394651413,
        0.0584557019174099,
        0.07197080552577972,
        0.028298117220401764,
        0.03297065570950508,
        0.025979090481996536,
        -0.11241621524095535,
        -0.01884668506681919,
        -0.09386726468801498,
        0.05463964492082596
      ],
      [
        0.10951872169971466,
        0.05342642590403557,
        0.1053486317396164,
        0.05164574086666107,
        -0.009932699613273144,
        -0.08557180315256119,
        0.10346466302871704,
        -0.008436177857220173,
        0.1009538471698761,
        -0.08984196931123734,
        -0.09837242215871811,
        -0.08700818568468094,
        -0.027677450329065323,
        -0.07244665175676346,
        0.11027266830205917,
        0.09092248231172562,
        0.1231357604265213,
        -0.01236763596534729,
        -0.06469282507896423,
        -0.05864271894097328,
        0.003292487235739827,
        -0.03769395872950554,
        0.12315977364778519,
        0.099496029317379,
        0.06640764325857162,
        0.13869386911392212,
        0.15081879496574402,
        0.019662300124764442,
        -0.06013927608728409,
        0.06735745817422867,
        0.06729434430599213,
        0.12121479958295822,
        -0.0643116906285286,
        0.09212333709001541,
        0.14188414812088013,
        0.042640797793865204,
        0.04610384255647659,
        -0.007935305126011372,
        0.012184509076178074,
        0.06376904994249344,
        -0.035459522157907486,
        -0.03838004171848297,
        0.09247544407844543,
        0.008384183049201965,
        0.07534879446029663,
        0.05983917415142059,
        -0.09532693028450012,
        0.07623310387134552,
        -0.03465886041522026,
        0.04907509312033653,
        -0.04868929460644722,
        0.01969125308096409,
        0.010744607076048851,
        0.12306518852710724,
        0.07417851686477661,
        0.0132401492446661,
        0.12900738418102264,
        0.05008772388100624,
        0.05580579489469528,
        -0.05541035905480385,
        0.022701604291796684,
        0.14135558903217316,
        0.1400611251592636,
        0.05254947394132614,
        -0.08384712785482407,
        -0.029045967385172844,
        0.03990509733557701,
        0.07478953897953033,
        0.16065295040607452,
        0.12548796832561493,
        0.10582037270069122,
        0.1137676015496254
      ],
      [
        0.06181748956441879,
        0.14062349498271942,
        -0.08091098070144653,
        -0.034405261278152466,
        0.1190371960401535,
        -0.025914063677191734,
        -0.10634149610996246,
        -0.029628172516822815,
        -0.0968446135520935,
        -0.15938903391361237,
        -0.13691851496696472,
        -0.10766209661960602,
        -0.07443191856145859,
        0.033431489020586014,
        0.04492301493883133,
        0.012400826439261436,
        -0.11975618451833725,
        -0.09821386635303497,
        0.03228060528635979,
        0.11629797518253326,
        0.03133442625403404,
        0.01206713542342186,
        0.00917082466185093,
        0.10150303691625595,
        0.12893623113632202,
        0.0759541392326355,
        0.15044094622135162,
        -0.01081756316125393,
        -0.05903080105781555,
        0.06264649331569672,
        0.01492105983197689,
        -0.02724628336727619,
        -0.006770523265004158,
        -0.10666476935148239,
        -0.04256570339202881,
        -0.019420165568590164,
        0.01137826219201088,
        -0.005623786244541407,
        -0.11943268775939941,
        0.003231267910450697,
        0.009339790791273117,
        0.03367727994918823,
        -0.057860128581523895,
        0.15874913334846497,
        -0.0014585591852664948,
        -0.02455854043364525,
        0.023919980973005295,
        0.13375484943389893,
        0.010978770442306995,
        -0.06578247249126434,
        0.12307456135749817,
        0.0029642493464052677,
        0.052203964442014694,
        0.031021079048514366,
        -0.12273793667554855,
        -0.028439268469810486,
        0.042814526706933975,
        -0.1278233528137207,
        -0.09878740459680557,
        -0.051314882934093475,
        0.04505127668380737,
        -0.043344467878341675,
        -0.032517965883016586,
        -0.07594099640846252,
        -0.03823493793606758,
        0.06362272799015045,
        0.06904128193855286,
        0.10470171272754669,
        0.01792556792497635,
        0.16382700204849243,
        0.136282816529274,
        0.17917701601982117
      ],
      [
        -0.05716189742088318,
        -0.09969933331012726,
        -0.05087778717279434,
        -0.005783549044281244,
        0.044812750071287155,
        -0.11289119720458984,
        0.09049580246210098,
        -0.08136150240898132,
        -0.12684129178524017,
        -0.1521262228488922,
        0.02526264637708664,
        0.04680575057864189,
        0.0840676873922348,
        -0.061901651322841644,
        -0.078505739569664,
        0.07607326656579971,
        -0.11860409379005432,
        0.08250367641448975,
        0.0631423145532608,
        0.012460789643228054,
        -0.025526216253638268,
        -0.04853222891688347,
        0.109504334628582,
        -0.10903187096118927,
        0.08109965175390244,
        -0.09321624785661697,
        0.020549681037664413,
        -0.048027876764535904,
        -0.12734761834144592,
        0.09271889925003052,
        0.07623779773712158,
        -0.03379441425204277,
        -0.027429843321442604,
        -0.15793566405773163,
        -0.14191369712352753,
        -0.13522617518901825,
        -0.04949471727013588,
        -0.0013589543523266912,
        0.026197949424386024,
        -0.14159566164016724,
        0.04183359816670418,
        0.06846382468938828,
        -0.017924347892403603,
        0.006396743934601545,
        -0.04078935831785202,
        0.11855676025152206,
        0.10008108615875244,
        0.012124774046242237,
        0.05649811774492264,
        0.08793330937623978,
        -0.07450026273727417,
        0.081440769135952,
        -0.09669037163257599,
        -0.035894397646188736,
        0.011595909483730793,
        -0.056776780635118484,
        -0.055917393416166306,
        0.07693007588386536,
        -0.006004702299833298,
        0.005621571559458971,
        0.016821039840579033,
        -0.029821930453181267,
        0.03186771273612976,
        0.02779553458094597,
        -0.1278676837682724,
        -0.04332861304283142,
        -0.030853578820824623,
        -0.10213659703731537,
        -0.09953489154577255,
        -0.12174584716558456,
        -0.013832597993314266,
        0.11132317036390305
      ],
      [
        0.09052661061286926,
        -0.11608243733644485,
        -0.12425782531499863,
        -0.05083906650543213,
        0.05955209210515022,
        -0.08411155641078949,
        0.11719539016485214,
        -0.006158558651804924,
        0.13262735307216644,
        0.04395560175180435,
        -0.06785672903060913,
        0.04006851091980934,
        -0.051523201167583466,
        0.10913410037755966,
        -0.13270504772663116,
        -0.13063770532608032,
        -0.01674548164010048,
        -0.028256043791770935,
        -0.06928101181983948,
        0.04791255295276642,
        -0.10181490331888199,
        0.007586706895381212,
        -0.06695576012134552,
        -0.02819930762052536,
        0.02361058071255684,
        0.10463452339172363,
        0.057009197771549225,
        -0.08438576757907867,
        -0.02748747542500496,
        -0.00686991773545742,
        -0.05220703408122063,
        -0.004476787056773901,
        0.04471627622842789,
        -0.043424881994724274,
        -0.017186133190989494,
        0.09006030857563019,
        0.09400376677513123,
        0.10340914130210876,
        0.11094692349433899,
        0.10341450572013855,
        -0.10281456261873245,
        0.09778003394603729,
        -0.019902870059013367,
        -0.02062409371137619,
        -0.03929576650261879,
        -0.03271069377660751,
        0.05286568030714989,
        0.04657696187496185,
        0.10482493042945862,
        -0.11460653692483902,
        -0.08446861803531647,
        0.05567718669772148,
        0.02272842638194561,
        0.04355345293879509,
        0.03943154215812683,
        -0.07469427585601807,
        0.02004634030163288,
        0.04302966967225075,
        -0.05081073194742203,
        0.0943625271320343,
        0.01445535197854042,
        0.10693574696779251,
        -0.0025284045841544867,
        0.12224502116441727,
        0.017717968672513962,
        -0.12106102705001831,
        0.0187907125800848,
        -0.058508165180683136,
        -0.10512066632509232,
        0.033440425992012024,
        -0.01853916607797146,
        0.03363008797168732
      ],
      [
        -0.021232573315501213,
        0.11737699806690216,
        -0.002621545223519206,
        -0.0907885953783989,
        0.07294061034917831,
        -0.03252850100398064,
        -0.10348616540431976,
        -0.12475918978452682,
        -0.005297084338963032,
        -0.0014193154638633132,
        -0.031697824597358704,
        0.09439044445753098,
        -0.08959918469190598,
        -0.04135880991816521,
        -0.009359567426145077,
        0.12131500989198685,
        0.08526118844747543,
        0.027822505682706833,
        0.01966714672744274,
        0.13346271216869354,
        0.04931329935789108,
        0.010069204494357109,
        0.03227182477712631,
        -0.06625586003065109,
        -0.09100262820720673,
        -0.04007331281900406,
        0.06975143402814865,
        -0.013315543532371521,
        0.04098287224769592,
        -0.12612882256507874,
        -0.018569340929389,
        -0.1188436821103096,
        -0.031499139964580536,
        0.10942209511995316,
        -0.09632940590381622,
        -0.03138415142893791,
        -0.08678168058395386,
        0.025222238153219223,
        -0.09243878722190857,
        0.1048213467001915,
        0.11695270985364914,
        -0.02100002020597458,
        0.11829685419797897,
        0.11396650224924088,
        0.10518995672464371,
        0.042419109493494034,
        0.09996297210454941,
        -0.02951701357960701,
        -0.0035094756167382,
        0.016108596697449684,
        -0.0006004497408866882,
        0.1014004573225975,
        -0.007057991810142994,
        -0.09831738471984863,
        -0.09818967431783676,
        -0.011476419866085052,
        0.04399973899126053,
        -0.005200959742069244,
        -0.08530165255069733,
        0.060245003551244736,
        -0.03597412258386612,
        0.1289837509393692,
        0.07773412019014359,
        0.03309475630521774,
        0.07578591257333755,
        0.11224046349525452,
        0.13928820192813873,
        0.017408842220902443,
        0.1514737904071808,
        0.054991934448480606,
        0.10806715488433838,
        -0.02368043176829815
      ],
      [
        -0.02465531975030899,
        -0.01371897105127573,
        -0.030366266146302223,
        0.020242435857653618,
        0.07085371017456055,
        0.07186244428157806,
        -0.02761673554778099,
        -0.0754908099770546,
        -0.06672953814268112,
        0.08770111948251724,
        -0.1065162941813469,
        0.0027898296248167753,
        0.09408918768167496,
        0.08042851835489273,
        0.10428300499916077,
        0.1340569257736206,
        -0.010855638422071934,
        0.10104067623615265,
        0.13649939000606537,
        -0.08890853077173233,
        -0.05437047779560089,
        0.04676169902086258,
        -0.021006789058446884,
        0.02343050390481949,
        0.1251402050256729,
        -0.10299371927976608,
        -0.01705111749470234,
        -0.06461627036333084,
        0.09021985530853271,
        0.02470170520246029,
        0.010180591605603695,
        0.10494174063205719,
        -0.07256895303726196,
        -0.004746557679027319,
        0.1306801438331604,
        -0.08059111982584,
        0.09692508727312088,
        0.009474055841565132,
        -0.022946687415242195,
        0.14068804681301117,
        0.0883510410785675,
        0.08334401994943619,
        0.04142323508858681,
        0.05038747563958168,
        -0.07005056738853455,
        -0.005501256324350834,
        -0.09895040839910507,
        0.00542505132034421,
        0.10357633233070374,
        0.008241819217801094,
        0.11753043532371521,
        0.11414086818695068,
        0.07423905283212662,
        -0.08375443518161774,
        0.1428169459104538,
        -0.09989243745803833,
        0.1454635113477707,
        -0.09189832955598831,
        0.10898679494857788,
        0.031101444736123085,
        0.049515414983034134,
        0.12083522975444794,
        0.0791105106472969,
        -0.04529149457812309,
        0.12582293152809143,
        -0.025224128738045692,
        -0.07559626549482346,
        0.0200479906052351,
        -0.04534535109996796,
        0.03392118960618973,
        0.013506700284779072,
        0.15116223692893982
      ],
      [
        0.06187668815255165,
        0.09226186573505402,
        0.129410058259964,
        -0.08053017407655716,
        0.11322725564241409,
        -0.0028854813426733017,
        -0.053340762853622437,
        0.06012298911809921,
        -0.05615542456507683,
        -0.09690314531326294,
        -0.0042359367944300175,
        -0.05889992415904999,
        0.013867245987057686,
        0.07924830913543701,
        -0.08234265446662903,
        0.005477606318891048,
        -0.07730522751808167,
        0.03158453479409218,
        -0.011903713457286358,
        -0.08525696396827698,
        0.033246319741010666,
        0.08665145188570023,
        -0.02868853509426117,
        -0.08248656988143921,
        0.07490172237157822,
        0.06748516112565994,
        -0.07545135915279388,
        0.028967589139938354,
        0.10933520644903183,
        -0.04142126068472862,
        0.09443578124046326,
        0.07647636532783508,
        0.09931252151727676,
        0.09665858000516891,
        -0.09216991811990738,
        -0.07937322556972504,
        -0.08510401099920273,
        0.10789448022842407,
        -0.011533773504197598,
        0.09713511914014816,
        -0.020838694646954536,
        0.10100039094686508,
        0.017716603353619576,
        0.07665936648845673,
        0.012804192490875721,
        -0.1207117810845375,
        -0.009819746017456055,
        -0.11818872392177582,
        0.03810284659266472,
        0.03677912428975105,
        -0.104511559009552,
        0.0805194228887558,
        0.026553818956017494,
        0.12466387450695038,
        -0.014708728529512882,
        0.14840225875377655,
        0.01844007335603237,
        -0.07959341257810593,
        0.005305484402924776,
        -0.03628314286470413,
        0.10816159099340439,
        0.11897142231464386,
        0.037473298609256744,
        -0.012961416505277157,
        0.028226520866155624,
        0.00829298049211502,
        0.06916838139295578,
        -0.09349136799573898,
        0.09571605920791626,
        -0.0994487851858139,
        -0.03352271765470505,
        0.01152957882732153
      ],
      [
        0.06421220302581787,
        -0.030703939497470856,
        0.03125212714076042,
        -0.041333895176649094,
        0.04061683267354965,
        -0.06760125607252121,
        0.020909560844302177,
        0.08431867510080338,
        0.06504646688699722,
        -0.02143671363592148,
        0.028709471225738525,
        0.06168164312839508,
        -0.06196533143520355,
        0.09800519794225693,
        -0.010663298889994621,
        0.04711722955107689,
        0.041411060839891434,
        -0.12316784262657166,
        -0.018908554688096046,
        -0.06433127075433731,
        -0.041595134884119034,
        0.07364556938409805,
        -0.07627411186695099,
        -0.02487693354487419,
        0.02759343385696411,
        -0.11533686518669128,
        0.019941912963986397,
        0.06380004435777664,
        -0.010850236751139164,
        -0.08379116654396057,
        -0.06616943329572678,
        0.018465349450707436,
        -0.04380856454372406,
        0.14487501978874207,
        0.10624445229768753,
        0.02313387766480446,
        0.07400442659854889,
        0.057793028652668,
        -0.07356999069452286,
        -0.0791616141796112,
        -0.049474943429231644,
        -0.015589767135679722,
        0.09886708855628967,
        0.10999947041273117,
        0.04140089079737663,
        -0.08704445511102676,
        0.022623326629400253,
        -0.0869627296924591,
        0.003302178345620632,
        -0.09855613857507706,
        0.08964978903532028,
        -0.0544075183570385,
        0.11057188361883163,
        0.095030277967453,
        -0.05753983557224274,
        0.0569872111082077,
        0.11895846575498581,
        -0.054789118468761444,
        0.014198928140103817,
        0.1472984105348587,
        -0.03868018463253975,
        0.055774107575416565,
        0.08601795881986618,
        -0.01441034022718668,
        -0.0614013709127903,
        0.0574113130569458,
        -0.07387922704219818,
        0.08053044229745865,
        -0.09841416776180267,
        -0.03207589313387871,
        -0.04112235829234123,
        0.11918895691633224
      ],
      [
        0.11276857554912567,
        -0.08606866747140884,
        -0.09698652476072311,
        0.03204556554555893,
        -0.02686084434390068,
        0.08185926079750061,
        -0.07573727518320084,
        -0.04202648997306824,
        -0.015917012467980385,
        -0.0067627099342644215,
        0.11106173694133759,
        0.13620135188102722,
        0.02217789739370346,
        -0.08263984322547913,
        -0.09394478797912598,
        -0.029452895745635033,
        0.03024328500032425,
        0.10275109112262726,
        0.04986181482672691,
        -0.010984214954078197,
        -0.011413811706006527,
        -0.03210831806063652,
        0.0666579008102417,
        -0.12587536871433258,
        0.07427849620580673,
        -0.07532597333192825,
        -0.07478083670139313,
        -0.08647017180919647,
        0.011573409661650658,
        -0.09222503006458282,
        0.0692429468035698,
        -0.040107615292072296,
        0.08942246437072754,
        -0.02939723990857601,
        -0.10039772838354111,
        0.12923327088356018,
        0.0284645427018404,
        -0.06278587877750397,
        0.038596585392951965,
        0.10477590560913086,
        0.03383731469511986,
        -0.10027474164962769,
        -0.06379495561122894,
        0.046412963420152664,
        0.10727671533823013,
        0.0568595826625824,
        0.12144742906093597,
        0.09519948810338974,
        -0.03482643887400627,
        0.06918502599000931,
        -0.041332878172397614,
        0.03472529724240303,
        0.002770637162029743,
        0.014138382859528065,
        0.0832141861319542,
        0.12287639826536179,
        0.03481282293796539,
        0.0595359280705452,
        -0.04742640256881714,
        0.05606967583298683,
        -0.060614828020334244,
        -0.028146976605057716,
        -0.000872155767865479,
        0.027716848999261856,
        0.0016873005079105496,
        0.05707728862762451,
        0.029004696756601334,
        -0.08797965198755264,
        0.04803735762834549,
        0.047683749347925186,
        0.059882648289203644,
        -0.036814767867326736
      ],
      [
        -0.0381782092154026,
        0.029417024925351143,
        0.09118545055389404,
        -0.03629676625132561,
        -0.11524201184511185,
        -0.08444225788116455,
        0.08767987042665482,
        0.07955407351255417,
        0.0025270620826631784,
        0.06172968074679375,
        -0.10422763973474503,
        0.09874262660741806,
        0.1265900880098343,
        -0.014190136454999447,
        -0.000597766600549221,
        -0.08963947743177414,
        0.08178133517503738,
        0.06552288681268692,
        0.03445221111178398,
        0.036721158772706985,
        -0.04809349402785301,
        0.09625102579593658,
        -0.029103849083185196,
        -0.005355581175535917,
        -0.007990013808012009,
        -0.07839220017194748,
        -0.004693648312240839,
        -0.03535498306155205,
        -0.01907198689877987,
        -0.12661419808864594,
        0.06166490539908409,
        0.009689630009233952,
        0.09840361773967743,
        0.02650664560496807,
        -0.04950224980711937,
        0.10739995539188385,
        -0.05415569990873337,
        -0.05930973216891289,
        -0.08845014125108719,
        -0.05684937536716461,
        0.10398947447538376,
        -0.07096568495035172,
        -0.05557316914200783,
        0.08109716325998306,
        -0.01184808649122715,
        -0.004662677180022001,
        -0.045978620648384094,
        0.09045027196407318,
        -0.10422065854072571,
        0.07305271178483963,
        -0.06911787390708923,
        -0.08980833739042282,
        -0.018475810065865517,
        0.07244480401277542,
        0.046049509197473526,
        0.1271001547574997,
        -0.05640321597456932,
        -0.008867292664945126,
        -0.01951425150036812,
        0.046138256788253784,
        0.028444699943065643,
        -0.08363501727581024,
        0.09893184900283813,
        0.035195332020521164,
        -0.05045818164944649,
        -0.01510907057672739,
        0.05004677549004555,
        -0.10078603029251099,
        0.042069680988788605,
        -0.1535695493221283,
        -0.1181299239397049,
        -0.12925681471824646
      ],
      [
        0.07945955544710159,
        0.11486167460680008,
        -0.0633300393819809,
        -0.054291289299726486,
        -0.10775195807218552,
        -0.02619873359799385,
        -0.04423101991415024,
        -0.11852853745222092,
        -0.030064821243286133,
        0.08268749713897705,
        0.02767583727836609,
        0.04595347121357918,
        -0.12721949815750122,
        0.010441209189593792,
        -0.05222253128886223,
        -0.05967896059155464,
        0.11698674410581589,
        0.04772021621465683,
        0.1009056568145752,
        0.004941681865602732,
        -0.007051195949316025,
        -0.08632592856884003,
        -0.07062801718711853,
        -0.0788261890411377,
        -0.05424990504980087,
        0.0007857322925701737,
        0.002659735269844532,
        -0.028204523026943207,
        -0.12528061866760254,
        -0.010792979039251804,
        -0.04349863901734352,
        0.0963723361492157,
        -0.02981117181479931,
        -0.0471452921628952,
        0.03387442231178284,
        0.041871000081300735,
        -0.07415468990802765,
        0.04273304343223572,
        0.05384206771850586,
        0.05077344551682472,
        0.01714332215487957,
        0.06505198031663895,
        0.09383436292409897,
        -0.03883810713887215,
        -0.09949672222137451,
        0.07905413955450058,
        0.09940457344055176,
        -0.04693184792995453,
        0.11520987004041672,
        -0.007003608159720898,
        -0.10879965871572495,
        0.002093920251354575,
        0.05083639919757843,
        -0.12725189328193665,
        -0.05471266061067581,
        -0.09618710726499557,
        -0.08458813279867172,
        0.09558356553316116,
        -0.12146676331758499,
        0.053060200065374374,
        0.034765131771564484,
        0.049527429044246674,
        0.052685920149087906,
        0.005620255134999752,
        0.05219577997922897,
        0.12214217334985733,
        -0.035073067992925644,
        0.05438418313860893,
        0.05636425316333771,
        0.11430518329143524,
        -0.05021142587065697,
        0.007262385915964842
      ],
      [
        0.10339774936437607,
        0.05210013687610626,
        0.0002809370053000748,
        0.05637991428375244,
        -0.10892387479543686,
        0.11993679404258728,
        0.07642357796430588,
        0.02090166136622429,
        0.07699181884527206,
        -0.02514365315437317,
        -0.0016970376018434763,
        0.03729534521698952,
        0.0986645445227623,
        -0.07704321295022964,
        -0.05440478399395943,
        0.04144296050071716,
        -0.1328231692314148,
        0.05153214931488037,
        -0.08524087071418762,
        -0.1277158409357071,
        0.10795482993125916,
        0.09068767726421356,
        -0.08553987741470337,
        0.06656498461961746,
        -0.10254126042127609,
        -0.06884224712848663,
        -0.11632050573825836,
        0.011958255432546139,
        0.10622559487819672,
        0.13038575649261475,
        -0.022164249792695045,
        0.10680833458900452,
        -0.09011270105838776,
        0.048468150198459625,
        -0.033671051263809204,
        0.09656184911727905,
        -0.11681661009788513,
        0.08035726100206375,
        0.12069729715585709,
        -0.029214957728981972,
        -0.11569664627313614,
        0.012769468128681183,
        0.06170717999339104,
        0.00729785580188036,
        -0.05115146562457085,
        -0.09135709702968597,
        -0.08579269796609879,
        0.0027916482649743557,
        -0.08134613186120987,
        0.032549191266298294,
        -0.016032854095101357,
        -0.05950433760881424,
        -0.01176261156797409,
        0.030887246131896973,
        -0.008040117099881172,
        -0.08278416097164154,
        0.10006953030824661,
        -0.06635743379592896,
        -0.04296144098043442,
        0.08010052889585495,
        0.12178535014390945,
        0.10510784387588501,
        0.11517295986413956,
        -0.09032738953828812,
        0.015460447408258915,
        -0.09497202187776566,
        0.08194822072982788,
        -0.027855411171913147,
        -0.010137094184756279,
        0.11224476993083954,
        0.0452699139714241,
        -0.05414622277021408
      ],
      [
        0.0755189061164856,
        -0.013763390481472015,
        -0.07339506596326828,
        0.11499658226966858,
        0.03426176682114601,
        0.13559475541114807,
        0.12815016508102417,
        -0.07224034518003464,
        0.09422017633914948,
        0.09917683899402618,
        -0.0010307839838787913,
        0.13466131687164307,
        -0.04329226166009903,
        0.13033504784107208,
        -0.04844501614570618,
        0.13674166798591614,
        -0.041460875421762466,
        0.04374338313937187,
        0.01732562482357025,
        0.05422084033489227,
        0.06524962931871414,
        -0.0848965272307396,
        -0.07730188220739365,
        0.06826648861169815,
        -0.05485210195183754,
        0.0063445172272622585,
        0.00958250556141138,
        0.11206986010074615,
        0.08477868884801865,
        0.07826587557792664,
        -0.1117577999830246,
        0.04907010495662689,
        0.06881081312894821,
        0.049049172550439835,
        -0.03450610116124153,
        -0.10672654956579208,
        -0.016069408506155014,
        -0.022923994809389114,
        0.12845507264137268,
        0.1135931983590126,
        0.023196231573820114,
        -0.05815892294049263,
        -0.05844030901789665,
        0.06109703332185745,
        0.01758396439254284,
        0.035738255828619,
        0.016420548781752586,
        0.08884665369987488,
        0.10238444060087204,
        0.031156523153185844,
        -0.01675727218389511,
        0.007976382039487362,
        0.049529701471328735,
        0.044505584985017776,
        -0.055817801505327225,
        0.016760746017098427,
        -0.07873642444610596,
        0.0636785700917244,
        0.10138546675443649,
        0.11227510869503021,
        0.09660831838846207,
        0.1059708222746849,
        0.034415796399116516,
        0.07178018987178802,
        0.04705873504281044,
        0.09045737236738205,
        0.015331234782934189,
        0.015882330015301704,
        -0.056915026158094406,
        0.08325793594121933,
        -0.026808900758624077,
        0.033892303705215454
      ],
      [
        0.1252814084291458,
        -0.012335327453911304,
        0.10287319868803024,
        0.13205304741859436,
        0.04528013616800308,
        0.08129493147134781,
        -0.010816440917551517,
        -0.06532849371433258,
        0.02655097283422947,
        -0.09288456290960312,
        0.03347839415073395,
        0.063523069024086,
        0.03714379295706749,
        0.036527372896671295,
        -0.08206090331077576,
        -0.09393581002950668,
        -0.03834395110607147,
        0.022659320384263992,
        -0.029186835512518883,
        -0.03305089846253395,
        -0.10251408070325851,
        0.01689528301358223,
        0.11185719072818756,
        -0.10818947106599808,
        -0.02097567915916443,
        0.01234951801598072,
        0.08681976050138474,
        0.02634778618812561,
        -0.0563424788415432,
        0.03226785361766815,
        -0.006239812821149826,
        0.1445157825946808,
        -0.007640535943210125,
        0.020462429150938988,
        -0.04388611391186714,
        0.05964317172765732,
        0.10290099680423737,
        -0.07755845040082932,
        -0.04545542597770691,
        0.1250738501548767,
        0.050079621374607086,
        0.08608312159776688,
        0.08972278982400894,
        -0.06844061613082886,
        0.04838744178414345,
        0.007924314588308334,
        0.05298952758312225,
        -0.09801290929317474,
        0.07042303681373596,
        0.023838162422180176,
        0.12616318464279175,
        -0.09282798320055008,
        -0.07640347629785538,
        0.007811245508491993,
        0.168962761759758,
        0.05634516477584839,
        -0.03673722594976425,
        0.006546590477228165,
        -0.009151779115200043,
        0.038149647414684296,
        -0.0452616885304451,
        0.13686496019363403,
        0.1356153041124344,
        -0.02558726631104946,
        0.0128508685156703,
        0.11463815718889236,
        -0.09001518785953522,
        -0.06951933354139328,
        -0.04944103583693504,
        -0.05751281604170799,
        0.09619679301977158,
        0.13342070579528809
      ],
      [
        0.1211196556687355,
        -0.10952065140008926,
        0.1257360577583313,
        -0.06624682247638702,
        0.08330155164003372,
        -0.0234682597219944,
        0.05763774365186691,
        -0.027221042662858963,
        -0.022975889965891838,
        0.09787026792764664,
        -0.08607333153486252,
        0.048764556646347046,
        -0.028382321819663048,
        0.11431345343589783,
        0.0962706133723259,
        -0.12361990660429001,
        -0.12065713852643967,
        0.054914843291044235,
        -0.013362176716327667,
        0.012496180832386017,
        -0.13735194504261017,
        -0.041293151676654816,
        -0.001033226028084755,
        0.10736516863107681,
        -0.02352980338037014,
        -0.04085424914956093,
        0.08663731813430786,
        0.01505165733397007,
        -0.057377077639102936,
        0.05620511248707771,
        0.09291074424982071,
        0.0816725417971611,
        0.10777483880519867,
        0.04851790890097618,
        0.03211051598191261,
        0.07246620953083038,
        0.03203420713543892,
        -0.005100638139992952,
        -0.03844825178384781,
        -0.0700163021683693,
        0.023460445925593376,
        -0.11003690212965012,
        -0.10728207230567932,
        0.007102292496711016,
        0.009864157065749168,
        0.08712384104728699,
        -0.0130755715072155,
        -0.07590220868587494,
        0.03094949573278427,
        -0.021870195865631104,
        0.13341940939426422,
        -0.09663950651884079,
        0.04707140848040581,
        0.11607769876718521,
        -0.05838455632328987,
        0.14947275817394257,
        0.010635890066623688,
        0.09285897761583328,
        -0.02264997735619545,
        -0.04813161864876747,
        0.023562556132674217,
        -0.015673065558075905,
        -0.06740448623895645,
        0.057001013308763504,
        -0.0542641244828701,
        0.0712604746222496,
        0.025076299905776978,
        -0.09054911136627197,
        0.13313935697078705,
        0.12480014562606812,
        0.07738278061151505,
        0.06895599514245987
      ],
      [
        0.017318615689873695,
        0.07570353895425797,
        0.05737745761871338,
        0.062054671347141266,
        -0.08711986988782883,
        -0.06991619616746902,
        -0.06319578737020493,
        0.04574107378721237,
        0.06483796238899231,
        0.011816231533885002,
        -0.012015385553240776,
        0.007037385832518339,
        -0.0023749866522848606,
        0.030730994418263435,
        0.04497768357396126,
        -0.0480649508535862,
        0.06253188848495483,
        0.019090477377176285,
        -0.0320548415184021,
        -0.037164755165576935,
        -0.033042825758457184,
        0.13799002766609192,
        0.09891646355390549,
        0.09392701089382172,
        -0.0408235564827919,
        0.0522143691778183,
        0.1019105538725853,
        0.025156294927001,
        -0.08639989793300629,
        0.026515314355492592,
        0.059202712029218674,
        0.14181074500083923,
        0.08606050908565521,
        0.13028967380523682,
        0.09179218858480453,
        0.019290676340460777,
        -0.012256095185875893,
        -0.01402320060878992,
        -0.0655682161450386,
        -0.04892363399267197,
        0.0437968410551548,
        -0.03985689952969551,
        -0.004582772497087717,
        -0.1084723174571991,
        0.1383703500032425,
        0.09106894582509995,
        -0.023510951548814774,
        -0.07388095557689667,
        0.0440809540450573,
        -0.019963162019848824,
        0.09629081934690475,
        0.07890157401561737,
        1.956756750587374e-05,
        0.01292163785547018,
        0.048616670072078705,
        0.053303152322769165,
        0.03080282360315323,
        -0.0488513708114624,
        0.13810649514198303,
        0.14302335679531097,
        0.03150985762476921,
        0.08881839364767075,
        0.10905568301677704,
        -0.059445109218358994,
        0.10092838108539581,
        -0.033296920359134674,
        0.10838806629180908,
        -0.06623225659132004,
        0.13486264646053314,
        0.035799041390419006,
        0.1711195409297943,
        -0.048817187547683716
      ],
      [
        -0.03210829570889473,
        -0.07154673337936401,
        -0.025414707139134407,
        -0.055509839206933975,
        0.023046769201755524,
        0.10351557284593582,
        0.07015366107225418,
        0.17165488004684448,
        0.082176573574543,
        0.026916712522506714,
        0.0377083420753479,
        -0.0343594066798687,
        0.137791246175766,
        0.030438212677836418,
        -0.00010811371612362564,
        0.14056020975112915,
        0.1467963606119156,
        0.16773055493831635,
        0.08966096490621567,
        0.052399709820747375,
        0.024541158229112625,
        0.14097245037555695,
        0.04383891075849533,
        -0.09220900386571884,
        0.11360467225313187,
        0.013856335543096066,
        0.041264668107032776,
        -0.025227827951312065,
        0.03746606409549713,
        0.1313193142414093,
        -0.09270117431879044,
        -0.0014036532957106829,
        0.040841370820999146,
        0.18178769946098328,
        0.007493348326534033,
        0.12186433374881744,
        0.12655316293239594,
        0.16248121857643127,
        0.09031498432159424,
        0.18902263045310974,
        -0.02535305917263031,
        0.007515849079936743,
        0.20242659747600555,
        0.09490177780389786,
        0.029509613290429115,
        0.05547017231583595,
        0.022675499320030212,
        -0.0754571408033371,
        -0.05657348036766052,
        -0.10100499540567398,
        0.10303973406553268,
        -0.09826802462339401,
        -0.02572432905435562,
        0.11341673880815506,
        0.09493371099233627,
        0.04936131834983826,
        -0.0029420708306133747,
        0.18411362171173096,
        0.12680397927761078,
        0.18266378343105316,
        0.019660118967294693,
        0.1915535181760788,
        0.1831335723400116,
        0.19005358219146729,
        0.06473171710968018,
        0.022242611274123192,
        0.018634866923093796,
        0.15511001646518707,
        0.0898478627204895,
        -0.05635771155357361,
        0.10036332905292511,
        -0.06840289384126663
      ],
      [
        -0.07997018843889236,
        -0.004063306376338005,
        -0.11972136795520782,
        -0.06308829039335251,
        -0.035841770470142365,
        -0.050080060958862305,
        0.10042992234230042,
        -0.07078596204519272,
        0.07211285829544067,
        0.11263900250196457,
        -0.04410719871520996,
        -0.0361713282763958,
        0.06154052913188934,
        0.10788985341787338,
        -0.009703955613076687,
        -0.10125017911195755,
        -0.1211530789732933,
        -0.11549954861402512,
        0.08688277751207352,
        -0.07938214391469955,
        0.013692473992705345,
        -0.09574288129806519,
        0.01850052736699581,
        0.05367187410593033,
        -0.04924871399998665,
        0.07155729830265045,
        -0.05984662100672722,
        0.08501022309064865,
        0.05523555725812912,
        -0.02585267461836338,
        -0.1279493123292923,
        -0.09269339591264725,
        0.07707025855779648,
        0.08300888538360596,
        -0.07334557175636292,
        0.09444122761487961,
        0.06256888061761856,
        0.08429497480392456,
        0.031272996217012405,
        -0.019450660794973373,
        -0.10446690022945404,
        -0.10679904371500015,
        0.04598056897521019,
        0.04516396299004555,
        -0.014392751269042492,
        0.07478097081184387,
        0.04115894064307213,
        -0.09532027691602707,
        -0.03245057910680771,
        -0.01482435967773199,
        -0.09602805972099304,
        0.008827121928334236,
        -0.12014859169721603,
        0.07279481738805771,
        -0.009327067993581295,
        0.13832947611808777,
        0.01971331238746643,
        -0.07937662303447723,
        -0.01667087711393833,
        0.007477546576410532,
        0.017742637544870377,
        0.06947926431894302,
        0.09308844804763794,
        0.0198027566075325,
        -0.012554836459457874,
        0.06824465095996857,
        -0.0741533488035202,
        -0.03170361742377281,
        -0.05167783051729202,
        -0.016972513869404793,
        0.09917576611042023,
        -0.07281596213579178
      ],
      [
        0.12559574842453003,
        0.043434638530015945,
        0.12658454477787018,
        0.006802525836974382,
        0.0545627735555172,
        -0.10828804969787598,
        0.013309546746313572,
        -0.03248106688261032,
        0.010349240154027939,
        0.001976984553039074,
        -0.062372446060180664,
        0.025774231180548668,
        -0.010983007028698921,
        -0.05500562861561775,
        -0.05412366986274719,
        -0.0732874870300293,
        -0.08284378051757812,
        0.010128463618457317,
        0.10195823013782501,
        -0.0914989486336708,
        -0.035022176802158356,
        0.08850926160812378,
        0.11738748103380203,
        -0.057270824909210205,
        -0.020627746358513832,
        0.11450082808732986,
        0.06344126909971237,
        0.05481867119669914,
        0.132758229970932,
        0.026160771027207375,
        -0.11394285410642624,
        0.014715625904500484,
        0.08679883927106857,
        -0.1092681959271431,
        0.10637099295854568,
        -0.0035978297237306833,
        -0.013966227881610394,
        0.01987537369132042,
        -0.03621857240796089,
        0.07413799315690994,
        0.009176921099424362,
        0.1341814398765564,
        0.11522224545478821,
        0.08455614000558853,
        -0.030365625396370888,
        -0.08984553813934326,
        -0.08589363843202591,
        -0.06283953040838242,
        0.02146487683057785,
        -0.005850651301443577,
        -0.002728206804022193,
        0.007450586184859276,
        -0.0776493176817894,
        0.0036282246001064777,
        0.12648652493953705,
        -0.07991306483745575,
        0.009868821129202843,
        -0.05564874783158302,
        0.116768978536129,
        -0.015360926277935505,
        0.03212577849626541,
        -0.0542578361928463,
        0.13058488070964813,
        0.007946387864649296,
        -0.011475274339318275,
        0.052841734141111374,
        0.051395315676927567,
        0.06545348465442657,
        0.032752059400081635,
        0.13470938801765442,
        0.06151122599840164,
        0.08685704320669174
      ],
      [
        -0.10362152755260468,
        0.09621835500001907,
        0.07737235724925995,
        -0.09383949637413025,
        0.09952594339847565,
        0.006235843058675528,
        -0.045608535408973694,
        0.06529488414525986,
        -0.08046434074640274,
        -0.10894390195608139,
        0.10255848616361618,
        0.029157625511288643,
        0.03685241565108299,
        -0.10288150608539581,
        -0.05332592502236366,
        0.07775220274925232,
        -0.1292109191417694,
        -0.0355883426964283,
        0.10136710107326508,
        -0.13595905900001526,
        -0.07522265613079071,
        -0.07113555818796158,
        -0.11703410744667053,
        0.07219952344894409,
        -0.038867052644491196,
        -0.11652061343193054,
        -0.001452963100746274,
        -0.14156684279441833,
        -0.028684101998806,
        -0.10778634250164032,
        -0.08072452992200851,
        -0.09448231756687164,
        -0.08025311678647995,
        -0.08212593197822571,
        -0.08005021512508392,
        -0.008250657469034195,
        0.10095676779747009,
        -0.019275110214948654,
        0.09768882393836975,
        -0.08535199612379074,
        0.06825875490903854,
        -0.1217191070318222,
        0.08042848110198975,
        0.0069135925732553005,
        -0.1359773427248001,
        0.013170096091926098,
        0.03818222135305405,
        -0.12846128642559052,
        -0.11512014269828796,
        0.07021795213222504,
        -0.06648898124694824,
        0.013488812372088432,
        -0.07723093032836914,
        -0.023678047582507133,
        0.04087354615330696,
        0.030953306704759598,
        0.09201555699110031,
        -0.09755168110132217,
        -0.04002313315868378,
        -0.13182733952999115,
        0.05025115981698036,
        0.101881243288517,
        0.015935854986310005,
        0.07726684957742691,
        -0.12442613393068314,
        0.05453459173440933,
        -0.0977197214961052,
        -0.0318329818546772,
        0.046092111617326736,
        0.1013246402144432,
        0.020353348925709724,
        -0.01928594335913658
      ],
      [
        0.039391499012708664,
        -0.06277916580438614,
        0.02127114310860634,
        -0.11905939877033234,
        -0.06759307533502579,
        0.013219042681157589,
        -0.008222448639571667,
        -0.08053691685199738,
        -0.09832838922739029,
        -0.08854440599679947,
        0.08777997642755508,
        0.014775870367884636,
        0.025334222242236137,
        -0.04143530875444412,
        -0.07010402530431747,
        -0.046489417552948,
        -0.02184860222041607,
        -0.10816434025764465,
        -0.04923633486032486,
        0.03691620007157326,
        0.026794804260134697,
        0.06683632731437683,
        -0.04955648258328438,
        0.011980578303337097,
        -0.07867072522640228,
        0.018337830901145935,
        0.0686279758810997,
        -0.0693153366446495,
        0.10455606877803802,
        0.01834346354007721,
        0.0500696524977684,
        0.08084705471992493,
        -0.07900429517030716,
        -0.071269191801548,
        -0.04629013314843178,
        -0.01065050344914198,
        -0.06506725400686264,
        0.045537594705820084,
        -0.03607506304979324,
        -0.012245184741914272,
        0.005935498978942633,
        -0.05661112070083618,
        -0.045660048723220825,
        0.10263170301914215,
        -0.03217630088329315,
        -0.0994861051440239,
        0.08840552717447281,
        -0.017229663208127022,
        -0.07828470319509506,
        -0.006537155713886023,
        0.03293167054653168,
        -0.02539674937725067,
        -0.08315978199243546,
        -0.07441410422325134,
        0.05044688284397125,
        -0.0386473722755909,
        0.045171260833740234,
        -0.0415915809571743,
        0.0926845595240593,
        0.0915258526802063,
        0.008465249091386795,
        0.13815408945083618,
        0.028153028339147568,
        -0.028354542329907417,
        -0.026292433962225914,
        -0.017953872680664062,
        -0.011684821918606758,
        0.11205427348613739,
        0.09446863830089569,
        0.06601694971323013,
        0.12447318434715271,
        -0.04181542620062828
      ],
      [
        0.12199375778436661,
        0.1145470067858696,
        -0.04034565016627312,
        0.04814533889293671,
        -0.09393152594566345,
        0.017659392207860947,
        0.08729711920022964,
        0.046703170984983444,
        -0.09148569405078888,
        0.01792088896036148,
        -0.09261514246463776,
        0.017957694828510284,
        -0.02446618303656578,
        -0.0010330621153116226,
        0.12990495562553406,
        0.04318033531308174,
        -0.06973667442798615,
        0.11876789480447769,
        -0.03739934787154198,
        0.030372831970453262,
        -0.06478248536586761,
        -0.11971431970596313,
        -0.035611383616924286,
        0.09136907011270523,
        -0.11097563803195953,
        0.11587095260620117,
        -0.128056600689888,
        0.08319222182035446,
        -0.042837537825107574,
        -0.06949825584888458,
        -0.06191816180944443,
        0.05649275705218315,
        -0.06933359056711197,
        0.1338508576154709,
        -0.026588687673211098,
        -0.08536244928836823,
        -0.09973002970218658,
        0.10668817907571793,
        -0.07142295688390732,
        -0.005744060035794973,
        -0.012422982603311539,
        0.09777701646089554,
        0.03563772514462471,
        -0.05860009416937828,
        -0.08062390983104706,
        0.1294567584991455,
        -0.07615910470485687,
        0.12010923027992249,
        -0.07733694463968277,
        0.1104869470000267,
        0.11718377470970154,
        -0.012028311379253864,
        -0.035944364964962006,
        -0.017993221059441566,
        -0.1056089997291565,
        -0.014516535215079784,
        0.007411312311887741,
        0.07568487524986267,
        0.021615490317344666,
        0.0077506061643362045,
        0.07445831596851349,
        -0.0338829830288887,
        0.10130305588245392,
        0.13817048072814941,
        0.13228708505630493,
        0.09323809295892715,
        0.028217311948537827,
        -0.045346278697252274,
        0.11381107568740845,
        0.08590307086706161,
        0.035825248807668686,
        0.12994496524333954
      ],
      [
        -0.016074638813734055,
        0.04363713786005974,
        0.01558744814246893,
        0.07512813806533813,
        0.09508772939443588,
        -0.004597594030201435,
        0.06951744109392166,
        0.06297744810581207,
        0.1072729229927063,
        0.06269007176160812,
        0.03843596577644348,
        -0.054908767342567444,
        0.07532019913196564,
        0.019066300243139267,
        -0.11848815530538559,
        -0.010004940442740917,
        0.03516498580574989,
        0.055598434060811996,
        -0.06138581782579422,
        -0.009349988773465157,
        0.08984968066215515,
        0.0007040590280666947,
        0.0028866680804640055,
        -0.03317655622959137,
        0.010643376037478447,
        0.057635948061943054,
        -0.024976689368486404,
        0.10838494449853897,
        -0.111012764275074,
        0.0807446762919426,
        -0.032734718173742294,
        -0.11591644585132599,
        -0.00380353513173759,
        0.09093198925256729,
        -0.042237117886543274,
        -0.012558180838823318,
        -0.0066865067929029465,
        0.04788859188556671,
        0.05207611620426178,
        0.054320935159921646,
        0.06783105432987213,
        0.05201316997408867,
        -0.046359289437532425,
        -0.030935103073716164,
        -0.013719569891691208,
        -0.11024671047925949,
        -0.12869958579540253,
        -0.10925067961215973,
        -0.13859641551971436,
        -0.061442065984010696,
        -0.12331319600343704,
        0.09674191474914551,
        0.0014008727157488465,
        -0.13460442423820496,
        0.07462651282548904,
        0.07903878390789032,
        0.08244049549102783,
        0.017143115401268005,
        -0.05689718946814537,
        -0.0523582361638546,
        -0.09701167047023773,
        0.09880097955465317,
        -0.13237416744232178,
        -0.08849193155765533,
        -0.027210595086216927,
        -0.02345527522265911,
        -0.007303491700440645,
        0.03486919030547142,
        -0.04293467849493027,
        -0.024406712502241135,
        -0.05848156660795212,
        0.002061964478343725
      ],
      [
        -0.042169760912656784,
        -0.05968035012483597,
        0.04339690878987312,
        -0.05418624356389046,
        -0.003124444279819727,
        0.10520879924297333,
        -0.002348911017179489,
        -0.013264207169413567,
        -0.08440721780061722,
        0.024251973256468773,
        0.0342431403696537,
        0.049791038036346436,
        0.08029337227344513,
        0.002087158616632223,
        0.1219942569732666,
        -0.008522972464561462,
        0.038873955607414246,
        0.04989650845527649,
        0.10617905855178833,
        0.09705164283514023,
        0.0408591702580452,
        0.14254353940486908,
        -0.02269717864692211,
        0.11928348243236542,
        0.020587103441357613,
        0.05728599429130554,
        0.04458172246813774,
        0.05753015726804733,
        0.08881653845310211,
        0.054949138313531876,
        -0.04432382062077522,
        -0.0182957723736763,
        0.09158837795257568,
        -0.06198424845933914,
        -0.14218369126319885,
        -0.01876332238316536,
        -0.06692472100257874,
        0.05934899300336838,
        -0.032289884984493256,
        -0.10684502869844437,
        0.04268592596054077,
        0.020451374351978302,
        -0.03615998849272728,
        -0.06604170799255371,
        0.009090965613722801,
        0.14421649277210236,
        0.11708196252584457,
        0.1066112369298935,
        -0.002971994923427701,
        -0.09946861118078232,
        0.13020318746566772,
        -0.10415380448102951,
        -0.06298051029443741,
        0.04235054925084114,
        0.00449365796521306,
        0.09682507812976837,
        -0.11176797747612,
        -0.12163836508989334,
        -0.05088968575000763,
        -0.043162208050489426,
        -0.11601075530052185,
        0.04824038967490196,
        0.027997247874736786,
        0.1042337492108345,
        -0.07738842815160751,
        0.170918807387352,
        0.0949336439371109,
        0.021807176992297173,
        -0.04401189088821411,
        0.013812720775604248,
        0.013486291281878948,
        0.08743413537740707
      ],
      [
        0.030250119045376778,
        0.04380127787590027,
        0.1092795878648758,
        -0.10614075511693954,
        0.09622408449649811,
        -0.050365347415208817,
        0.15841013193130493,
        -0.042623359709978104,
        0.14683622121810913,
        -0.03247132524847984,
        0.09959597140550613,
        -0.03821514546871185,
        0.13075949251651764,
        -0.06608735024929047,
        0.10364581644535065,
        0.11099942773580551,
        -0.05978301167488098,
        0.12435868382453918,
        0.029884478077292442,
        0.035354118794202805,
        0.05208459123969078,
        -0.11427779495716095,
        -0.09604356437921524,
        -0.07558844983577728,
        -0.14905159175395966,
        -0.0017333707073703408,
        -0.07732241600751877,
        0.12382754683494568,
        -0.029105529189109802,
        0.03560522571206093,
        -0.0603342242538929,
        0.020278792828321457,
        0.0177017692476511,
        -0.027348048985004425,
        0.014895742759108543,
        0.05414995923638344,
        0.16220326721668243,
        0.06169547513127327,
        0.11470741778612137,
        0.028035921975970268,
        -0.08072888106107712,
        -0.019115570932626724,
        0.026058649644255638,
        0.017470872029662132,
        0.06756944954395294,
        -0.02706649899482727,
        0.06086840108036995,
        -0.10413167625665665,
        0.0524362213909626,
        -0.02467966079711914,
        -0.055526793003082275,
        0.10040569305419922,
        -0.04789732024073601,
        0.019170306622982025,
        0.10791897773742676,
        0.11691238731145859,
        0.08491096645593643,
        0.18926076591014862,
        0.007964901626110077,
        0.07535272091627121,
        0.07289427518844604,
        0.061930835247039795,
        0.0070241657085716724,
        0.15959134697914124,
        0.16565056145191193,
        0.05776702240109444,
        0.13512152433395386,
        0.12485846877098083,
        -0.09074217081069946,
        0.10933592170476913,
        0.11115767806768417,
        0.010932679288089275
      ],
      [
        -0.08628246188163757,
        0.008522992953658104,
        -0.038134146481752396,
        -0.013856771402060986,
        0.07195356488227844,
        0.014391331933438778,
        0.027229469269514084,
        0.003918245434761047,
        -0.11367429047822952,
        0.009626461192965508,
        -0.09056065231561661,
        0.03966980427503586,
        -0.07309070229530334,
        0.04096387326717377,
        -0.06611006706953049,
        -0.010060679167509079,
        -0.04792054370045662,
        -0.057417966425418854,
        -0.027245493605732918,
        -0.06656893342733383,
        -0.015145123936235905,
        0.04742555692791939,
        -0.08065760880708694,
        0.08891507983207703,
        0.04303141310811043,
        -0.03466380387544632,
        -0.07498981803655624,
        -0.03158774599432945,
        0.04255891218781471,
        0.05663488060235977,
        0.10546602308750153,
        -0.009298397228121758,
        0.06075058877468109,
        0.058122668415308,
        0.0730835571885109,
        -0.0130808399990201,
        -0.032317325472831726,
        0.06738071888685226,
        0.07320806384086609,
        -0.11699408292770386,
        0.13429825007915497,
        0.029471946880221367,
        -0.08925791829824448,
        0.04453839361667633,
        -0.016266465187072754,
        0.005786144640296698,
        0.12283959984779358,
        0.1367451399564743,
        0.11874805390834808,
        0.08312511444091797,
        -0.09473658353090286,
        -0.08195290714502335,
        0.04299169033765793,
        0.02521650493144989,
        0.01502789743244648,
        -0.011535579338669777,
        -0.05451542139053345,
        0.01820484548807144,
        0.017579350620508194,
        -0.03458051756024361,
        0.015345088206231594,
        -0.10496080666780472,
        -0.025048792362213135,
        -0.01296556368470192,
        -0.02831829898059368,
        0.05961669981479645,
        -0.016842331737279892,
        0.14629162847995758,
        -0.0765829086303711,
        0.005470623262226582,
        -0.07637791335582733,
        0.057169873267412186
      ],
      [
        0.01880078949034214,
        -0.050475433468818665,
        -0.04440024495124817,
        -0.0690503939986229,
        0.08094345033168793,
        -0.04944869875907898,
        -0.05533205345273018,
        -0.013200092129409313,
        0.02391183376312256,
        -0.08577276021242142,
        -0.0014185549225658178,
        -0.029056821018457413,
        0.006757477764040232,
        0.043890632688999176,
        -0.13228943943977356,
        0.00561392679810524,
        -0.016524136066436768,
        -0.10833710432052612,
        0.09872553497552872,
        -0.06860499083995819,
        0.039559219032526016,
        0.03506026417016983,
        0.0009634056477807462,
        0.07052446156740189,
        -0.008765636011958122,
        0.0751461610198021,
        0.04063841328024864,
        0.15333141386508942,
        -0.09398553520441055,
        -0.08060701191425323,
        0.07064899802207947,
        0.05189627408981323,
        -0.07921195775270462,
        -0.056806158274412155,
        0.07868711650371552,
        -0.11407839506864548,
        -0.058288995176553726,
        0.07277993857860565,
        -0.03553161770105362,
        -0.10354375839233398,
        -0.06413566321134567,
        -0.06508815288543701,
        -0.12139547616243362,
        0.09286580979824066,
        -0.01867552101612091,
        -0.03378942236304283,
        -0.0190742127597332,
        0.15057088434696198,
        0.07711660861968994,
        -0.04280128329992294,
        0.037194859236478806,
        0.13384872674942017,
        0.04468032345175743,
        -0.06161438673734665,
        0.06564705818891525,
        -0.07457149028778076,
        -0.043725188821554184,
        -0.08689437061548233,
        -0.014084995724260807,
        -0.040582891553640366,
        -0.013477636501193047,
        -0.11640491336584091,
        -0.07591927796602249,
        -0.017186356708407402,
        0.06339271366596222,
        0.07515020668506622,
        -0.061170194298028946,
        -0.01800965890288353,
        0.05120017006993294,
        0.1406000554561615,
        0.1569054126739502,
        0.13069365918636322
      ],
      [
        0.08700988441705704,
        0.03610449284315109,
        -0.03470337763428688,
        0.0606829971075058,
        -0.0770188644528389,
        -0.07000427693128586,
        -0.14212438464164734,
        -0.02427871897816658,
        -0.02953951060771942,
        -0.022800715640187263,
        0.08410177379846573,
        -0.07793707400560379,
        -0.12173766642808914,
        0.06036543846130371,
        -0.02188911661505699,
        0.047638826072216034,
        -0.10835225135087967,
        -0.00801492016762495,
        0.11745491623878479,
        -0.051052458584308624,
        -0.09429048001766205,
        -0.08965802937746048,
        -0.09493423998355865,
        0.0869307667016983,
        0.011489318683743477,
        -0.10358410328626633,
        -0.05475492775440216,
        -0.14102531969547272,
        -0.022435277700424194,
        0.03866518661379814,
        -0.01290858257561922,
        -0.009382970631122589,
        -0.06208714097738266,
        0.03085625357925892,
        0.062454745173454285,
        -0.06881815195083618,
        -0.10170241445302963,
        -0.017745764926075935,
        0.018655069172382355,
        -0.050057876855134964,
        0.016712045297026634,
        0.05532163009047508,
        -0.0014084165450185537,
        0.07654625922441483,
        0.10374638438224792,
        0.05335196107625961,
        0.07056745886802673,
        0.011026693508028984,
        0.08380873501300812,
        -0.08354639261960983,
        -0.0943426564335823,
        0.01155431754887104,
        0.0826534777879715,
        -0.12124723941087723,
        0.005883664824068546,
        0.063633494079113,
        0.06986517459154129,
        0.06972119957208633,
        -0.005338652990758419,
        0.053495846688747406,
        -0.09583847224712372,
        0.11033942550420761,
        0.11856993287801743,
        0.03626424819231033,
        0.05227696895599365,
        0.04140135273337364,
        0.011424855329096317,
        0.01983191817998886,
        0.038014791905879974,
        -0.06814549118280411,
        -0.0309967789798975,
        0.016241004690527916
      ],
      [
        -0.0683983638882637,
        0.006215078756213188,
        0.14156094193458557,
        -0.04034477472305298,
        -0.05207221582531929,
        0.16993872821331024,
        0.16834329068660736,
        0.0011360945645719767,
        -0.025888716802001,
        0.09463392198085785,
        -0.045810479670763016,
        0.11189352720975876,
        0.07974284887313843,
        0.10353250801563263,
        -0.018012644723057747,
        0.08416581898927689,
        -0.030033055692911148,
        0.0023200390860438347,
        -0.049277905374765396,
        0.0516061931848526,
        -0.05821729078888893,
        0.1571885496377945,
        -0.035989876836538315,
        0.0025658889207988977,
        0.12032298743724823,
        -0.003705366514623165,
        -0.014821876771748066,
        -0.02472653239965439,
        0.15990759432315826,
        0.15722894668579102,
        0.16595572233200073,
        0.13368220627307892,
        0.11840690672397614,
        0.0806659683585167,
        0.08458615094423294,
        -0.0552290640771389,
        0.04499110206961632,
        0.03561711311340332,
        0.07472194731235504,
        0.13537710905075073,
        -0.004826663993299007,
        -0.05857662484049797,
        0.1449292153120041,
        0.0220540352165699,
        0.15692315995693207,
        -0.06906884163618088,
        0.06585682928562164,
        -0.011140251532196999,
        0.06052398309111595,
        -0.03437132015824318,
        0.09881599992513657,
        0.0378744974732399,
        0.16287203133106232,
        0.01707080565392971,
        -0.03146938607096672,
        0.06377306580543518,
        0.08849156647920609,
        0.05365118756890297,
        -0.030406374484300613,
        0.03168896585702896,
        -0.03866814821958542,
        0.097339928150177,
        -0.00012288358993828297,
        0.07845164835453033,
        0.059089142829179764,
        -0.031084859743714333,
        0.13153550028800964,
        -0.022496409714221954,
        0.07846133410930634,
        0.06873677670955658,
        0.04871402308344841,
        0.17922748625278473
      ],
      [
        -0.036997564136981964,
        0.11169252544641495,
        0.059801921248435974,
        -0.09680210798978806,
        -0.10587266832590103,
        0.09034264087677002,
        -0.0025032900739461184,
        -0.0411086268723011,
        0.046054352074861526,
        -0.10601973533630371,
        -0.09854219108819962,
        0.007090570870786905,
        0.04425234720110893,
        -0.09780380874872208,
        -0.06247571483254433,
        0.06737538427114487,
        -0.0784001275897026,
        0.0886702612042427,
        -0.03202088177204132,
        0.019314417615532875,
        0.01695691980421543,
        -0.08326911926269531,
        -0.10122685879468918,
        0.05044185742735863,
        0.05459274351596832,
        -0.008446636609733105,
        0.0309227854013443,
        -0.12519711256027222,
        0.059328820556402206,
        0.02116999588906765,
        -0.03605826571583748,
        0.08468309044837952,
        -0.08491187542676926,
        -0.09827324748039246,
        -0.029828015714883804,
        -0.05441596731543541,
        -0.09240715950727463,
        -0.12074113637208939,
        -0.06334542483091354,
        -0.030892642214894295,
        -0.04125019162893295,
        0.022981693968176842,
        -0.07323051989078522,
        -0.1110185757279396,
        -0.13087597489356995,
        0.020064333453774452,
        0.06330845504999161,
        -0.04308607801795006,
        0.03985336422920227,
        -0.07360512018203735,
        -0.034957144409418106,
        -0.12788896262645721,
        0.07344027608633041,
        0.08569443970918655,
        0.01489866990596056,
        -0.09227138012647629,
        0.0986889898777008,
        -0.09352470934391022,
        0.025836573913693428,
        -0.12450157105922699,
        0.04313044250011444,
        -0.092343769967556,
        0.03964816778898239,
        -0.1082819253206253,
        0.07023695111274719,
        -0.13420391082763672,
        -0.020713577046990395,
        0.08911775052547455,
        0.09395691752433777,
        -0.0024461038410663605,
        0.06411132216453552,
        0.02018861472606659
      ],
      [
        0.11155205965042114,
        0.11666162312030792,
        -0.011358704417943954,
        -0.010187971405684948,
        -0.05283781513571739,
        0.12497355788946152,
        -0.02536497451364994,
        -0.0761067196726799,
        -0.1229049488902092,
        0.06293388456106186,
        0.07677827030420303,
        0.022271035239100456,
        -0.05470525845885277,
        0.053474873304367065,
        -0.020742181688547134,
        -0.05333104357123375,
        0.005964211653918028,
        -0.10005496442317963,
        0.033107560127973557,
        -0.057473182678222656,
        0.10264468193054199,
        0.10864563286304474,
        -0.08919041603803635,
        0.01630711928009987,
        -0.09202979505062103,
        -0.05564455687999725,
        0.09631957858800888,
        0.10632088780403137,
        0.06643976271152496,
        -0.08662054687738419,
        0.11422988027334213,
        0.05024850741028786,
        -0.10739100724458694,
        -0.12491101771593094,
        0.03577207773923874,
        0.016604935750365257,
        0.004262683447450399,
        0.09306442737579346,
        -0.05526045337319374,
        -0.0710509791970253,
        -0.07612889260053635,
        0.10555975139141083,
        -0.09700797498226166,
        -0.09193408489227295,
        0.1377817988395691,
        0.008664014749228954,
        0.03639793023467064,
        0.09288983792066574,
        0.08445241302251816,
        -0.04803572967648506,
        0.14011040329933167,
        0.14716561138629913,
        -0.012597125954926014,
        0.08522840589284897,
        -0.09072702378034592,
        0.0922975167632103,
        0.04742283374071121,
        -0.08053241670131683,
        0.10394033789634705,
        0.11951857060194016,
        -0.006115318275988102,
        -0.020337188616394997,
        0.14227871596813202,
        -0.08766484260559082,
        0.009732276201248169,
        0.07246797531843185,
        0.04915006086230278,
        0.033629078418016434,
        -0.05913109332323074,
        0.0963294729590416,
        0.13680392503738403,
        0.1083531603217125
      ],
      [
        -0.045243509113788605,
        0.010859113186597824,
        0.13561858236789703,
        -0.011229836381971836,
        0.004750775173306465,
        0.11336786299943924,
        0.010359837673604488,
        0.14746247231960297,
        0.15539959073066711,
        0.008285856805741787,
        0.11235382407903671,
        0.048825088888406754,
        -0.09965042769908905,
        -0.0034065775107592344,
        -0.06932869553565979,
        0.057037148624658585,
        -0.009424003772437572,
        -0.11788132041692734,
        -0.10989609360694885,
        -0.10203221440315247,
        -0.14323025941848755,
        0.07646773755550385,
        -0.013346034102141857,
        -0.014451404102146626,
        0.08213282376527786,
        0.10985936969518661,
        0.10423018783330917,
        0.0745881199836731,
        0.11967304348945618,
        -0.016158422455191612,
        -0.056895483285188675,
        0.06086871400475502,
        -0.03468615561723709,
        -0.055202800780534744,
        0.11998647451400757,
        0.14674735069274902,
        -0.01478359941393137,
        0.1258789747953415,
        0.07318326830863953,
        0.03889242187142372,
        -0.1075403094291687,
        -0.03210596367716789,
        0.07943834364414215,
        -0.016764771193265915,
        -0.08063876628875732,
        0.09448003023862839,
        0.09103389084339142,
        -0.06106508895754814,
        0.14504201710224152,
        0.016694728285074234,
        0.005007877480238676,
        0.15547314286231995,
        0.12690503895282745,
        0.17361125349998474,
        0.1639043688774109,
        0.14674244821071625,
        0.17460744082927704,
        -0.07752496004104614,
        -0.020850250497460365,
        0.15543843805789948,
        -0.08011902868747711,
        -0.018339093774557114,
        -0.1130833849310875,
        -0.040608856827020645,
        0.06691312044858932,
        0.027760155498981476,
        -0.016103381291031837,
        -0.06444836407899857,
        -0.01531363558024168,
        0.11437045782804489,
        -0.08101965487003326,
        -0.07017292082309723
      ],
      [
        -0.021869530901312828,
        0.05859708413481712,
        0.12950168550014496,
        0.10450074821710587,
        -0.05815945565700531,
        0.09978414326906204,
        -0.08377920091152191,
        -0.11437860131263733,
        -0.11506973952054977,
        0.07945936173200607,
        -0.05491990968585014,
        -0.07321508973836899,
        -0.029305914416909218,
        0.12863029539585114,
        0.008543350733816624,
        0.09933792054653168,
        -0.09989961981773376,
        0.03931904956698418,
        -0.044839199632406235,
        -0.12119516730308533,
        -0.05451788380742073,
        -0.05364116653800011,
        0.07701171189546585,
        0.09793101996183395,
        -0.0029483363032341003,
        0.00637777941301465,
        -0.07656335830688477,
        0.04969145357608795,
        0.12937113642692566,
        0.08626504242420197,
        -0.0234181247651577,
        0.12430813908576965,
        -0.005006011109799147,
        -0.08625895529985428,
        -0.024164220318198204,
        -0.0890154018998146,
        -0.08859673887491226,
        -0.11058519035577774,
        0.09268145263195038,
        -0.02330656722187996,
        -0.002621619962155819,
        -0.08035241067409515,
        -0.08269856870174408,
        -0.09095406532287598,
        0.03260323777794838,
        0.09527048468589783,
        0.08785048872232437,
        -0.08216241002082825,
        -0.03369184210896492,
        0.040396563708782196,
        0.05291854590177536,
        0.11054935306310654,
        0.03327077627182007,
        0.12609171867370605,
        0.09629492461681366,
        0.1371559053659439,
        0.10173997282981873,
        -0.03080500103533268,
        0.10083117336034775,
        0.022999342530965805,
        0.14466917514801025,
        -0.08422651886940002,
        0.0956011489033699,
        0.12286856025457382,
        0.01758871227502823,
        0.06239618360996246,
        -0.0281374529004097,
        0.04919113963842392,
        0.07852006703615189,
        0.04733985662460327,
        -0.008421476930379868,
        0.08171649277210236
      ],
      [
        -0.0650971308350563,
        -0.03443766012787819,
        -0.048651814460754395,
        -0.0013926320243626833,
        -0.12255723774433136,
        0.07029236853122711,
        -0.007525819353759289,
        0.05917641520500183,
        0.06408930569887161,
        -0.047568004578351974,
        0.10084570199251175,
        0.08227688074111938,
        0.04273480176925659,
        0.11536318808794022,
        0.07294430583715439,
        0.1297866702079773,
        -0.06942102313041687,
        -0.04178654029965401,
        -0.0584779754281044,
        0.026141265407204628,
        0.11065517365932465,
        -0.07832791656255722,
        0.009260776452720165,
        -0.05922199785709381,
        0.09894271194934845,
        -0.052119702100753784,
        0.1030917763710022,
        0.06048298254609108,
        0.06215230002999306,
        -0.131495401263237,
        -0.08573248982429504,
        -0.1174226701259613,
        0.1211056038737297,
        0.004062948282808065,
        0.09523915499448776,
        0.059506483376026154,
        -0.013181712478399277,
        0.05948075279593468,
        0.14414626359939575,
        -0.007364559452980757,
        0.15778233110904694,
        0.019604137167334557,
        -0.011954733170568943,
        0.055915530771017075,
        -0.05107882246375084,
        0.11798257380723953,
        -0.0505322590470314,
        0.08432398736476898,
        -0.04207517206668854,
        -0.02769397385418415,
        0.006949258502572775,
        0.03447285667061806,
        0.0752105861902237,
        0.124972403049469,
        -0.10951051861047745,
        -0.07025540620088577,
        0.025124751031398773,
        -0.047064945101737976,
        -0.031536851078271866,
        -0.020563723519444466,
        0.08436736464500427,
        0.14936211705207825,
        0.13994817435741425,
        0.12532809376716614,
        0.0201946422457695,
        0.03985634073615074,
        0.035722412168979645,
        0.0853303074836731,
        -0.001346202683635056,
        0.13955949246883392,
        -0.039275068789720535,
        -0.04634713754057884
      ],
      [
        0.05810844153165817,
        0.20555515587329865,
        0.19776666164398193,
        0.13412168622016907,
        0.011094379238784313,
        0.011607528664171696,
        0.05866393446922302,
        0.02842126041650772,
        -0.03409816697239876,
        -0.003126569325104356,
        0.015546474605798721,
        0.07208752632141113,
        -0.03935457766056061,
        0.17844827473163605,
        0.052447766065597534,
        0.16882550716400146,
        0.12981440126895905,
        -0.024765389040112495,
        0.10163266211748123,
        0.009729757905006409,
        0.19473113119602203,
        0.1955084204673767,
        0.085872121155262,
        0.15987446904182434,
        0.1345406174659729,
        0.11923214048147202,
        0.0891515240073204,
        0.12113747000694275,
        0.13650387525558472,
        -0.012836378999054432,
        0.06312033534049988,
        0.197747141122818,
        0.12650786340236664,
        0.008225521072745323,
        0.08236359059810638,
        0.08704937994480133,
        0.07258644700050354,
        -0.04054133594036102,
        0.04113190993666649,
        -0.04202193766832352,
        -0.04245416447520256,
        -0.004996613133698702,
        0.00621546758338809,
        -0.039497293531894684,
        0.07684355229139328,
        0.0309552364051342,
        0.006233160383999348,
        0.09106502681970596,
        0.035247981548309326,
        0.03808058798313141,
        0.17545181512832642,
        -0.022104719653725624,
        0.018766261637210846,
        0.07385654002428055,
        0.01828714646399021,
        -0.010629643686115742,
        0.07739932835102081,
        0.029497282579541206,
        -0.047325119376182556,
        0.14837615191936493,
        -0.0015040208818390965,
        0.13897961378097534,
        -0.05467042326927185,
        0.14200763404369354,
        0.1604965329170227,
        0.032240428030490875,
        0.037115029990673065,
        0.1912599802017212,
        0.026552071794867516,
        0.19012658298015594,
        -0.034036166965961456,
        0.15344123542308807
      ],
      [
        0.15007324516773224,
        0.19354616105556488,
        0.1866687834262848,
        0.12333621829748154,
        0.05604536458849907,
        0.1479673534631729,
        0.12725065648555756,
        0.16038285195827484,
        0.068712018430233,
        0.04545385390520096,
        0.20493865013122559,
        -0.010769670829176903,
        0.08853951096534729,
        0.07944253832101822,
        -0.01843719184398651,
        0.17189452052116394,
        0.03236931934952736,
        0.10318321734666824,
        0.15270695090293884,
        0.03629327937960625,
        0.03313218429684639,
        0.062106043100357056,
        0.10795937478542328,
        -0.031617190688848495,
        0.1758098304271698,
        0.10865379869937897,
        -0.04165603220462799,
        0.14530175924301147,
        0.1146383136510849,
        0.06740012019872665,
        0.10489434003829956,
        0.19084002077579498,
        0.1974203884601593,
        0.14124780893325806,
        0.10417436808347702,
        0.12146773189306259,
        0.027679266408085823,
        0.07581917941570282,
        0.1870875507593155,
        0.09993517398834229,
        -0.0037819738499820232,
        0.1426483690738678,
        0.1764364391565323,
        0.19983454048633575,
        0.1486133486032486,
        0.10635562241077423,
        0.173564612865448,
        0.19255220890045166,
        0.13620735704898834,
        0.07699061185121536,
        0.10600870102643967,
        0.04762782156467438,
        0.08247510343790054,
        0.1911005675792694,
        0.12109147012233734,
        0.11291337013244629,
        0.03266202658414841,
        0.1455455720424652,
        0.18524497747421265,
        0.12979820370674133,
        0.0817982479929924,
        0.11038511991500854,
        0.024775834754109383,
        0.12043219804763794,
        -0.0017513937782496214,
        0.07272664457559586,
        0.06925742328166962,
        0.1640743762254715,
        0.19040372967720032,
        0.01409709732979536,
        -0.0013087315019220114,
        0.13095837831497192
      ],
      [
        0.1150745376944542,
        0.09419362992048264,
        0.03646889701485634,
        0.05589267984032631,
        -0.026840658858418465,
        -0.09580984711647034,
        0.01706264354288578,
        -0.0412551574409008,
        0.05971269682049751,
        0.04794679954648018,
        0.12429951131343842,
        -0.11027655005455017,
        -0.05305428430438042,
        -0.07152234017848969,
        -0.11157021671533585,
        0.041395943611860275,
        -0.11648298799991608,
        -0.10855713486671448,
        0.06413806974887848,
        0.003334952052682638,
        -0.08852143585681915,
        0.10729707777500153,
        -0.02325807698071003,
        -0.06264116615056992,
        -0.019018251448869705,
        0.02690189704298973,
        0.14285431802272797,
        -0.0429033599793911,
        0.0892268568277359,
        0.01438934076577425,
        0.14289158582687378,
        0.044394414871931076,
        0.006216393783688545,
        0.04466462880373001,
        0.021114403381943703,
        -0.06286532431840897,
        -0.09608144313097,
        0.04472585394978523,
        0.11987456679344177,
        0.07736114412546158,
        0.10719785839319229,
        -0.033519841730594635,
        -0.11449013650417328,
        0.13024355471134186,
        -0.023842262104153633,
        0.09349887818098068,
        0.06419888138771057,
        0.03802713006734848,
        -0.08565942943096161,
        0.1452733427286148,
        -0.04833145812153816,
        0.030602512881159782,
        0.06009629741311073,
        0.03972252085804939,
        -0.08488764613866806,
        0.03513536602258682,
        -0.03821062296628952,
        -0.01912505365908146,
        0.13288336992263794,
        -0.019558437168598175,
        -0.021214846521615982,
        -0.10452521592378616,
        -0.014775368385016918,
        -0.054695241153240204,
        0.033825021237134933,
        0.09156294167041779,
        0.047904469072818756,
        0.16154541075229645,
        -0.06821146607398987,
        -0.03080962598323822,
        -0.016961487010121346,
        0.11170028150081635
      ],
      [
        -0.040532924234867096,
        0.0245510246604681,
        0.1117812916636467,
        0.08039650321006775,
        -0.07874640822410583,
        -0.03664131835103035,
        -0.08408872038125992,
        0.07542131096124649,
        0.03289657458662987,
        -0.043230898678302765,
        0.031142042949795723,
        -0.020238131284713745,
        -0.07133574783802032,
        0.004173630848526955,
        0.0810365155339241,
        -0.0014125987654551864,
        0.06364189088344574,
        -0.09344100952148438,
        0.017390340566635132,
        -0.026888320222496986,
        0.13371573388576508,
        -0.05250704661011696,
        0.08165527135133743,
        -0.005058209411799908,
        -0.10901385545730591,
        0.09768792986869812,
        0.04393836855888367,
        0.026314621791243553,
        -0.07799350470304489,
        0.05071990564465523,
        0.04537631571292877,
        0.06388209760189056,
        0.015465985052287579,
        0.07151087373495102,
        0.011065815575420856,
        -0.04347720742225647,
        0.08521918952465057,
        0.06430814415216446,
        0.05247201398015022,
        -0.030878286808729172,
        -0.05510924383997917,
        0.09086207300424576,
        0.10683781653642654,
        -0.040340788662433624,
        -0.08589537441730499,
        0.014338268898427486,
        0.007085082121193409,
        0.016292383894324303,
        -0.08732745051383972,
        -0.03620177507400513,
        0.07025578618049622,
        -0.03416738286614418,
        0.11508721113204956,
        0.02898622676730156,
        0.12067137658596039,
        -0.027397308498620987,
        -0.04371566325426102,
        -0.01027596928179264,
        0.007397460751235485,
        0.08254261314868927,
        -0.012676365673542023,
        -0.06871169805526733,
        0.050481610000133514,
        0.1170104593038559,
        0.07852695882320404,
        0.1579599529504776,
        -0.05420346185564995,
        0.012942983768880367,
        0.05814598500728607,
        0.05026368424296379,
        0.12527525424957275,
        0.12118005752563477
      ],
      [
        0.1421077698469162,
        0.10687417536973953,
        0.06832865625619888,
        0.041512906551361084,
        0.03039385750889778,
        0.047098856419324875,
        0.06202095001935959,
        -0.009642035700380802,
        -0.08468804508447647,
        -0.07145484536886215,
        0.06549479067325592,
        -0.06994453072547913,
        0.10306309908628464,
        0.029066041111946106,
        0.005730085540562868,
        0.06639831513166428,
        0.11302530020475388,
        -0.010933326557278633,
        0.10678526014089584,
        -0.07440149784088135,
        0.06811995059251785,
        0.10791949927806854,
        0.05045835301280022,
        0.06788717210292816,
        0.11698034405708313,
        0.12146720290184021,
        -0.020688392221927643,
        0.015596124343574047,
        -0.1017693355679512,
        0.010694793425500393,
        0.05255960300564766,
        0.026884179562330246,
        -0.015551607124507427,
        0.02133868634700775,
        0.036171671003103256,
        0.10578514635562897,
        0.02871137112379074,
        -0.05707036331295967,
        -0.11699972301721573,
        0.09963270276784897,
        0.037202298641204834,
        -0.1124783456325531,
        0.02794726938009262,
        0.13264790177345276,
        0.020878348499536514,
        0.09210142493247986,
        -0.042784567922353745,
        0.013967322185635567,
        0.0948118343949318,
        0.051370467990636826,
        -0.06024371460080147,
        0.0036602220498025417,
        -0.0906759724020958,
        0.052062585949897766,
        0.035684168338775635,
        0.03339720144867897,
        0.09227795898914337,
        0.00617063045501709,
        0.02823024056851864,
        -0.106374092400074,
        0.025339610874652863,
        0.1143885999917984,
        0.08063911646604538,
        0.13170239329338074,
        -0.08553742617368698,
        -0.043375514447689056,
        -0.005490976385772228,
        0.05445452407002449,
        0.16749940812587738,
        0.12812845408916473,
        0.021313056349754333,
        0.15010571479797363
      ],
      [
        0.038442350924015045,
        0.15508154034614563,
        -0.029899489134550095,
        -0.0017907967558130622,
        0.012701839208602905,
        0.03186264634132385,
        0.12770968675613403,
        0.1733453869819641,
        0.07250124961137772,
        -0.025214845314621925,
        0.06864972412586212,
        -0.010484421625733376,
        -0.054460860788822174,
        -0.029083769768476486,
        0.09448591619729996,
        -0.01755455508828163,
        0.049546726047992706,
        0.026772839948534966,
        0.1046643853187561,
        0.05114779621362686,
        0.11831025034189224,
        -0.06913867592811584,
        0.018122706562280655,
        0.14085641503334045,
        -0.05426071956753731,
        -0.04080480337142944,
        0.14242510497570038,
        0.031697433441877365,
        0.028493022546172142,
        0.14494599401950836,
        0.02382798120379448,
        -0.06614038348197937,
        0.11408677697181702,
