{
  "model_architecture": {
    "input_size": 72,
    "hidden_size": 64,
    "output_size": 24,
    "num_layers": 1
  },
  "parameters": {
    "lstm.weight_ih_l0": [
      [
        -0.11106330901384354,
        0.082854725420475,
        0.021452393382787704,
        0.039561040699481964,
        0.04760301858186722,
        0.08444679528474808,
        -0.02191285230219364,
        0.05560505762696266,
        0.0044319722801446915,
        -0.06433708965778351,
        0.008172792382538319,
        0.08909455686807632,
        0.11168592423200607,
        0.02436920814216137,
        0.06627913564443588,
        0.07384359836578369,
        0.052812542766332626,
        0.04518185183405876,
        0.08821941912174225,
        0.04300236701965332,
        -0.01573861390352249,
        0.07152111083269119,
        -0.05293295159935951,
        -0.08480079472064972,
        0.06119753420352936,
        -0.11545734852552414,
        0.06397166103124619,
        0.05659065023064613,
        -0.06696819514036179,
        0.015071388334035873,
        -0.01674562506377697,
        -0.026168301701545715,
        0.04709932953119278,
        0.04199216887354851,
        0.047187115997076035,
        0.11083358526229858,
        -0.0601547434926033,
        -0.023665035143494606,
        -0.05478915199637413,
        -0.015175907872617245,
        0.02494102157652378,
        0.011940009891986847,
        -0.07935379445552826,
        -0.04026789218187332,
        0.11092302203178406,
        -0.10456960648298264,
        -0.08041831105947495,
        0.035604629665613174,
        0.03915984928607941,
        0.0675864890217781,
        -0.10839375108480453,
        -0.11328344792127609,
        -0.08148039132356644,
        -0.011149503290653229,
        -0.10422399640083313,
        -0.07806577533483505,
        -0.030701998621225357,
        -0.11410319805145264,
        -0.05678214132785797,
        -0.09792513400316238,
        0.12318249046802521,
        0.1394643932580948,
        -0.06307773292064667,
        0.03901151567697525,
        0.1473444104194641,
        0.016968658193945885,
        0.029875947162508965,
        0.15439766645431519,
        -0.07159961760044098,
        0.09738660603761673,
        -0.06723193824291229,
        -0.06005598232150078
      ],
      [
        -0.04294181242585182,
        -0.014660988003015518,
        0.05183292180299759,
        -0.1129348874092102,
        0.010926719754934311,
        -0.0850924700498581,
        0.10387345403432846,
        0.05590636283159256,
        0.13873553276062012,
        0.005944415926933289,
        -0.029169972985982895,
        -0.05224563553929329,
        -0.10016759485006332,
        0.027715809643268585,
        0.038813330233097076,
        0.07545395940542221,
        -0.08765725046396255,
        0.07862485945224762,
        -0.002597166458144784,
        -0.11505494266748428,
        -0.11202728748321533,
        -0.04946184903383255,
        0.03891439363360405,
        -0.07239279896020889,
        0.10335267335176468,
        0.05590549111366272,
        0.0064431182108819485,
        -0.013578420504927635,
        0.03675456717610359,
        -0.05052347853779793,
        0.1389942765235901,
        0.046968236565589905,
        0.00460490956902504,
        -0.08021486550569534,
        0.0974254161119461,
        0.08068626374006271,
        -0.07617732137441635,
        0.024168552830815315,
        -0.024892864748835564,
        -0.04929252713918686,
        -0.07600937783718109,
        -0.09835396707057953,
        -0.02102671004831791,
        -0.11311672627925873,
        -0.0392385758459568,
        0.06907236576080322,
        0.015402786433696747,
        -0.015206979587674141,
        0.00904021319001913,
        0.09633518010377884,
        -0.06297966092824936,
        0.1014835461974144,
        0.05171085521578789,
        0.11983121931552887,
        0.0957380160689354,
        -0.05095259100198746,
        -0.026683259755373,
        0.057131458073854446,
        -0.0210425965487957,
        0.1536642611026764,
        0.02224978804588318,
        0.07802043855190277,
        -0.03712097927927971,
        -0.07306244969367981,
        0.014391127973794937,
        -0.06449738889932632,
        0.14709129929542542,
        -0.01908341608941555,
        0.12155928462743759,
        0.11676295101642609,
        -0.08015167713165283,
        -0.0175017137080431
      ],
      [
        0.10896622389554977,
        0.04280557855963707,
        0.021220099180936813,
        0.05759196728467941,
        -0.017570100724697113,
        -0.1178116500377655,
        -0.05270286276936531,
        0.1118493303656578,
        0.01673794537782669,
        0.08669491112232208,
        -0.03973526880145073,
        -0.10130400955677032,
        0.12113096565008163,
        0.010821386240422726,
        0.09428852796554565,
        0.07900937646627426,
        0.055506955832242966,
        -0.09702211618423462,
        0.0683058649301529,
        0.030804794281721115,
        0.07055072486400604,
        0.09083367139101028,
        0.1105659157037735,
        -0.04704569652676582,
        0.02801419422030449,
        0.04377640411257744,
        -0.020158197730779648,
        0.060999300330877304,
        0.019545264542102814,
        0.00295691448263824,
        -0.06314781308174133,
        0.09011290222406387,
        -0.12304473668336868,
        0.024598581716418266,
        -0.02427440695464611,
        0.03690004721283913,
        0.12872399389743805,
        0.06259003281593323,
        -0.07388913631439209,
        -0.024065805599093437,
        0.0008735984447412193,
        0.08112776279449463,
        0.12714140117168427,
        0.058976493775844574,
        -0.045450493693351746,
        0.09068027138710022,
        0.03553776815533638,
        -0.1304713934659958,
        -0.11161398887634277,
        0.015120099298655987,
        -0.11654254049062729,
        0.03816380351781845,
        0.05426318570971489,
        0.11759169399738312,
        -0.09698275476694107,
        -0.052177175879478455,
        -0.028176169842481613,
        0.007610912434756756,
        0.1033618301153183,
        0.02638981118798256,
        -0.023760203272104263,
        0.0566701740026474,
        0.007807265501469374,
        -0.0981680229306221,
        -0.05213727802038193,
        0.11691461503505707,
        0.001606397214345634,
        -0.13707681000232697,
        0.07133866101503372,
        -0.1350964605808258,
        -0.13891449570655823,
        -0.02377173863351345
      ],
      [
        0.1430816650390625,
        0.007498038932681084,
        0.053859174251556396,
        -0.038272734731435776,
        -0.10917175561189651,
        0.11785527318716049,
        -0.012364541180431843,
        -0.008882852271199226,
        -0.017212945967912674,
        0.0046486640349030495,
        -0.10363540053367615,
        -0.06822703778743744,
        0.12109430879354477,
        0.05324050784111023,
        0.08850381523370743,
        -0.0540141761302948,
        -0.05285383388400078,
        -0.03955662623047829,
        0.08575265109539032,
        0.03937813639640808,
        0.06877162307500839,
        0.03625117987394333,
        0.09978345036506653,
        -0.04398780316114426,
        -0.023417847231030464,
        -0.07351461797952652,
        -0.05184479057788849,
        0.04646020755171776,
        0.07998274266719818,
        0.10815680027008057,
        0.10792475193738937,
        -0.059179339557886124,
        -0.030332552269101143,
        0.0025294991210103035,
        -0.0847674161195755,
        -0.023165687918663025,
        -0.05907674506306648,
        0.0490068718791008,
        -0.014949526637792587,
        -0.10846953839063644,
        0.05525825917720795,
        -0.04397384449839592,
        0.106760673224926,
        -0.003554039867594838,
        -0.04441245645284653,
        -0.0012453690869733691,
        0.03282389044761658,
        0.050330061465501785,
        0.04218100756406784,
        0.10903998464345932,
        0.13126923143863678,
        0.05444667860865593,
        0.10028252750635147,
        0.06769923120737076,
        -0.051337674260139465,
        0.11362598836421967,
        0.04004471004009247,
        -0.03851727768778801,
        -0.014083899557590485,
        -0.05240010842680931,
        -0.07507170736789703,
        0.149743914604187,
        0.09098730236291885,
        0.0021548038348555565,
        -0.0301216933876276,
        0.06053055822849274,
        0.07401185482740402,
        0.16920389235019684,
        0.1584092229604721,
        -0.06950415670871735,
        0.05296704173088074,
        -0.06313002109527588
      ],
      [
        -0.029426991939544678,
        -0.08170074224472046,
        -0.06306669116020203,
        -0.07781907916069031,
        -0.004073495510965586,
        0.04415425658226013,
        0.06480637192726135,
        0.0792507603764534,
        0.09197329729795456,
        -0.033722613006830215,
        -0.05087589845061302,
        0.07680661976337433,
        0.012568270787596703,
        -0.015187541954219341,
        -0.11164397746324539,
        -0.11589241772890091,
        -0.1410728543996811,
        0.050669148564338684,
        0.021666597574949265,
        0.0005896615330129862,
        0.00975386705249548,
        -0.005207524634897709,
        -0.042150817811489105,
        -0.11327185481786728,
        -0.10362765938043594,
        -0.1258106529712677,
        0.006975142285227776,
        -0.12087899446487427,
        -0.0284854955971241,
        0.03404383361339569,
        0.11914511024951935,
        -0.12386692315340042,
        0.062028441578149796,
        -0.03419536352157593,
        0.02539050206542015,
        -0.04688701778650284,
        -0.09924256801605225,
        0.038532745093107224,
        0.016691481694579124,
        0.07389180362224579,
        -0.0847557932138443,
        0.05729115009307861,
        -0.07105283439159393,
        0.07912420481443405,
        -0.0519765242934227,
        -0.009293172508478165,
        0.009319886565208435,
        0.1080562174320221,
        0.011326498351991177,
        0.003713080193847418,
        0.06922376155853271,
        -0.023759348317980766,
        -0.04789675399661064,
        -0.02272879146039486,
        -0.07584837079048157,
        -0.11407728493213654,
        0.02344394475221634,
        -0.06995850056409836,
        -0.0058060260489583015,
        -0.07202384620904922,
        0.0867636427283287,
        -0.030123019590973854,
        -0.02133200131356716,
        0.07002050429582596,
        -0.12257340550422668,
        -0.10080275684595108,
        -0.08377701044082642,
        -0.025648677721619606,
        0.08697480708360672,
        0.019190292805433273,
        0.04156430438160896,
        -0.001227102940902114
      ],
      [
        -0.04175250977277756,
        -0.1167086511850357,
        -0.062448032200336456,
        0.012803475372493267,
        0.016531040892004967,
        -0.06501106917858124,
        0.04668449983000755,
        -0.08309335261583328,
        -0.022250788286328316,
        -0.03408114239573479,
        -0.025469589978456497,
        0.04720750078558922,
        -0.0713331401348114,
        -0.05704411491751671,
        -0.10883284360170364,
        -0.023007290437817574,
        0.02047973871231079,
        -0.02601970173418522,
        0.09247509390115738,
        -0.01604640670120716,
        -0.0773899108171463,
        -0.10399175435304642,
        -0.020061036571860313,
        -0.018110699951648712,
        0.03344384580850601,
        -0.10775198042392731,
        0.11371563374996185,
        0.049047671258449554,
        -0.015328551642596722,
        -0.047678325325250626,
        -0.015510141849517822,
        -0.041838325560092926,
        0.045593664050102234,
        -0.08735450357198715,
        0.014861207455396652,
        0.10353508591651917,
        0.04811335727572441,
        0.07918740808963776,
        0.04272391274571419,
        -0.12071524560451508,
        0.05561331287026405,
        -0.011348763480782509,
        -0.06952953338623047,
        0.07699403166770935,
        -0.1112910807132721,
        -0.047276321798563004,
        0.013989576138556004,
        -0.04768761247396469,
        0.05350610986351967,
        -0.0724077895283699,
        -0.09329725801944733,
        0.04722593352198601,
        -0.009591848589479923,
        0.005995423998683691,
        0.04126144200563431,
        0.01333137322217226,
        -0.023826759308576584,
        0.09563694149255753,
        0.1079389750957489,
        -0.09316889196634293,
        0.023297566920518875,
        0.052524633705616,
        -0.10278104245662689,
        0.09665003418922424,
        -0.05922618880867958,
        0.1145397499203682,
        0.04961663857102394,
        0.07016165554523468,
        0.045258864760398865,
        0.13255181908607483,
        0.0035499390214681625,
        0.10678554326295853
      ],
      [
        -0.018772289156913757,
        0.07436416298151016,
        0.0494762621819973,
        0.07004474103450775,
        0.11346954852342606,
        0.08817154914140701,
        -0.002290841657668352,
        -0.04293724521994591,
        0.09375736117362976,
        -0.06304887682199478,
        -0.00013720258721150458,
        -0.08071427047252655,
        0.09669031202793121,
        0.1037185788154602,
        0.07576724886894226,
        -0.06192103028297424,
        -0.08462325483560562,
        -0.10227041691541672,
        0.06343203783035278,
        -0.007773058954626322,
        0.053089581429958344,
        0.024631386622786522,
        0.0066751036792993546,
        0.08501940965652466,
        0.07250593602657318,
        0.11318176239728928,
        -0.0808204784989357,
        -0.05778491497039795,
        -0.08794966340065002,
        -0.12036538869142532,
        0.002232008846476674,
        0.09129292517900467,
        -0.0438954122364521,
        -0.09109137952327728,
        0.08972202241420746,
        0.0632934495806694,
        -0.0019133503083139658,
        0.025394830852746964,
        0.1095840260386467,
        0.07311725616455078,
        0.052565935999155045,
        -0.025541113689541817,
        0.11181209981441498,
        0.07125459611415863,
        -0.03732897713780403,
        0.04679618403315544,
        -0.11410058289766312,
        -0.025820234790444374,
        0.015521684661507607,
        0.03508172184228897,
        -0.10142471641302109,
        0.09242016822099686,
        0.06451408565044403,
        0.07231052219867706,
        0.04531348496675491,
        0.09608037769794464,
        -0.04998426139354706,
        0.03829357400536537,
        0.056645117700099945,
        0.04960418492555618,
        0.15521886944770813,
        0.12450633943080902,
        -0.026811692863702774,
        -0.04605597257614136,
        0.1255331188440323,
        -0.012501399032771587,
        0.10269788652658463,
        -0.055250074714422226,
        0.04747683182358742,
        0.14289109408855438,
        -0.01784832403063774,
        0.19229954481124878
      ],
      [
        -0.033590853214263916,
        0.05547317862510681,
        0.11198939383029938,
        0.13068826496601105,
        0.07575152069330215,
        -0.11264864355325699,
        0.05954232066869736,
        -0.010724503546953201,
        0.12461276352405548,
        0.13562703132629395,
        -0.050750069320201874,
        -0.011125036515295506,
        0.07645398378372192,
        0.03947455808520317,
        0.06020526587963104,
        -0.10103729367256165,
        0.06580084562301636,
        0.08225502818822861,
        0.1278153508901596,
        0.035158537328243256,
        0.06292419880628586,
        -0.01892848126590252,
        0.11731822788715363,
        0.061947643756866455,
        0.1078350692987442,
        -0.11793161183595657,
        0.044941142201423645,
        0.1310620903968811,
        -0.002182092983275652,
        -0.08511697500944138,
        -0.05308694392442703,
        -0.10323658585548401,
        -0.06480851024389267,
        0.023257283493876457,
        0.08536811172962189,
        -0.02243330515921116,
        -0.06805585324764252,
        0.0018416200764477253,
        0.050468627363443375,
        -0.06033075973391533,
        0.025183437392115593,
        0.1017405092716217,
        -0.09880968928337097,
        -0.09175170958042145,
        0.12760190665721893,
        -0.0033708950504660606,
        0.08195072412490845,
        0.09145881980657578,
        0.10755329579114914,
        -0.011019249446690083,
        -0.008742397651076317,
        0.03563005477190018,
        0.09112706035375595,
        0.03372815251350403,
        -0.08024759590625763,
        0.08770665526390076,
        0.025387853384017944,
        0.12952736020088196,
        0.05354341119527817,
        0.0024746437557041645,
        0.032116688787937164,
        -0.06323959678411484,
        -0.00023128034081310034,
        0.0630616545677185,
        -0.026342764496803284,
        0.11553826928138733,
        0.08434192836284637,
        0.15247856080532074,
        0.12548516690731049,
        -0.07560959458351135,
        0.02018069475889206,
        -0.061037711799144745
      ],
      [
        0.07194580882787704,
        -0.003938714973628521,
        0.061865463852882385,
        0.011509483680129051,
        -0.15518714487552643,
        -0.1380232572555542,
        -0.03494163975119591,
        -0.15394552052021027,
        -0.13874083757400513,
        -0.1484653353691101,
        0.008918970823287964,
        -0.08564624190330505,
        0.09008917212486267,
        -0.02463355101644993,
        -0.0959697738289833,
        0.04266544058918953,
        -0.0940532460808754,
        -0.15037615597248077,
        -0.0014460727106779814,
        -0.03167092800140381,
        0.002620240906253457,
        -0.12306568026542664,
        -0.038390811532735825,
        -0.09040641039609909,
        0.03388840705156326,
        0.07881302386522293,
        0.08305973559617996,
        -0.10007478296756744,
        -0.11470011621713638,
        -0.12527528405189514,
        0.057820312678813934,
        0.04354699328541756,
        -0.08433462679386139,
        0.007848196662962437,
        -0.004063621163368225,
        -0.04567493125796318,
        -0.06682752072811127,
        -0.02448122389614582,
        -0.009173164144158363,
        -0.13101306557655334,
        -0.100455641746521,
        -0.08466900885105133,
        0.015585923567414284,
        0.040246762335300446,
        -0.12349952757358551,
        0.08558164536952972,
        0.06846269220113754,
        -0.10301012545824051,
        -0.02930533140897751,
        -0.05868915095925331,
        -0.07577379792928696,
        -0.08997831493616104,
        0.058714039623737335,
        -0.12469726800918579,
        -0.055638387799263,
        0.027389734983444214,
        -0.13849246501922607,
        -0.01573058031499386,
        -0.042097169905900955,
        0.03224600851535797,
        0.03641323000192642,
        0.08492827415466309,
        0.057261522859334946,
        0.12477719783782959,
        -0.0540212020277977,
        0.08797924965620041,
        0.034277014434337616,
        -0.0908922627568245,
        0.13150236010551453,
        0.0022132047452032566,
        0.008078362792730331,
        0.024387210607528687
      ],
      [
        -0.1078353226184845,
        -0.054105374962091446,
        -0.014534465037286282,
        -0.14398881793022156,
        0.03674802929162979,
        -0.10991371423006058,
        0.05964761599898338,
        0.05075078457593918,
        -0.09586472809314728,
        0.06696464121341705,
        -0.07634478062391281,
        0.06432468444108963,
        -0.058194659650325775,
        -0.1457011103630066,
        -0.006005872506648302,
        0.05850951746106148,
        -0.05068514496088028,
        -0.13609856367111206,
        -0.002827497199177742,
        -0.06583913415670395,
        -0.097176194190979,
        0.01615338958799839,
        0.021638641133904457,
        -0.1278480887413025,
        -0.080751933157444,
        0.08254586160182953,
        -0.08202742040157318,
        -0.010811178013682365,
        -0.06371591240167618,
        -0.028971480205655098,
        0.015103347599506378,
        -0.0920976847410202,
        -0.1123625710606575,
        -0.023907087743282318,
        -0.03710538148880005,
        -0.14727608859539032,
        -0.08518650382757187,
        -0.035092052072286606,
        -0.08381520211696625,
        -0.12256281822919846,
        0.018517713993787766,
        0.059797998517751694,
        0.04341986030340195,
        -0.0031382800079882145,
        0.04790735989809036,
        0.09177102893590927,
        -0.02146889828145504,
        -0.004349374677985907,
        -0.02976396679878235,
        -0.01738673448562622,
        -0.06018044427037239,
        -0.07945101708173752,
        0.02243472822010517,
        -0.0793895497918129,
        0.085565485060215,
        -0.04997699707746506,
        -0.10621794313192368,
        -0.01167669054120779,
        -0.028463054448366165,
        0.12198460102081299,
        0.0933588519692421,
        -0.08314016461372375,
        -0.03639361262321472,
        0.10056202858686447,
        -0.08671103417873383,
        -0.0641106590628624,
        -0.0168224535882473,
        0.07115963846445084,
        -0.0771588683128357,
        0.1093924269080162,
        0.03125091642141342,
        0.180380180478096
      ],
      [
        0.06650885194540024,
        0.09786421805620193,
        -0.07776590436697006,
        0.09488212317228317,
        -0.071433886885643,
        0.04205739498138428,
        0.003269016044214368,
        -0.1107289269566536,
        0.04008134454488754,
        -0.050586968660354614,
        -0.04569316655397415,
        -0.10286939144134521,
        -0.1021438017487526,
        -0.12799961864948273,
        0.09619612246751785,
        0.016593851149082184,
        -0.0603630356490612,
        0.10366003960371017,
        -0.08517052233219147,
        0.03491191938519478,
        0.05723214149475098,
        -0.12549251317977905,
        -0.028392283245921135,
        0.019303560256958008,
        -0.06272432208061218,
        0.04568285122513771,
        0.0972692221403122,
        -0.09697803854942322,
        0.11238295584917068,
        -0.11365856230258942,
        0.07923054695129395,
        0.020706012845039368,
        -0.13161787390708923,
        -0.1249430701136589,
        0.06158087030053139,
        -0.04057784378528595,
        -0.005037481430917978,
        0.07223407179117203,
        0.08819152414798737,
        0.05013168603181839,
        -0.01998858153820038,
        0.06415323168039322,
        0.0086533697322011,
        0.11115432530641556,
        0.07614381611347198,
        -0.10345501452684402,
        0.0865747407078743,
        -0.007683207280933857,
        -0.03361283615231514,
        0.07851628214120865,
        0.11326178908348083,
        -0.11002879589796066,
        -0.0757722482085228,
        -0.08038843423128128,
        -0.07280149310827255,
        0.1277606040239334,
        0.12487057596445084,
        -0.004435429815202951,
        0.06745487451553345,
        -0.10536453872919083,
        0.015556585043668747,
        0.06484901160001755,
        -0.08815767616033554,
        0.04043331369757652,
        0.059145741164684296,
        0.09519241005182266,
        0.1152322068810463,
        -0.07454492151737213,
        0.007622926030308008,
        0.008587541989982128,
        0.05671378970146179,
        -0.05695443972945213
      ],
      [
        0.10845860093832016,
        -0.015437665395438671,
        -0.003252664115279913,
        0.040992360562086105,
        0.07892440259456635,
        -0.08995259553194046,
        0.09471764415502548,
        -0.018246211111545563,
        0.12291697412729263,
        -0.09771087765693665,
        0.08656401187181473,
        -0.11614340543746948,
        0.05509448051452637,
        0.004336052108556032,
        -0.050214193761348724,
        0.10755117237567902,
        -0.03897736966609955,
        0.03134869039058685,
        -0.039329469203948975,
        -0.008347194641828537,
        -0.06420408934354782,
        -0.10068727284669876,
        0.10422645509243011,
        0.11322778463363647,
        0.03777165710926056,
        0.04332192987203598,
        0.08704135566949844,
        0.07722446322441101,
        0.05218008533120155,
        -0.09187670052051544,
        0.09454547613859177,
        0.06540382653474808,
        -0.010025756433606148,
        0.05623664706945419,
        0.06946538388729095,
        0.00010478563490323722,
        0.08085917681455612,
        -0.029756028205156326,
        0.01870042458176613,
        0.008380540646612644,
        -0.1008162647485733,
        0.07062583416700363,
        0.06748659163713455,
        0.12073363363742828,
        0.04889407753944397,
        0.09697094559669495,
        0.01739889197051525,
        -0.06542318314313889,
        -0.0054697198793292046,
        0.028318725526332855,
        -0.06053943559527397,
        0.12236523628234863,
        0.0974690318107605,
        0.08766963332891464,
        0.03342856839299202,
        0.06318949162960052,
        0.10422716289758682,
        0.07021217793226242,
        0.042304445058107376,
        0.1099119484424591,
        -0.05163394659757614,
        -0.011809169314801693,
        -0.0481957346200943,
        0.05842018499970436,
        0.04387213662266731,
        0.03309062123298645,
        0.14925405383110046,
        0.04736325517296791,
        -0.030607204884290695,
        -0.038005221635103226,
        0.07613775134086609,
        0.10905499756336212
      ],
      [
        -0.019627956673502922,
        0.08073700964450836,
        -0.04914434254169464,
        -0.12496830523014069,
        0.10028897225856781,
        0.0013619338860735297,
        0.049817368388175964,
        0.07380403578281403,
        0.012414664961397648,
        0.04113926365971565,
        -0.06921026855707169,
        0.014456097036600113,
        -0.12875869870185852,
        -0.01686743088066578,
        -0.06083841994404793,
        -0.09824063628911972,
        -0.05197136476635933,
        -0.03923237323760986,
        0.08492448925971985,
        0.09463536739349365,
        -0.0909683033823967,
        0.03554754704236984,
        -0.12475178390741348,
        0.09393051266670227,
        -0.03383868187665939,
        0.0659537985920906,
        0.07026651501655579,
        -0.07983952015638351,
        -0.08556578308343887,
        -0.03882870823144913,
        -0.12152586877346039,
        -0.029735194519162178,
        -0.15421000123023987,
        -0.02472974732518196,
        -0.11854250729084015,
        0.03731120005249977,
        0.01747550070285797,
        -0.09690549224615097,
        -0.034101635217666626,
        -0.05972737446427345,
        -0.13169097900390625,
        -0.11554186791181564,
        0.08186835050582886,
        -0.14115263521671295,
        -0.09343874454498291,
        -0.09193509072065353,
        0.04798169806599617,
        -0.12129221111536026,
        -0.003394803497940302,
        -0.12668070197105408,
        -0.1129566878080368,
        -0.11587076634168625,
        -0.08316818624734879,
        -0.04695434495806694,
        0.046809833496809006,
        -0.0835123136639595,
        0.021070782095193863,
        -0.016586944460868835,
        0.004645326174795628,
        -0.010770306922495365,
        -0.04177448898553848,
        -0.04217599332332611,
        -0.1110408753156662,
        -0.11728085577487946,
        0.12998847663402557,
        0.11222273856401443,
        0.05770210549235344,
        -0.048111435025930405,
        -0.014915687032043934,
        0.13370421528816223,
        -0.03327042981982231,
        -0.004456314258277416
      ],
      [
        -0.06438720971345901,
        0.05041833966970444,
        -0.0740680918097496,
        -0.13863582909107208,
        0.09136705845594406,
        0.0031578775960952044,
        0.06131022423505783,
        0.025557152926921844,
        -0.07839179784059525,
        0.10291119664907455,
        6.35879987385124e-05,
        0.07630205154418945,
        0.0513642244040966,
        0.10576893389225006,
        0.10580584406852722,
        -0.1410837322473526,
        0.07621891051530838,
        -0.1258026361465454,
        0.028885047882795334,
        -0.12315483391284943,
        0.07432521879673004,
        -0.10722468793392181,
        -0.11799052357673645,
        -0.007637948729097843,
        -0.1335587352514267,
        0.07241516560316086,
        -0.04427221044898033,
        0.0947568267583847,
        -0.0024078129790723324,
        0.10952458530664444,
        -0.0261307954788208,
        -0.06468258798122406,
        0.10064723342657089,
        -0.03510218486189842,
        0.02274560183286667,
        -0.042617738246917725,
        -0.08922530710697174,
        0.07181252539157867,
        -0.004145700950175524,
        -0.0933494046330452,
        0.03812536224722862,
        0.005498133134096861,
        -0.032415252178907394,
        -0.04694468528032303,
        0.021192025393247604,
        0.0792294442653656,
        0.0628216415643692,
        -0.13252760469913483,
        -0.11359726637601852,
        -0.09759563207626343,
        -0.02047743834555149,
        -0.0455169752240181,
        -0.01809985749423504,
        -0.09994404017925262,
        0.0937003642320633,
        -0.019416848197579384,
        0.11644858121871948,
        0.11601902544498444,
        0.03669508546590805,
        0.04227834194898605,
        -0.051860012114048004,
        0.11006952077150345,
        -0.13026981055736542,
        -0.10025899112224579,
        0.07541227340698242,
        -0.027608079835772514,
        -0.08663482964038849,
        0.07376540452241898,
        0.08602646738290787,
        -0.031853072345256805,
        0.07091554254293442,
        -0.13436521589756012
      ],
      [
        0.09753791987895966,
        0.12462778389453888,
        -0.06428784132003784,
        -0.07196961343288422,
        -0.051283951848745346,
        0.12670600414276123,
        0.10461610555648804,
        0.1002325639128685,
        -0.09215367585420609,
        -0.030504805967211723,
        -0.12241482734680176,
        -0.008123527280986309,
        -0.09749453514814377,
        0.0425863191485405,
        0.06533795595169067,
        0.11805786192417145,
        0.03261572867631912,
        -0.002049599075689912,
        0.13553601503372192,
        0.07080943137407303,
        0.1298818439245224,
        0.1449243575334549,
        0.06220309063792229,
        -0.07451749593019485,
        -0.009745802730321884,
        -0.05376303195953369,
        -0.02408076636493206,
        -0.010373340919613838,
        -0.10642249137163162,
        -0.09904981404542923,
        -0.03325759992003441,
        -0.038112662732601166,
        0.017755696550011635,
        -0.003956169821321964,
        0.09750135242938995,
        0.06116866692900658,
        0.0705382227897644,
        0.0070962850004434586,
        -0.11981146782636642,
        0.12025178223848343,
        0.0887666866183281,
        0.08216267079114914,
        0.008397919125854969,
        -0.055397383868694305,
        0.08054555952548981,
        0.10295797139406204,
        0.10471042990684509,
        0.09041484445333481,
        0.027128661051392555,
        0.14432720839977264,
        -0.09099164605140686,
        0.13714750111103058,
        0.13375429809093475,
        0.005271360743790865,
        0.1090746521949768,
        0.033033277839422226,
        -0.029012704268097878,
        -0.08472119271755219,
        -0.05953085795044899,
        -0.06794510036706924,
        0.012482094578444958,
        0.14536836743354797,
        0.08665265142917633,
        -0.026203744113445282,
        0.02786405198276043,
        0.009172298014163971,
        0.10559827834367752,
        0.05378853157162666,
        0.13343867659568787,
        -0.01942465640604496,
        0.010642224922776222,
        -0.011684526689350605
      ],
      [
        0.05573391914367676,
        0.1150321364402771,
        -0.022392597049474716,
        -0.04914897680282593,
        0.11540395021438599,
        0.00897202454507351,
        -0.004526304546743631,
        0.039803992956876755,
        0.12642624974250793,
        0.08525695651769638,
        -0.021089307963848114,
        -0.023218393325805664,
        -0.08579305559396744,
        0.10100078582763672,
        -0.09199405461549759,
        0.013758604414761066,
        0.05926544964313507,
        0.12268178910017014,
        0.02466445416212082,
        0.05860612168908119,
        -0.11703241616487503,
        0.014603124000132084,
        0.04023556038737297,
        0.12108153849840164,
        0.13105624914169312,
        -0.029651515185832977,
        0.04755846783518791,
        -0.0046251313760876656,
        0.10804213583469391,
        0.013860469684004784,
        0.048632968217134476,
        0.10079393535852432,
        -0.10822252184152603,
        -0.005920812021940947,
        0.044352348893880844,
        0.059537820518016815,
        -0.059813085943460464,
        0.06746082752943039,
        0.11121682822704315,
        0.10884612798690796,
        -0.06823024898767471,
        -0.0063582900911569595,
        -0.10867182165384293,
        0.13056211173534393,
        0.07615157216787338,
        0.11698117852210999,
        0.1122957319021225,
        -0.019111493602395058,
        0.11865188926458359,
        0.013079744763672352,
        -0.03334391117095947,
        -0.09483513236045837,
        0.051479559391736984,
        -0.10680660605430603,
        0.04750117287039757,
        -0.01835770718753338,
        -0.02917357161641121,
        0.018637072294950485,
        -0.0607604905962944,
        -0.08125799149274826,
        0.11128439009189606,
        0.013061420992016792,
        -0.015766682103276253,
        0.028425762429833412,
        0.11712060868740082,
        0.0016497604083269835,
        -0.03249497339129448,
        0.08540302515029907,
        0.053369373083114624,
        0.09371451288461685,
        0.030400898307561874,
        0.038131583482027054
      ],
      [
        0.07443353533744812,
        -0.09424739331007004,
        -0.03520374372601509,
        -0.002155682537704706,
        -0.12943387031555176,
        -0.07187607884407043,
        0.09147248417139053,
        -0.011681410484015942,
        -0.06571844220161438,
        -0.05406612157821655,
        0.06183229386806488,
        -0.09774220734834671,
        -0.006164491642266512,
        -0.07051065564155579,
        -0.03957602009177208,
        -0.0009303807164542377,
        0.0652095228433609,
        0.041581884026527405,
        -0.08217853307723999,
        0.06588487327098846,
        0.09857703745365143,
        0.08849726617336273,
        -0.022491443902254105,
        -0.013833988457918167,
        -0.0404837429523468,
        -0.06762053817510605,
        -0.08937637507915497,
        0.03479704633355141,
        0.019437603652477264,
        0.05957241356372833,
        -0.09629245847463608,
        -0.1387091428041458,
        -0.09946214407682419,
        -0.02481231465935707,
        -0.06351373344659805,
        0.11242084205150604,
        0.08154544979333878,
        -0.10219774395227432,
        0.06092530116438866,
        -0.07877204567193985,
        0.0011886793654412031,
        -0.05659039318561554,
        -0.0389460064470768,
        -0.04253667593002319,
        -0.10433828085660934,
        0.10135357826948166,
        -0.03497513383626938,
        -0.11529338359832764,
        -0.10853522270917892,
        -0.05753009393811226,
        -0.059092771261930466,
        -0.10118459165096283,
        -0.05817163735628128,
        0.07381713390350342,
        0.053238097578287125,
        0.03136063367128372,
        0.10379344969987869,
        0.0025568536948412657,
        0.00040656395140103996,
        0.04644579067826271,
        0.029063791036605835,
        0.1359935849905014,
        0.055399589240550995,
        0.13019002974033356,
        0.05401589721441269,
        0.10926945507526398,
        0.1449526697397232,
        0.039276521652936935,
        0.134076789021492,
        0.13620704412460327,
        0.020181620493531227,
        -0.05265199393033981
      ],
      [
        -0.0610232837498188,
        -0.048623476177453995,
        -0.11879677325487137,
        -0.06406863778829575,
        -0.11472400277853012,
        0.043651316314935684,
        -0.04808277264237404,
        -0.09211913496255875,
        -0.09123606979846954,
        -0.020515097305178642,
        -0.10734658688306808,
        -0.04965922608971596,
        -0.12418176233768463,
        0.10295049101114273,
        -0.06243297457695007,
        -0.08332593739032745,
        0.03996984660625458,
        -0.060247648507356644,
        0.04231663793325424,
        0.025115372613072395,
        -0.05619245767593384,
        -0.11039593070745468,
        -0.09912233799695969,
        0.011227038688957691,
        -0.10138669610023499,
        -0.0007879624608904123,
        0.11821452528238297,
        0.007493773475289345,
        0.04384390264749527,
        0.004159301985055208,
        -0.10504304617643356,
        -0.08047288656234741,
        -0.06747651100158691,
        -0.06902756541967392,
        -0.006778656039386988,
        0.05596942454576492,
        0.045760378241539,
        -0.11575320363044739,
        0.11260963976383209,
        0.056412339210510254,
        0.08518198877573013,
        0.03286536782979965,
        0.04654389247298241,
        -0.035537172108888626,
        -0.01858990266919136,
        -0.08225161582231522,
        0.09856961667537689,
        -0.05535129830241203,
        0.09813617169857025,
        0.11097370088100433,
        -0.09371248632669449,
        -0.04935694485902786,
        0.05118778720498085,
        -0.04512334614992142,
        -0.024542542174458504,
        -0.047301702201366425,
        0.09587161988019943,
        -0.016208410263061523,
        -0.026731861755251884,
        0.02935688942670822,
        0.008136115036904812,
        0.10865286737680435,
        0.09263595193624496,
        -0.034333135932683945,
        -0.09370796382427216,
        0.03900931775569916,
        0.12048313766717911,
        -0.06846298277378082,
        0.01284786220639944,
        0.002570359967648983,
        0.07505199313163757,
        0.0740818977355957
      ],
      [
        0.07255036383867264,
        -0.05609865486621857,
        0.014416282996535301,
        -0.04809526726603508,
        -0.06078339368104935,
        -0.10197115689516068,
        -0.0019556034822016954,
        0.03707036375999451,
        0.0033081641886383295,
        0.030023498460650444,
        -0.09849735349416733,
        -0.12389479577541351,
        -0.09545332193374634,
        0.00870508886873722,
        -0.09876586496829987,
        -0.030167611315846443,
        0.05479839816689491,
        -0.02773527055978775,
        -0.08407456427812576,
        -0.10488539934158325,
        0.049377020448446274,
        0.06962211430072784,
        -0.006587876006960869,
        -0.07756106555461884,
        -0.011883007362484932,
        -0.06012025848031044,
        -0.0649680346250534,
        -0.08927552402019501,
        -0.03411809727549553,
        0.07380741089582443,
        -0.05661662667989731,
        0.020420892164111137,
        0.11821705847978592,
        0.07490842789411545,
        -0.09234949201345444,
        -0.04375596344470978,
        -0.011485978029668331,
        0.11518299579620361,
        -0.03194814547896385,
        -0.07060782611370087,
        -0.07668198645114899,
        0.04632587730884552,
        0.0590716153383255,
        -0.08727053552865982,
        0.05847578123211861,
        -0.05608254298567772,
        0.09588563442230225,
        0.0005866685532964766,
        0.09501390904188156,
        0.0824817642569542,
        0.006489845924079418,
        -0.0001163401611847803,
        -0.1210772767663002,
        0.07421363145112991,
        0.004823157098144293,
        -0.027499238029122353,
        -0.014845230616629124,
        0.05186944454908371,
        -0.01144715491682291,
        0.052348002791404724,
        0.0572400838136673,
        -0.040055934339761734,
        -0.09031131118535995,
        0.04497697204351425,
        0.10611172020435333,
        -0.04095485806465149,
        -0.06761854141950607,
        0.0995081216096878,
        -0.09872940927743912,
        -0.032841410487890244,
        -0.07182350754737854,
        0.06309860944747925
      ],
      [
        -0.04343138635158539,
        -0.0985955223441124,
        0.12502939999103546,
        -0.009335086680948734,
        0.12866568565368652,
        -0.03600297123193741,
        -0.019593173637986183,
        -0.005923776887357235,
        0.010617329739034176,
        0.050656311213970184,
        0.0906953290104866,
        -0.07908885926008224,
        -0.11561346054077148,
        -0.0973774790763855,
        -0.11867501586675644,
        -0.0254503283649683,
        0.09461136907339096,
        -0.046811945736408234,
        -0.12432766705751419,
        -0.10707420110702515,
        0.08014795184135437,
        0.04472038894891739,
        0.022410564124584198,
        0.07761732488870621,
        0.11741891503334045,
        -0.04988289251923561,
        0.06226416677236557,
        0.0025874304119497538,
        -0.008889113552868366,
        -0.005904365796595812,
        -0.026862163096666336,
        -0.0016055197920650244,
        -0.04722484201192856,
        -0.12277854233980179,
        0.056166838854551315,
        0.051573529839515686,
        0.10482963919639587,
        0.06754723936319351,
        0.07251929491758347,
        0.04793098568916321,
        -0.10482414811849594,
        -0.042616747319698334,
        -0.02283334918320179,
        -0.08137533068656921,
        0.08333731442689896,
        -0.04417596757411957,
        0.10016023367643356,
        0.07002609968185425,
        -0.0405697226524353,
        -0.06701678782701492,
        -0.04508838802576065,
        0.018092559650540352,
        -0.10316722095012665,
        -0.04350050166249275,
        0.07588525116443634,
        -0.07651696354150772,
        0.008476543240249157,
        0.05048448592424393,
        0.018421079963445663,
        -0.04369664192199707,
        -0.029623208567500114,
        -0.012033061124384403,
        -0.08062971383333206,
        -0.09397754073143005,
        -0.05381930619478226,
        -0.023164039477705956,
        0.09246691316366196,
        0.05582493916153908,
        -0.12979339063167572,
        0.06902535259723663,
        0.02233080565929413,
        -0.12497221678495407
      ],
      [
        0.135827898979187,
        -0.030234413221478462,
        -0.028214121237397194,
        -0.10752986371517181,
        0.1108487918972969,
        0.031888075172901154,
        -0.07346272468566895,
        -0.05912213400006294,
        0.03284279257059097,
        -0.08538396656513214,
        0.022467438131570816,
        -0.11457039415836334,
        0.07888886332511902,
        -0.019897138699889183,
        0.08948507159948349,
        -0.01665364019572735,
        -0.06619082391262054,
        0.046911805868148804,
        0.05757681652903557,
        -0.08284091204404831,
        0.04300323501229286,
        -0.1099623516201973,
        0.047774627804756165,
        0.036615289747714996,
        -0.09482140839099884,
        -0.007390712387859821,
        0.1113922968506813,
        -0.0284014493227005,
        -0.018099116161465645,
        0.08376461267471313,
        -0.03775665909051895,
        -0.015037302859127522,
        0.06076272204518318,
        -0.01605401188135147,
        0.014238851144909859,
        0.004099112004041672,
        0.1250452697277069,
        -0.08246766775846481,
        0.06267344206571579,
        -0.05439115688204765,
        0.11905601620674133,
        -0.03800094500184059,
        -0.09795011579990387,
        0.05260416865348816,
        0.11818072944879532,
        0.141831174492836,
        0.13522669672966003,
        -0.017933906987309456,
        -0.09750359505414963,
        0.05477036163210869,
        -0.05419563129544258,
        0.028364036232233047,
        -0.048208724707365036,
        0.05466669797897339,
        0.0371113047003746,
        0.04787648469209671,
        0.03259795904159546,
        0.08910191804170609,
        0.1255129724740982,
        0.018884897232055664,
        0.04156090319156647,
        -0.06288304924964905,
        -0.03894256427884102,
        0.027070825919508934,
        0.07157157361507416,
        0.08644625544548035,
        0.09514501690864563,
        0.15891686081886292,
        0.1039629727602005,
        -0.0668230950832367,
        0.12085895240306854,
        0.06759191304445267
      ],
      [
        -0.07458705455064774,
        0.019811008125543594,
        0.05529871582984924,
        0.12533514201641083,
        -0.10491260141134262,
        -0.11380971223115921,
        -0.012155103497207165,
        -0.11564722657203674,
        0.03801890090107918,
        -0.04376039281487465,
        0.05584099143743515,
        0.08357717096805573,
        0.11570464819669724,
        -0.013398702256381512,
        0.013237831182777882,
        0.033195775002241135,
        -0.0735955759882927,
        -0.0064024957828223705,
        0.08204184472560883,
        0.09323111176490784,
        0.0954015776515007,
        -0.04859370365738869,
        0.07138791680335999,
        0.020292392000555992,
        0.09146000444889069,
        0.0924965888261795,
        -0.055128250271081924,
        -0.07875777781009674,
        -0.10121629387140274,
        -0.07377424091100693,
        -0.0190667062997818,
        0.0358651727437973,
        0.04597872868180275,
        -0.0034219343215227127,
        0.06674078851938248,
        -0.11155172437429428,
        0.03186774253845215,
        -0.08615881204605103,
        0.03950278460979462,
        -0.11816632747650146,
        -0.04991120472550392,
        -0.0265043955296278,
        0.10063282400369644,
        -0.02192765474319458,
        -0.018624020740389824,
        0.01839098148047924,
        -0.07667981088161469,
        -0.05016588419675827,
        -0.06562487781047821,
        -0.10093872249126434,
        0.07863234728574753,
        -0.07278940826654434,
        -0.026347780600190163,
        0.006682878360152245,
        -0.013287406414747238,
        0.046632129698991776,
        0.1153508797287941,
        0.02943788468837738,
        -0.005606118123978376,
        -0.011846884153783321,
        -0.007165754213929176,
        0.023091401904821396,
        -0.09623737633228302,
        0.13053810596466064,
        0.12399587035179138,
        0.13601870834827423,
        0.09576229006052017,
        -0.08510179817676544,
        0.13675503432750702,
        0.0707506537437439,
        0.11613711714744568,
        0.09449310600757599
      ],
      [
        -0.039054855704307556,
        -0.12258437275886536,
        0.06196622923016548,
        -0.003928021527826786,
        0.06428498774766922,
        0.06399620324373245,
        -0.09520898014307022,
        0.025859231129288673,
        0.04251560941338539,
        -0.001366100856103003,
        -0.14052343368530273,
        -0.10602348297834396,
        0.05978214740753174,
        -0.05748007073998451,
        -0.11435472965240479,
        0.03868912160396576,
        0.09537892043590546,
        0.032269857823848724,
        0.03427237644791603,
        -0.11134646087884903,
        -0.04735824465751648,
        0.08782453835010529,
        -0.05432051047682762,
        -0.14258453249931335,
        -0.07141423225402832,
        0.0509202741086483,
        0.050992291420698166,
        -0.14444959163665771,
        0.050775256007909775,
        -0.08377280086278915,
        0.026792652904987335,
        0.01050497405230999,
        -0.035315923392772675,
        0.09759917855262756,
        0.03876280412077904,
        -0.04413855820894241,
        0.10602737218141556,
        0.018445661291480064,
        -0.02201268821954727,
        -0.03937007486820221,
        0.0019226177828386426,
        0.06338664889335632,
        0.02400994300842285,
        -0.023283595219254494,
        -0.004728955682367086,
        0.06654523313045502,
        0.06571213901042938,
        -0.03783722594380379,
        -0.07429308444261551,
        0.10425650328397751,
        -0.11442356556653976,
        -0.14742465317249298,
        -0.10773734748363495,
        0.08758389204740524,
        -0.036926381289958954,
        -0.05762995779514313,
        -0.13898897171020508,
        0.004862676374614239,
        -0.07165505737066269,
        0.04452155902981758,
        -0.12414546310901642,
        -0.03805426508188248,
        -0.07705915719270706,
        -0.12437336891889572,
        0.08928514271974564,
        -0.041379496455192566,
        0.1015254408121109,
        -0.059785835444927216,
        -0.1271447241306305,
        -0.08705564588308334,
        -0.029065603390336037,
        0.024665147066116333
      ],
      [
        -0.07581336051225662,
        -0.06722903251647949,
        -0.07383642345666885,
        -0.12996123731136322,
        -0.054461874067783356,
        -0.006890144664794207,
        -0.0728309378027916,
        0.011844048276543617,
        -0.1414247751235962,
        -0.1301058828830719,
        -0.13147133588790894,
        -0.126380056142807,
        0.07379420101642609,
        -0.05674651265144348,
        -0.10592732578516006,
        -0.07624371349811554,
        -0.14086416363716125,
        0.06559990346431732,
        -0.13240334391593933,
        0.07301487028598785,
        -0.00716557539999485,
        -0.10994912683963776,
        -0.07397902011871338,
        0.0484643429517746,
        -0.1162896379828453,
        -0.040500838309526443,
        -0.10518039017915726,
        0.018696779385209084,
        0.10017460584640503,
        -0.06949358433485031,
        -0.064774289727211,
        -0.10146325826644897,
        0.06490600854158401,
        -0.03742286190390587,
        -0.12104237079620361,
        -0.13434182107448578,
        -0.14431440830230713,
        0.09070279449224472,
        -0.013277308084070683,
        -0.10791930556297302,
        -0.040537621825933456,
        -0.01809140481054783,
        0.04142679646611214,
        0.023404493927955627,
        0.02601424604654312,
        0.06527435779571533,
        0.09693202376365662,
        -0.10984709858894348,
        0.09334871917963028,
        -0.06888986378908157,
        -0.004937727935612202,
        0.046310730278491974,
        0.12145974487066269,
        -0.0933394730091095,
        0.0003083163464907557,
        0.054154422134160995,
        -0.05803534761071205,
        -0.03619376942515373,
        -0.010644757188856602,
        0.029316173866391182,
        0.06176475062966347,
        -0.07139066606760025,
        0.02410130761563778,
        0.1587023138999939,
        0.17346073687076569,
        -0.032702818512916565,
        -0.0470251701772213,
        0.031405337154865265,
        0.02291935868561268,
        0.02840661257505417,
        0.15139594674110413,
        0.005614044144749641
      ],
      [
        0.004592218901962042,
        -0.07362917810678482,
        -0.0684751570224762,
        -0.022392230108380318,
        0.022231046110391617,
        0.13090215623378754,
        -0.09862752258777618,
        0.020024750381708145,
        0.007713734172284603,
        0.08151168376207352,
        -0.006544407457113266,
        0.04206309840083122,
        0.10324685275554657,
        0.08406058698892593,
        -0.07351090013980865,
        0.07300587743520737,
        0.12515603005886078,
        -0.05689460039138794,
        0.1276722252368927,
        0.13926003873348236,
        0.0056050983257591724,
        0.10878073424100876,
        0.01079567614942789,
        0.0009460968431085348,
        -0.03489276021718979,
        0.12277571856975555,
        0.029747162014245987,
        0.06381909549236298,
        0.09718598425388336,
        -0.07750777155160904,
        -0.04130105674266815,
        0.10086650401353836,
        -0.03262105956673622,
        -0.020038150250911713,
        -0.01268985029309988,
        0.020365260541439056,
        0.014647371135652065,
        -0.10344703495502472,
        0.054886799305677414,
        0.1276502013206482,
        0.09011843055486679,
        -0.01623765379190445,
        -0.027523092925548553,
        0.050112076103687286,
        -0.04168235510587692,
        -0.08667538315057755,
        0.12420393526554108,
        0.03487764298915863,
        -0.008206660859286785,
        0.08354803174734116,
        -0.07718643546104431,
        0.05650783330202103,
        -0.04912281408905983,
        -0.05389079824090004,
        -0.058807775378227234,
        0.09522079676389694,
        0.0988948717713356,
        -0.024416716769337654,
        0.09956476837396622,
        0.1013539582490921,
        0.01444370485842228,
        0.12708565592765808,
        0.09397272765636444,
        0.008725063875317574,
        -0.04002498835325241,
        0.028817275539040565,
        -0.05089935287833214,
        -0.03828347846865654,
        -0.001475771190598607,
        0.018925052136182785,
        0.08702550828456879,
        0.18369130790233612
      ],
      [
        0.029303913936018944,
        -0.00784241408109665,
        -0.08968760818243027,
        -0.08767801523208618,
        -0.07804033160209656,
        0.0032307307701557875,
        -0.13471479713916779,
        -0.13649559020996094,
        0.0849701389670372,
        0.06749050319194794,
        0.09808606654405594,
        -0.12959825992584229,
        -0.118857242166996,
        0.024745792150497437,
        -0.10677406936883926,
        0.030425570905208588,
        0.04436907172203064,
        -0.10339028388261795,
        -0.011325370520353317,
        -0.03738604113459587,
        -0.04496012628078461,
        -0.129710853099823,
        -0.06684944778680801,
        -0.024697113782167435,
        0.09635845571756363,
        0.0227840393781662,
        0.11157471686601639,
        -0.05291290581226349,
        -0.09856302291154861,
        0.0718424916267395,
        -0.004716206807643175,
        -0.003595160786062479,
        -0.006233076564967632,
        0.022694969549775124,
        0.09659337997436523,
        0.07646302878856659,
        -0.07278893887996674,
        -0.07545741647481918,
        -0.10088133811950684,
        0.03776950761675835,
        0.10615224391222,
        0.11779391765594482,
        -0.07347384840250015,
        -0.07095788419246674,
        -0.03579414263367653,
        -0.12325841188430786,
        -0.08245125412940979,
        -0.007851919159293175,
        0.05801178142428398,
        0.08677283674478531,
        0.1152658686041832,
        -0.1040140688419342,
        0.05450154095888138,
        -0.07795500010251999,
        -0.03309330716729164,
        -0.06924302130937576,
        0.05435317009687424,
        0.025180015712976456,
        0.07034072279930115,
        0.010546316392719746,
        -0.09494519233703613,
        0.03743975982069969,
        0.014871640130877495,
        0.0357433557510376,
        0.048203811049461365,
        -0.010715723037719727,
        -0.045693062245845795,
        0.08899345248937607,
        0.015857072547078133,
        -0.008317445404827595,
        0.17649587988853455,
        0.17160353064537048
      ],
      [
        0.044550683349370956,
        0.13766315579414368,
        0.1021890714764595,
        0.07249830663204193,
        0.14036326110363007,
        -0.05110322684049606,
        -0.03213508799672127,
        0.025591883808374405,
        0.09279386699199677,
        0.0903734341263771,
        -0.05978905409574509,
        0.0034980513155460358,
        0.06533462554216385,
        -0.09689711034297943,
        0.08703108131885529,
        0.0806557685136795,
        0.027079997584223747,
        0.09212532639503479,
        0.10388125479221344,
        0.12454017251729965,
        0.04531554505228996,
        -0.0889844000339508,
        0.12679041922092438,
        -0.03438947722315788,
        -0.1008889228105545,
        -0.014569261111319065,
        0.06366454809904099,
        -0.0361655093729496,
        0.05393774434924126,
        -0.01706816256046295,
        0.13960085809230804,
        0.04196114465594292,
        -0.07035484910011292,
        -0.1034056544303894,
        0.07627224922180176,
        0.026213524863123894,
        -0.09994484484195709,
        0.06188588961958885,
        0.07134168595075607,
        0.09742224961519241,
        0.0643593817949295,
        0.011983673088252544,
        -0.08049659430980682,
        -0.10870245844125748,
        0.06844882667064667,
        0.06274650990962982,
        0.1007862538099289,
        0.01825997792184353,
        0.07087188214063644,
        -0.07691975682973862,
        -0.07704009860754013,
        0.12941648066043854,
        -0.06480339169502258,
        0.047931089997291565,
        0.09922528266906738,
        0.015775293111801147,
        0.11239030212163925,
        0.1279408484697342,
        -0.08289026468992233,
        -0.07681751996278763,
        -0.007617387920618057,
        -0.07551021128892899,
        -0.05827956274151802,
        -0.09593082219362259,
        0.0651201531291008,
        -0.08493523299694061,
        -0.00025646883295848966,
        0.14947755634784698,
        0.08860766142606735,
        0.004096677526831627,
        -0.016514111310243607,
        -0.041356977075338364
      ],
      [
        -0.10259471088647842,
        0.004124943166971207,
        -0.030291913077235222,
        0.13008207082748413,
        0.008712757378816605,
        -0.031564466655254364,
        -0.09633681178092957,
        -0.05065307766199112,
        -0.006596727296710014,
        -0.08085428178310394,
        -0.08054286986589432,
        -0.04035438224673271,
        0.0069487025029957294,
        0.07687679678201675,
        -0.05010500177741051,
        0.025452442467212677,
        0.07088303565979004,
        0.060161616653203964,
        0.10419213026762009,
        0.1033882424235344,
        -0.1014844998717308,
        0.11573571711778641,
        0.07701630890369415,
        0.09005212783813477,
        -0.048266809433698654,
        0.11343280971050262,
        -0.055518988519907,
        -0.05638770014047623,
        0.05667518824338913,
        0.06299945712089539,
        0.10899020731449127,
        -0.006882543209940195,
        -0.07310613989830017,
        -0.05864456668496132,
        0.058349255472421646,
        0.07538297027349472,
        -0.10530727356672287,
        0.007220571395009756,
        -0.11683124303817749,
        -0.025641372427344322,
        0.07690169662237167,
        -0.07773297280073166,
        -0.08706679940223694,
        0.05871526524424553,
        -0.044946227222681046,
        0.014203887432813644,
        0.07110430300235748,
        0.12496781349182129,
        -0.09296668320894241,
        0.0323578417301178,
        0.054097309708595276,
        -0.03325996547937393,
        0.014078017324209213,
        0.05638216435909271,
        0.0003618466143961996,
        0.12115804105997086,
        -0.02294936776161194,
        -0.010750066488981247,
        0.13718034327030182,
        0.06828788667917252,
        -0.003608628874644637,
        -0.1133829802274704,
        0.047409042716026306,
        0.0710829570889473,
        0.1059340089559555,
        -0.03534124046564102,
        -0.07136117666959763,
        0.13045629858970642,
        -0.07365775108337402,
        -0.03186599537730217,
        -0.06606143712997437,
        0.012967102229595184
      ],
      [
        -0.07907207310199738,
        0.07806344330310822,
        -0.019365398213267326,
        0.1382530927658081,
        -0.007658872753381729,
        0.022719470784068108,
        0.024911807850003242,
        -0.10360044986009598,
        -0.030883733183145523,
        0.004232222214341164,
        0.08667919039726257,
        -0.019819041714072227,
        -0.011181598529219627,
        -0.08189517259597778,
        -0.021269584074616432,
        -0.03003406710922718,
        -0.09147314727306366,
        0.07870448380708694,
        -0.10349173098802567,
        -0.05869678035378456,
        0.11746677756309509,
        -0.06045889854431152,
        0.09181158244609833,
        0.05601143091917038,
        0.061060432344675064,
        -0.11815287172794342,
        -0.058114193379879,
        -0.015197482891380787,
        -0.10431104898452759,
        0.09768202900886536,
        0.04851638525724411,
        -0.02318122610449791,
        0.0062323566526174545,
        -0.059659138321876526,
        -0.028163619339466095,
        0.047687895596027374,
        0.08444708585739136,
        -0.11753144860267639,
        -0.0018855668604373932,
        0.06395813077688217,
        0.0652080699801445,
        -0.11464902013540268,
        0.05250592529773712,
        0.09774595499038696,
        -0.06491342186927795,
        -0.010480973869562149,
        -0.01653331331908703,
        0.05442904308438301,
        -0.10391044616699219,
        -0.11023862659931183,
        0.03563125804066658,
        0.10866963863372803,
        -0.012515748851001263,
        0.08984158933162689,
        0.015523526817560196,
        0.06351176649332047,
        0.05811525881290436,
        0.07425707578659058,
        0.0618949718773365,
        0.10968359559774399,
        -0.08280269801616669,
        -0.06912723183631897,
        -0.015070502646267414,
        0.01226417999714613,
        0.055063340812921524,
        0.03928579390048981,
        -0.08877836912870407,
        -0.05356293171644211,
        0.08528164774179459,
        0.004423173610121012,
        0.1328163594007492,
        0.09788606315851212
      ],
      [
        -0.101693294942379,
        0.08943033963441849,
        0.01262726355344057,
        0.05000573769211769,
        -0.04750552400946617,
        0.08439026772975922,
        0.12084557861089706,
        -0.09510526806116104,
        -0.08434747904539108,
        -0.10064525902271271,
        0.10039576888084412,
        -0.016579855233430862,
        0.024547765031456947,
        0.11528487503528595,
        -0.014894766733050346,
        0.05741295963525772,
        0.031915485858917236,
        0.022860843688249588,
        -0.08227475732564926,
        0.012063233181834221,
        -0.09238241612911224,
        -0.07292947918176651,
        -0.09673408418893814,
        0.11243071407079697,
        -0.09639471024274826,
        -0.017618287354707718,
        -0.12145145237445831,
        -0.1028323620557785,
        -0.027723778039216995,
        0.11919134855270386,
        0.11499927192926407,
        0.05322341248393059,
        0.01794123649597168,
        0.061260875314474106,
        -0.011336457915604115,
        -0.010410028509795666,
        0.01827523484826088,
        0.0028648304287344217,
        0.07677169144153595,
        -0.1034609004855156,
        -0.010212426073849201,
        0.06354027986526489,
        0.13569419085979462,
        0.10082807391881943,
        -0.10260991007089615,
        -0.08351819962263107,
        0.10737356543540955,
        -0.06602080166339874,
        0.08633145689964294,
        -0.12007612735033035,
        0.0009553739218972623,
        0.04941503703594208,
        0.07849554717540741,
        0.012254104018211365,
        -0.04608065262436867,
        0.09153717011213303,
        -0.05351976305246353,
        0.10736073553562164,
        0.11382883042097092,
        0.12661930918693542,
        0.14319567382335663,
        0.04332045465707779,
        0.040941450744867325,
        0.1624234914779663,
        0.14735573530197144,
        0.04488075152039528,
        0.1567685455083847,
        0.03139172121882439,
        0.07538790255784988,
        -0.011848346330225468,
        0.0973794087767601,
        -0.05252695083618164
      ],
      [
        0.017381291836500168,
        -0.11622824519872665,
        -0.01420550886541605,
        0.1335357427597046,
        -0.022356586530804634,
        0.05539640039205551,
        0.12357717007398605,
        -0.09416020661592484,
        -0.01833217218518257,
        0.0055284081026911736,
        -0.07029115408658981,
        0.024076448753476143,
        -0.06303940713405609,
        0.09402080625295639,
        -0.027928000316023827,
        0.05293526127934456,
        0.02621850185096264,
        -0.05541743338108063,
        -0.09788405895233154,
        -0.03569645807147026,
        -0.027047356590628624,
        -0.06256193667650223,
        0.06822817027568817,
        0.003852095687761903,
        -0.1038157269358635,
        -0.021195627748966217,
        -0.05580814182758331,
        0.06394928693771362,
        0.10084003955125809,
        -0.09465523064136505,
        0.056402113288640976,
        0.10663967579603195,
        0.08067852258682251,
        0.019463982433080673,
        0.023041997104883194,
        0.1326455920934677,
        -0.07868772745132446,
        0.06815647333860397,
        -0.10758084058761597,
        -0.10047510266304016,
        0.06296538561582565,
        -0.08616845309734344,
        -0.06195148080587387,
        0.07964607328176498,
        0.006638485938310623,
        -0.04179621860384941,
        0.02722860313951969,
        0.030409028753638268,
        0.0164331141859293,
        0.04700756072998047,
        0.013942264020442963,
        -0.09604092687368393,
        -0.07769829034805298,
        0.1315300613641739,
        -0.02679826132953167,
        -0.039316028356552124,
        0.08634242415428162,
        0.008756830357015133,
        0.011701332405209541,
        0.023727744817733765,
        0.15271058678627014,
        -0.034317754209041595,
        0.05107014998793602,
        0.029391925781965256,
        0.11249791085720062,
        -0.02221161499619484,
        0.15004926919937134,
        0.06261317431926727,
        -0.028238624334335327,
        -0.003694019513204694,
        0.01911727897822857,
        0.15154610574245453
      ],
      [
        -0.10411643236875534,
        0.021943656727671623,
        0.004910192918032408,
        -0.11643568426370621,
        0.06897863745689392,
        -0.05802762135863304,
        -0.028747553005814552,
        -0.1067708358168602,
        0.09203063696622849,
        0.05682256072759628,
        0.06056249886751175,
        -0.02233293280005455,
        -0.0660024955868721,
        -0.019563741981983185,
        0.09786160290241241,
        -0.04576027765870094,
        0.013041401281952858,
        0.09318302571773529,
        -0.1166287437081337,
        0.025620365515351295,
        -0.06663054972887039,
        -0.06333567202091217,
        0.101163350045681,
        0.03444414585828781,
        0.024245668202638626,
        -0.11699505895376205,
        0.10415221005678177,
        -0.018060993403196335,
        -0.02360830269753933,
        0.011890999041497707,
        -0.09407489001750946,
        0.0797671377658844,
        0.06881751120090485,
        -0.013486573472619057,
        0.08374849706888199,
        0.002042297972366214,
        -0.05371827632188797,
        -0.10639198124408722,
        -0.11478784680366516,
        0.055690422654151917,
        0.07200651615858078,
        -0.09046205878257751,
        -0.052896492183208466,
        0.022365432232618332,
        -0.09703041613101959,
        0.009999255649745464,
        0.012296994216740131,
        0.08209814876317978,
        0.09815995395183563,
        -0.07872775197029114,
        0.03005497343838215,
        0.09407930821180344,
        -0.0901244506239891,
        -0.06557253748178482,
        -0.133062943816185,
        0.08655431866645813,
        -0.12964965403079987,
        0.0710243359208107,
        -0.11956806480884552,
        0.044507358223199844,
        0.014174235984683037,
        -0.016066312789916992,
        0.04803932458162308,
        -0.05152624100446701,
        -0.07606929540634155,
        0.10422246158123016,
        -0.03427351638674736,
        -0.05098970979452133,
        -0.1284993439912796,
        -0.0626816600561142,
        0.0834321677684784,
        -0.0815921202301979
      ],
      [
        0.08612211793661118,
        0.016269588842988014,
        -0.04734893515706062,
        0.0209750235080719,
        0.12295137345790863,
        0.07440439611673355,
        0.12562662363052368,
        0.0011535178637132049,
        -0.07918225973844528,
        0.07617328315973282,
        -0.07584230601787567,
        -0.0015136178117245436,
        -0.012534676119685173,
        0.13352909684181213,
        0.030333369970321655,
        -0.08772023022174835,
        0.05704003944993019,
        -0.012210488319396973,
        -0.007349682971835136,
        -0.0456680953502655,
        -0.10159716755151749,
        0.08817768096923828,
        -0.008564768359065056,
        0.04240605980157852,
        0.1367177665233612,
        0.03363381698727608,
        0.11289291828870773,
        -0.019607149064540863,
        -0.05168342962861061,
        0.08131233602762222,
        -0.02961920201778412,
        -0.02897494100034237,
        0.11369458585977554,
        -0.017652049660682678,
        0.06216347590088844,
        0.00580234220251441,
        0.07161355763673782,
        -0.038608673959970474,
        -0.09350273013114929,
        -0.020329782739281654,
        0.1259317398071289,
        -0.03266752138733864,
        -0.011019695550203323,
        0.10757524520158768,
        0.10886025428771973,
        -0.06101752445101738,
        0.08852091431617737,
        -0.0833870992064476,
        0.1048118993639946,
        0.11143945902585983,
        0.010892006568610668,
        0.04148697853088379,
        -0.07712607085704803,
        0.09515383839607239,
        0.01959117501974106,
        0.07659509778022766,
        0.04734311252832413,
        0.0807294175028801,
        -0.010060876607894897,
        -0.023025725036859512,
        -0.0054449900053441525,
        0.06511294841766357,
        0.13709715008735657,
        -0.07480346411466599,
        0.05978826433420181,
        0.0544670969247818,
        0.12152844667434692,
        0.025954268872737885,
        0.12045346945524216,
        0.13900944590568542,
        -0.018461771309375763,
        0.026094790548086166
      ],
      [
        0.14722439646720886,
        0.05252503976225853,
        0.01959972083568573,
        -0.06539962440729141,
        -0.008600193075835705,
        -0.07247006893157959,
        0.05680593475699425,
        -0.07776995748281479,
        0.10312230885028839,
        0.13602900505065918,
        -0.07816489040851593,
        0.04367906600236893,
        -0.09210198372602463,
        0.03371851146221161,
        -0.02498510666191578,
        0.05583939328789711,
        0.06295810639858246,
        0.07758481055498123,
        0.0642751157283783,
        -0.05201079323887825,
        0.10217617452144623,
        0.12760978937149048,
        -0.06984541565179825,
        -0.04655950888991356,
        0.04588940739631653,
        0.004787515848875046,
        0.14305655658245087,
        0.12129431217908859,
        -0.09856642037630081,
        0.001238039112649858,
        0.12581022083759308,
        0.12238183617591858,
        -0.055787913501262665,
        -0.042878780514001846,
        0.07634178549051285,
        0.09421571344137192,
        0.12024195492267609,
        0.003382222494110465,
        0.07232791185379028,
        -0.042332250624895096,
        -0.1061447486281395,
        0.1227094829082489,
        0.032695919275283813,
        0.12175818532705307,
        0.04688034579157829,
        0.03674691170454025,
        -0.0466252826154232,
        -0.015816474333405495,
        0.14197178184986115,
        0.06676474958658218,
        -0.047561559826135635,
        -0.02119171991944313,
        -0.026549937203526497,
        -0.035474587231874466,
        0.006606267765164375,
        0.0993134155869484,
        0.07030618190765381,
        0.14560827612876892,
        0.09482792764902115,
        0.12469618022441864,
        0.13091042637825012,
        -0.08207228034734726,
        -0.05959172174334526,
        0.04785137623548508,
        0.14633184671401978,
        0.07647736370563507,
        0.014090402983129025,
        -0.016482243314385414,
        0.14073599874973297,
        0.10026507824659348,
        -0.056600410491228104,
        -0.009120138362050056
      ],
      [
        -0.1193593218922615,
        -0.02844703383743763,
        0.0324641577899456,
        0.0015723076649010181,
        0.1203172579407692,
        0.10509798675775528,
        0.030291132628917694,
        0.08089645206928253,
        0.000558316009119153,
        -0.07232240587472916,
        -0.06305687874555588,
        -0.1314832866191864,
        0.03937214985489845,
        -0.04723230004310608,
        -0.07162110507488251,
        -0.1268276572227478,
        0.07711204886436462,
        0.04365390166640282,
        -0.023558426648378372,
        -0.08975790441036224,
        0.04377419874072075,
        0.048186298459768295,
        -0.07643075287342072,
        -0.12050506472587585,
        0.07469717413187027,
        0.0941881388425827,
        -0.02176128700375557,
        -0.08506166934967041,
        -0.048196807503700256,
        0.11617519706487656,
        -0.02456275373697281,
        -0.08841528743505478,
        0.11531069129705429,
        -0.041826508939266205,
        0.04836397245526314,
        0.029855877161026,
        0.08975522220134735,
        -0.1148834079504013,
        0.08501765877008438,
        0.007865296676754951,
        0.03304639831185341,
        -0.09100496023893356,
        -0.03227454796433449,
        -0.11046670377254486,
        0.09017425030469894,
        0.12167583405971527,
        0.0323396697640419,
        -0.04946212098002434,
        0.03944897651672363,
        -0.04693468660116196,
        -0.10416620969772339,
        -0.08684941381216049,
        -0.06541584432125092,
        0.082516610622406,
        0.09286074340343475,
        0.07378251105546951,
        -0.008424824103713036,
        -0.09176290035247803,
        0.06802963465452194,
        -0.03227420151233673,
        -0.11594089865684509,
        -0.09198559075593948,
        -0.03370700404047966,
        -0.04749376326799393,
        -0.01438166480511427,
        -0.007905833423137665,
        0.01373613066971302,
        -0.008476353250443935,
        -0.019001590088009834,
        0.12094152718782425,
        -0.006994904018938541,
        0.072127565741539
      ],
      [
        -0.02135017141699791,
        0.09850861877202988,
        -0.027019821107387543,
        0.03170745447278023,
        0.03700196370482445,
        -0.09326782077550888,
        -0.10358870774507523,
        -0.1590353101491928,
        0.02515624277293682,
        -0.06355905532836914,
        -0.03562647104263306,
        0.06097375974059105,
        -0.08984480798244476,
        -0.05076777562499046,
        -0.007613907102495432,
        0.0833113044500351,
        0.03889116644859314,
        0.08148423582315445,
        -0.11037800461053848,
        -0.04873950406908989,
        -0.08589725941419601,
        -0.04485728591680527,
        0.026363974437117577,
        -0.06316070258617401,
        -0.09055092185735703,
        -0.08834008127450943,
        0.07812021672725677,
        -0.1344267874956131,
        -0.012780794873833656,
        -0.01329738087952137,
        0.07948815077543259,
        -0.08622239530086517,
        0.01402207650244236,
        0.002513702493160963,
        0.01883310079574585,
        -0.1152186319231987,
        0.09573126584291458,
        0.007398154586553574,
        -0.027654979377985,
        -0.052057020366191864,
        -0.11157100647687912,
        0.0027037309482693672,
        -0.0813816711306572,
        0.054019466042518616,
        -0.02292798087000847,
        0.006743077654391527,
        -0.116106778383255,
        0.03924797102808952,
        0.07926999032497406,
        0.05015650391578674,
        -0.10764791071414948,
        -0.013723782263696194,
        -0.06666450947523117,
        0.028033863753080368,
        0.01772472821176052,
        -0.08463095873594284,
        -0.02546442113816738,
        0.09659932553768158,
        -0.05372024327516556,
        -0.02997743710875511,
        0.06153108924627304,
        -0.002804463729262352,
        -0.04843778908252716,
        -0.047826386988162994,
        0.10899238288402557,
        -0.06849584728479385,
        0.06319256126880646,
        -0.039471156895160675,
        -0.02927948534488678,
        -0.01465819962322712,
        0.07398562133312225,
        -0.009402637369930744
      ],
      [
        -0.029863597825169563,
        0.0993223488330841,
        -0.06715431064367294,
        0.14053866267204285,
        0.12683555483818054,
        -0.04626946151256561,
        0.10998772829771042,
        -0.014646973460912704,
        -0.03453460708260536,
        0.03724167123436928,
        0.02037384919822216,
        -0.03762749582529068,
        0.10106296092271805,
        0.1159360483288765,
        0.06729869544506073,
        0.10959390550851822,
        0.0722082257270813,
        0.00895343255251646,
        -0.05946118012070656,
        0.07903782278299332,
        0.10330350697040558,
        -0.029947621747851372,
        0.12266961485147476,
        -0.06454058736562729,
        -0.08757518976926804,
        0.005674207117408514,
        0.06334977596998215,
        -0.0905243307352066,
        -0.0006223560776561499,
        0.1320653110742569,
        0.06656022369861603,
        -0.0672760084271431,
        0.14209261536598206,
        0.03642287477850914,
        -0.026276888325810432,
        -0.06457167863845825,
        0.03845932334661484,
        -0.09083764255046844,
        0.04083280637860298,
        0.034631624817848206,
        -0.10104548186063766,
        0.03031989559531212,
        0.09746227413415909,
        -0.025728804990649223,
        0.11460237205028534,
        -0.08771191537380219,
        -0.005604943726211786,
        0.0848703682422638,
        -0.025229383260011673,
        -0.041874147951602936,
        0.043382734060287476,
        -0.03482157737016678,
        -0.06252916902303696,
        0.013195776380598545,
        -0.0760783776640892,
        0.04311322048306465,
        -0.005646278616040945,
        -0.08895676583051682,
        0.09083522856235504,
        0.05008535459637642,
        0.06281855702400208,
        0.13132919371128082,
        -0.08470452576875687,
        0.08956364542245865,
        -0.014490240253508091,
        0.003337837988510728,
        -0.06928534060716629,
        0.08588401973247528,
        -0.01768561266362667,
        0.016424264758825302,
        0.022794704884290695,
        0.17183741927146912
      ],
      [
        0.10997765511274338,
        0.09080560505390167,
        0.04791591316461563,
        0.0902065634727478,
        -0.029231538996100426,
        0.08339952677488327,
        0.010211724787950516,
        0.03483130410313606,
        -0.12271750718355179,
        -0.1080591082572937,
        0.112389475107193,
        -0.1259319931268692,
        -0.014293018728494644,
        0.12160991877317429,
        -0.11307644844055176,
        -0.05159303918480873,
        -0.12254220992326736,
        -0.04770173132419586,
        -0.09537240117788315,
        -0.0438946969807148,
        -0.10256453603506088,
        0.042726173996925354,
        -0.00919562391936779,
        0.048957254737615585,
        0.04846134036779404,
        -0.005445253569632769,
        0.05470191687345505,
        -0.055138830095529556,
        0.005616816692054272,
        0.0629483088850975,
        0.11182805895805359,
        0.08458488434553146,
        0.10631272196769714,
        -0.08461903035640717,
        -0.04798346385359764,
        0.0023262551985681057,
        -0.07567320764064789,
        0.0822034478187561,
        -0.08285930752754211,
        0.05449223518371582,
        0.11899834871292114,
        -0.010823242366313934,
        -0.012762362137436867,
        0.02516232430934906,
        -0.020995326340198517,
        0.011996218003332615,
        -0.11785595864057541,
        -0.08273719996213913,
        -0.01778952218592167,
        0.03943152353167534,
        0.10799399763345718,
        -0.11082755029201508,
        -0.01763424091041088,
        -0.11181392520666122,
        0.01691080629825592,
        0.03586515784263611,
        0.05102570354938507,
        0.05566989257931709,
        -0.06900012493133545,
        -0.0019944501109421253,
        -0.027025923132896423,
        0.10024917125701904,
        -0.052803199738264084,
        0.043581798672676086,
        0.06884221732616425,
        0.02178710512816906,
        0.10026852041482925,
        0.0669846311211586,
        -0.07081308215856552,
        -0.0840848982334137,
        -0.07259517908096313,
        0.054822951555252075
      ],
      [
        -0.03021002560853958,
        -0.08063936978578568,
        -0.04307330399751663,
        0.04934034124016762,
        -0.11050771921873093,
        -0.04747682809829712,
        -0.06814231723546982,
        0.05791160836815834,
        0.08886310458183289,
        0.07528581470251083,
        0.008658235892653465,
        -0.07612185180187225,
        0.05921436473727226,
        -0.058838557451963425,
        -0.023001259192824364,
        -0.11333176493644714,
        0.09188081324100494,
        0.10482101142406464,
        0.02865610271692276,
        -0.10335089266300201,
        0.04217534139752388,
        -0.059798188507556915,
        0.039432067424058914,
        -0.13495349884033203,
        0.0951656848192215,
        -0.0005881981924176216,
        -0.08622175455093384,
        -0.009613481350243092,
        -0.085381880402565,
        -0.12507249414920807,
        0.09179139137268066,
        -0.006399095524102449,
        0.021435078233480453,
        -0.0005510979681275785,
        0.0787125751376152,
        -0.1153932735323906,
        0.05256102606654167,
        0.08820782601833344,
        0.10434891283512115,
        -0.06575789302587509,
        -0.05529705435037613,
        0.06861288100481033,
        0.06271705031394958,
        -0.13618014752864838,
        -0.036492738872766495,
        -0.04291323199868202,
        -0.07060226798057556,
        0.05460401996970177,
        0.03809993341565132,
        -0.05030731484293938,
        -0.1288427859544754,
        -0.1105978786945343,
        0.07826099544763565,
        -0.027030061930418015,
        -0.03231486678123474,
        -0.019469449296593666,
        0.04805228114128113,
        0.09715939313173294,
        0.05778345838189125,
        -0.08309753984212875,
        -0.036217931658029556,
        -0.09895355254411697,
        0.028235649690032005,
        0.10223113745450974,
        -0.06933125108480453,
        0.07921703904867172,
        0.07938843220472336,
        -0.018594177439808846,
        0.10356137901544571,
        -0.08931224793195724,
        0.1055598258972168,
        -0.08939922600984573
      ],
      [
        -0.12643666565418243,
        0.07678963243961334,
        0.0743195116519928,
        -0.034454096108675,
        0.012869720347225666,
        0.038635898381471634,
        0.03998205065727234,
        -0.022929567843675613,
        -0.09000306576490402,
        0.009932371787726879,
        -0.059419821947813034,
        -0.00272064795717597,
        -0.1239071935415268,
        -0.03321680799126625,
        0.04667496308684349,
        0.10287889838218689,
        0.04382415860891342,
        -0.08183953166007996,
        -0.0743643045425415,
        0.08755931258201599,
        0.006273113191127777,
        -0.029882708564400673,
        0.0850420817732811,
        0.013399964198470116,
        -0.010285824537277222,
        0.10844427347183228,
        -0.004353690892457962,
        -0.013823265209794044,
        -0.12217240780591965,
        0.06958265602588654,
        0.0869923010468483,
        0.10156179964542389,
        0.0038945572450757027,
        -0.05472901836037636,
        0.061375509947538376,
        -0.08515889942646027,
        -0.05988771840929985,
        0.057496797293424606,
        -0.116059809923172,
        -0.12212496995925903,
        -0.07214178144931793,
        -0.09023917466402054,
        -0.008113882504403591,
        0.011720477603375912,
        -0.12682665884494781,
        0.11257698386907578,
        -0.014976361766457558,
        0.07653661072254181,
        0.09312821924686432,
        0.07721953094005585,
        -0.11115755140781403,
        -0.037502024322748184,
        -0.049634091556072235,
        0.019532088190317154,
        0.06952928751707077,
        0.06405389308929443,
        0.05505387485027313,
        0.06363251805305481,
        0.039794087409973145,
        -0.0896655023097992,
        -0.02238914743065834,
        -0.12007831782102585,
        -0.03130452707409859,
        0.10490264743566513,
        -0.05259530618786812,
        0.11336325109004974,
        0.08180472254753113,
        0.10493586957454681,
        0.13045889139175415,
        0.03682689368724823,
        0.12828128039836884,
        0.09134579449892044
      ],
      [
        0.0034022785257548094,
        -0.049543239176273346,
        -0.08014954626560211,
        0.11027618497610092,
        0.08879188448190689,
        -0.02266891673207283,
        -0.006749155465513468,
        0.027125347405672073,
        0.08170024305582047,
        -0.061977092176675797,
        0.13323229551315308,
        0.04134109616279602,
        -0.009704303927719593,
        0.019443728029727936,
        0.06633546203374863,
        -0.031185127794742584,
        -0.07912854850292206,
        -0.009474392049014568,
        -0.00384414941072464,
        0.013923675753176212,
        0.11219145357608795,
        -0.0906904861330986,
        0.04622020944952965,
        0.03500060737133026,
        -0.09786883741617203,
        0.14092597365379333,
        -0.07485868781805038,
        -0.09231613576412201,
        -0.07876467704772949,
        -0.04630821943283081,
        -0.06622987240552902,
        0.009006783366203308,
        0.11673387140035629,
        0.12721948325634003,
        0.035654567182064056,
        -0.022828703746199608,
        0.120574951171875,
        0.005234284792095423,
        0.014220639131963253,
        -0.0965999886393547,
        0.06976556032896042,
        0.06190499663352966,
        0.12973812222480774,
        0.04997653514146805,
        0.14789152145385742,
        0.14779804646968842,
        -0.04994944855570793,
        -0.007111486978828907,
        0.07611625641584396,
        0.06056671589612961,
        0.10950972884893417,
        -0.08294478803873062,
        -0.019357847049832344,
        0.08164553344249725,
        -0.0015247660921886563,
        0.03273705393075943,
        0.12233222275972366,
        0.11744454503059387,
        -0.08605868369340897,
        0.09394571185112,
        0.11233222484588623,
        0.1299503743648529,
        -0.00619463948532939,
        0.034361664205789566,
        0.14080870151519775,
        0.0079689035192132,
        0.09085451066493988,
        0.06717295199632645,
        0.09334204345941544,
        -0.00043830537470057607,
        0.04778594896197319,
        0.07918532192707062
      ],
      [
        0.07785987854003906,
        0.07485678046941757,
        -0.09425737708806992,
        -0.14055392146110535,
        0.09480339288711548,
        0.02214696817100048,
        0.07077568024396896,
        -0.13594023883342743,
        -0.011174073442816734,
        -0.005769133102148771,
        -0.08746610581874847,
        -0.016126736998558044,
        -0.03088720515370369,
        -0.012734570540487766,
        -0.008233205415308475,
        -0.04848889634013176,
        0.0021254594903439283,
        -0.03887976333498955,
        -0.08263049274682999,
        0.08396989107131958,
        0.09529434889554977,
        0.09832137078046799,
        0.0923364982008934,
        0.05508224293589592,
        -0.1339600831270218,
        0.003348616184666753,
        0.06974102556705475,
        -0.03765982761979103,
        -0.10357886552810669,
        -0.06023776903748512,
        -0.06760630756616592,
        0.013209105469286442,
        0.002099675126373768,
        -0.09134654700756073,
        0.04058673232793808,
        -0.036826882511377335,
        -0.07548829168081284,
        -0.02500208094716072,
        -0.055164966732263565,
        -0.02739250473678112,
        -0.06809471547603607,
        0.0479000024497509,
        0.008969047106802464,
        -0.09715647995471954,
        -0.06979765743017197,
        0.057448793202638626,
        -0.06093432381749153,
        -0.0047047981061041355,
        -0.0862717479467392,
        -0.14075574278831482,
        0.00065462855855003,
        -0.019081084057688713,
        -0.10548732429742813,
        0.07128436118364334,
        -0.02876557968556881,
        0.05834592133760452,
        -0.05180363729596138,
        -0.04765324667096138,
        0.06453286856412888,
        -0.01315960381180048,
        -0.07189232110977173,
        -0.06841161102056503,
        0.07362531870603561,
        0.009490255266427994,
        -0.010550013743340969,
        -0.11050653457641602,
        -0.08295034617185593,
        0.015104951336979866,
        -0.036815740168094635,
        -0.01778334379196167,
        0.0030373763293027878,
        -0.08783078193664551
      ],
      [
        -0.0665682852268219,
        0.06829728186130524,
        0.09623260796070099,
        -0.10105503350496292,
        -0.04436076804995537,
        0.011884763836860657,
        0.042009901255369186,
        0.0768989697098732,
        0.09237664937973022,
        -0.016008635982871056,
        0.11697227507829666,
        -0.10465444624423981,
        -0.10711085051298141,
        0.0918353870511055,
        0.13573558628559113,
        -0.09514432400465012,
        0.031760577112436295,
        -0.0045005520805716515,
        0.11502660810947418,
        0.067267045378685,
        0.10077084600925446,
        0.008411920629441738,
        0.008071372285485268,
        0.006679460406303406,
        0.08178362995386124,
        0.12902086973190308,
        -0.0542914904654026,
        -0.02490347996354103,
        -0.002378904027864337,
        0.053896136581897736,
        -0.08890026062726974,
        -0.09394281357526779,
        -0.0192987322807312,
        -0.06753668189048767,
        0.080014169216156,
        0.010227374732494354,
        0.07627852261066437,
        0.09596399962902069,
        0.030840761959552765,
        -0.00857151485979557,
        0.1078030988574028,
        0.019883766770362854,
        0.11407393217086792,
        -0.03913378715515137,
        -0.07564986497163773,
        -0.09977328777313232,
        0.015789462253451347,
        -0.005079232156276703,
        0.13920600712299347,
        0.004573593847453594,
        0.023109788075089455,
        -0.09994371980428696,
        0.06377663463354111,
        0.03972460329532623,
        -0.08666479587554932,
        0.15156081318855286,
        0.05196429044008255,
        0.04762208089232445,
        -0.07435737550258636,
        0.14577463269233704,
        0.11811981350183487,
        -0.045746974647045135,
        0.12379613518714905,
        0.13570921123027802,
        0.11088674515485764,
        0.12061900645494461,
        0.077325738966465,
        -0.027186449617147446,
        -0.0502513162791729,
        -0.018031571060419083,
        0.013492008671164513,
        0.03656313568353653
      ],
      [
        0.08168821781873703,
        0.07045486569404602,
        -0.12440277636051178,
        -0.11708761751651764,
        -0.043073154985904694,
        -0.0034291353076696396,
        -0.14433595538139343,
        0.06537867337465286,
        -0.0933971032500267,
        0.06319773942232132,
        -0.06445297598838806,
        -0.03495989367365837,
        -0.11425108462572098,
        -0.04100756719708443,
        0.04689323902130127,
        -0.02813635766506195,
        0.05124252662062645,
        0.0035383400972932577,
        0.06510449200868607,
        0.06745152920484543,
        0.01921626552939415,
        0.10407739877700806,
        -0.07468027621507645,
        0.06087404116988182,
        -0.11980249732732773,
        0.08639568090438843,
        -0.10743167996406555,
        -0.02508133091032505,
        0.06708342581987381,
        -0.1122400090098381,
        -0.048429299145936966,
        -0.10166272521018982,
        -0.021198639646172523,
        0.05579791218042374,
        -0.09299282729625702,
        -0.11974532902240753,
        -0.0791938528418541,
        0.007311511784791946,
        0.02224995568394661,
        0.04320358484983444,
        -0.10068053007125854,
        0.043611038476228714,
        0.03824049234390259,
        0.030446387827396393,
        -0.03997677192091942,
        -0.07068386673927307,
        0.017329443246126175,
        0.002263693604618311,
        -0.09943293780088425,
        -0.10174023360013962,
        -0.008152037858963013,
        0.08704615384340286,
        -0.05386768653988838,
        -0.018547721207141876,
        -0.014425336383283138,
        0.021393196657299995,
        -0.10949937254190445,
        -0.09875837713479996,
        0.07493691891431808,
        0.06898953765630722,
        0.018062658607959747,
        -0.06341800838708878,
        -0.10464824736118317,
        -0.06990890204906464,
        -0.04035143181681633,
        -0.08087132126092911,
        -0.09367752820253372,
        0.105991892516613,
        0.02815398946404457,
        0.08244169503450394,
        -0.04552886635065079,
        0.11388362944126129
      ],
      [
        0.08199752867221832,
        0.019893992692232132,
        -0.032844945788383484,
        0.09707623720169067,
        -0.016173312440514565,
        -0.026093564927577972,
        0.06123838946223259,
        -0.06398145109415054,
        0.01672537624835968,
        -0.04275324195623398,
        -0.0324452668428421,
        -0.10497131943702698,
        0.0934673473238945,
        0.0049386778846383095,
        -0.10096004605293274,
        0.08648426085710526,
        -0.03001059591770172,
        0.035455331206321716,
        0.031009361147880554,
        0.10457161068916321,
        -0.03132041543722153,
        -0.07986441254615784,
        0.06696315109729767,
        -0.03136328607797623,
        0.0637131854891777,
        -0.09255527704954147,
        0.01785600185394287,
        0.09096871316432953,
        0.02871047519147396,
        -0.04265425726771355,
        -0.019552959129214287,
        0.04711945727467537,
        0.016684500500559807,
        -0.0854249820113182,
        -0.09515416622161865,
        0.023498045280575752,
        0.07220259308815002,
        0.11175884306430817,
        -0.11605319380760193,
        0.0578480064868927,
        0.062126271426677704,
        -0.09667785465717316,
        0.08906761556863785,
        -0.09533151984214783,
        -0.0033622425980865955,
        -0.04044894501566887,
        0.06658312678337097,
        0.07904329895973206,
        -0.12151912599802017,
        -0.0017821809742599726,
        -0.09697679430246353,
        -0.11682760715484619,
        0.03352609649300575,
        -0.023086268454790115,
        -0.10576684772968292,
        0.009486351162195206,
        -0.051272742450237274,
        -0.11979414522647858,
        -0.12412591278553009,
        0.06837069243192673,
        0.06619564443826675,
        0.10902757942676544,
        0.0253311637789011,
        -0.09959513694047928,
        0.12850159406661987,
        -0.03715773671865463,
        0.048821110278367996,
        0.0777428075671196,
        0.09262536466121674,
        -0.018543491140007973,
        0.11434178799390793,
        0.003411330981180072
      ],
      [
        -0.11186738312244415,
        0.047080423682928085,
        0.045354779809713364,
        0.019858090206980705,
        0.12456668168306351,
        0.00015969353262335062,
        0.08857740461826324,
        0.12282489985227585,
        0.01831073686480522,
        0.11470179259777069,
        0.08003062009811401,
        0.056824784725904465,
        0.08907449245452881,
        -0.027832502499222755,
        0.10069264471530914,
        -0.08305636793375015,
        -0.040673404932022095,
        -0.013386866077780724,
        0.06443382054567337,
        0.10903921723365784,
        -0.053847622126340866,
        0.03514978289604187,
        0.03043484315276146,
        0.12122677266597748,
        -0.1048232689499855,
        0.040467310696840286,
        0.008585039526224136,
        0.09299065172672272,
        -0.038905948400497437,
        0.03214193508028984,
        0.06735315918922424,
        0.0739641934633255,
        0.08168848603963852,
        -0.014898253604769707,
        0.017735490575432777,
        0.1545298844575882,
        0.14416219294071198,
        0.03406025096774101,
        0.12267343699932098,
        0.08305716514587402,
        0.029917912557721138,
        0.052925582975149155,
        0.12486038357019424,
        0.03529008850455284,
        0.02896803617477417,
        0.07157912105321884,
        -0.053353652358055115,
        0.1269397884607315,
        0.05772336572408676,
        0.1181563213467598,
        -0.05731704458594322,
        -0.004343039821833372,
        -0.003213423304259777,
        -0.01730228029191494,
        0.04511913284659386,
        0.1239066943526268,
        0.0363127775490284,
        -0.034242939203977585,
        0.16107390820980072,
        0.05598205327987671,
        0.08463659882545471,
        0.07813450694084167,
        -0.05890972912311554,
        0.15623919665813446,
        0.16370776295661926,
        0.06836052238941193,
        0.0364481583237648,
        -0.07097597420215607,
        0.14583496749401093,
        0.14356094598770142,
        0.1518997699022293,
        -0.07311423867940903
      ],
      [
        -0.05640912801027298,
        -0.08729928731918335,
        0.02512509934604168,
        0.043857548385858536,
        0.022662142291665077,
        0.010653688572347164,
        -0.06870219856500626,
        -0.0910869762301445,
        -0.039685048162937164,
        -0.08040047436952591,
        0.059396371245384216,
        -0.12818802893161774,
        0.04510464146733284,
        -0.08540437370538712,
        -0.042959995567798615,
        0.037724342197179794,
        0.017337167635560036,
        -0.11600259691476822,
        -0.026032548397779465,
        -0.09520764648914337,
        0.10995806753635406,
        -0.07941573858261108,
        0.03598462790250778,
        -0.018873771652579308,
        -0.09677564352750778,
        -0.08111444860696793,
        -0.010059889405965805,
        -0.08620546013116837,
        -0.038397930562496185,
