{
  "model_architecture": {
    "input_size": 72,
    "hidden_size": 64,
    "output_size": 24,
    "num_layers": 1
  },
  "parameters": {
    "lstm.weight_ih_l0": [
      [
        -0.07749007642269135,
        -2.794434840325266e-05,
        -0.05874280259013176,
        0.001133956597186625,
        0.08485584706068039,
        -0.09144758433103561,
        -7.257165998453274e-05,
        -0.10816679149866104,
        -0.01981339044868946,
        0.09342984855175018,
        -0.054948706179857254,
        -0.02846512757241726,
        0.04755203425884247,
        -0.02572358399629593,
        0.0866076797246933,
        -0.015411246567964554,
        0.014406763948500156,
        0.11944407224655151,
        -0.053669143468141556,
        0.020217519253492355,
        0.0817912146449089,
        0.06855402886867523,
        -0.028544578701257706,
        0.056773729622364044,
        -0.11040399223566055,
        0.027572037652134895,
        0.045411694794893265,
        -0.08169291913509369,
        -0.1016944944858551,
        -0.14961284399032593,
        0.03156818076968193,
        0.10318423807621002,
        0.05655883625149727,
        -0.12499307096004486,
        -0.09849123656749725,
        0.07020394504070282,
        -0.033810291439294815,
        -0.07807382196187973,
        -0.031836867332458496,
        0.10194812715053558,
        -0.01785913109779358,
        -0.07876429706811905,
        -0.02027243934571743,
        -0.06812513619661331,
        -0.09622079133987427,
        0.09819827973842621,
        0.09219719469547272,
        0.05802164599299431,
        0.08086959272623062,
        -0.15134623646736145,
        0.06631932407617569,
        0.021540449932217598,
        -0.12493564933538437,
        -0.006400254555046558,
        0.08676696568727493,
        0.028679411858320236,
        -0.08456099033355713,
        0.023542122915387154,
        0.08668872714042664,
        -0.005366791505366564,
        0.01294254232198,
        0.10574264824390411,
        0.008786771446466446,
        -0.009142753668129444,
        0.04929550737142563,
        0.03214837610721588,
        0.05693628266453743,
        -0.05327042192220688,
        -0.06653417646884918,
        0.10917963087558746,
        -0.030864572152495384,
        -0.10641174763441086
      ],
      [
        0.06697268784046173,
        0.027344394475221634,
        0.011696533299982548,
        0.06495565176010132,
        0.005535307340323925,
        -0.07857435196638107,
        -0.0018403702415525913,
        -0.0899086743593216,
        -0.02498633973300457,
        0.012995120137929916,
        -0.1285925656557083,
        -0.06613901257514954,
        -0.12639746069908142,
        -0.024654071778059006,
        -0.023318082094192505,
        0.014938617125153542,
        -0.10909323394298553,
        0.040648121386766434,
        -0.06257952004671097,
        -0.05043309926986694,
        -0.05477841570973396,
        -0.005488361697643995,
        0.08462867140769958,
        -0.03574955835938454,
        -0.01767328567802906,
        0.0561179593205452,
        -0.09066534787416458,
        -0.13131682574748993,
        0.007111206650733948,
        0.09475664794445038,
        -0.01590157486498356,
        -0.011801661923527718,
        -0.02864144742488861,
        -0.1256491094827652,
        0.0068184249103069305,
        0.08516073226928711,
        -0.036057740449905396,
        -0.062323689460754395,
        0.06833183765411377,
        -0.07472054660320282,
        -0.1194513663649559,
        0.03510422259569168,
        0.02465585432946682,
        -0.09356734156608582,
        0.032532256096601486,
        0.0022967893164604902,
        -0.035084232687950134,
        -0.08517607301473618,
        0.08598995953798294,
        0.11322985589504242,
        -0.09115064144134521,
        -0.07107577472925186,
        -0.09307833015918732,
        -0.013073991052806377,
        0.026692483574151993,
        0.10876281559467316,
        -0.10161148011684418,
        0.08814915269613266,
        0.010869797319173813,
        -0.04866736754775047,
        0.00010523804667172953,
        -0.0808144062757492,
        -0.047666411846876144,
        0.025240905582904816,
        -0.0666147992014885,
        -0.009698290377855301,
        0.07302477210760117,
        0.09807328879833221,
        -0.09806898981332779,
        0.091599240899086,
        0.09689503163099289,
        -0.03312850743532181
      ],
      [
        0.1146107092499733,
        0.06942687183618546,
        0.04766325652599335,
        -0.10372454673051834,
        -0.017014360055327415,
        -0.06487340480089188,
        0.09121858328580856,
        0.00651997746899724,
        0.09888595342636108,
        0.10011539608240128,
        -0.06340833753347397,
        -0.030020326375961304,
        -0.006473687011748552,
        -0.051075346767902374,
        0.05811404064297676,
        -0.1038154885172844,
        0.07221731543540955,
        0.01052126009017229,
        -0.056840505450963974,
        -0.03342791274189949,
        0.10532581061124802,
        -0.04765595495700836,
        -0.09488974511623383,
        0.11042854189872742,
        0.03273238614201546,
        0.011598887853324413,
        -0.1108328327536583,
        0.028308004140853882,
        0.06554315239191055,
        0.10891375690698624,
        -0.10538089275360107,
        -0.09395832568407059,
        -0.09863438457250595,
        -0.05487969145178795,
        -0.12523208558559418,
        -0.06688282638788223,
        -0.05515438690781593,
        -0.14094506204128265,
        -0.018310846760869026,
        -0.09972058981657028,
        0.03174210339784622,
        0.05997747182846069,
        -0.0343879833817482,
        0.09611879289150238,
        0.07907631993293762,
        -0.03965887799859047,
        0.0746283307671547,
        0.06166059896349907,
        -0.037407469004392624,
        -0.10367878526449203,
        -0.08609482645988464,
        0.06340186297893524,
        -0.032363299280405045,
        -0.04408124461770058,
        0.010312167927622795,
        0.08112135529518127,
        -0.0743456557393074,
        0.043510593473911285,
        -0.10493563860654831,
        -0.09788743406534195,
        -0.027667798101902008,
        0.02107824571430683,
        0.010082941502332687,
        0.0566181018948555,
        -0.09741419553756714,
        0.015559021383523941,
        -0.06614638864994049,
        0.11092259734869003,
        0.12818534672260284,
        0.0814194306731224,
        0.01812932640314102,
        0.14022459089756012
      ],
      [
        0.03544992953538895,
        0.0007876944146119058,
        -0.08686893433332443,
        -0.037071745842695236,
        -0.11788290739059448,
        -0.12463858723640442,
        0.03413932025432587,
        -0.08675273507833481,
        -0.14155079424381256,
        -0.02441287599503994,
        -0.11110764741897583,
        -0.03207593411207199,
        0.10616166889667511,
        0.10960344970226288,
        -0.12096817791461945,
        0.106828972697258,
        0.05389760434627533,
        -0.10633338987827301,
        0.06841958314180374,
        -0.14012214541435242,
        -0.04532888904213905,
        -0.13382546603679657,
        -0.07681652903556824,
        -0.1335831731557846,
        -0.009835267439484596,
        -0.09455542266368866,
        -0.050347551703453064,
        0.0067505184561014175,
        0.06184599921107292,
        0.06060352548956871,
        0.029587088152766228,
        -0.11254224181175232,
        0.023083114996552467,
        -0.13935257494449615,
        0.04866683483123779,
        -0.13371695578098297,
        0.07064034044742584,
        -0.038467418402433395,
        -0.04446333274245262,
        0.107792928814888,
        -0.018125755712389946,
        0.07643790543079376,
        0.03993529826402664,
        0.0758562982082367,
        0.09571582078933716,
        -0.12860992550849915,
        0.018622158095240593,
        -0.08253318071365356,
        -0.12626135349273682,
        -0.11723184585571289,
        -0.002418824005872011,
        0.07174026221036911,
        -0.10062709450721741,
        -0.023361405357718468,
        0.021746264770627022,
        -0.14833955466747284,
        0.0716143548488617,
        -0.1482689082622528,
        0.06023223698139191,
        0.002604298759251833,
        -0.03249238058924675,
        0.03458581492304802,
        0.043974339962005615,
        0.05199696123600006,
        0.04927699267864227,
        -0.06304637342691422,
        -0.10716813802719116,
        0.01542024128139019,
        -0.13926012814044952,
        0.03365471959114075,
        -0.0915096327662468,
        0.03790616616606712
      ],
      [
        -0.03327983617782593,
        -0.040172602981328964,
        0.007345929276198149,
        0.12966889142990112,
        0.04099224507808685,
        0.11959654092788696,
        0.14784756302833557,
        0.0574287511408329,
        -0.012398905120790005,
        -0.01566801220178604,
        0.009468471631407738,
        0.06856761872768402,
        0.045655928552150726,
        0.17463231086730957,
        0.14648817479610443,
        0.010972443968057632,
        -0.022040672600269318,
        0.012350372038781643,
        0.1902492642402649,
        0.166010320186615,
        0.09370315819978714,
        0.07929438352584839,
        -0.02501612901687622,
        0.06907209753990173,
        0.09828349947929382,
        0.10323338955640793,
        -0.02941155806183815,
        0.14941753447055817,
        0.07652951776981354,
        0.09499543160200119,
        0.12272366881370544,
        0.17717458307743073,
        -0.02438165247440338,
        0.06240319460630417,
        0.20116354525089264,
        -0.025164270773530006,
        0.020970439538359642,
        0.027833737432956696,
        0.11372161656618118,
        0.021022247150540352,
        0.17272213101387024,
        -0.03872741386294365,
        0.09568454325199127,
        -0.028271984308958054,
        0.06843486428260803,
        0.15694324672222137,
        0.06465154886245728,
        0.02337549440562725,
        0.10602040588855743,
        0.028395075350999832,
        0.027636997401714325,
        0.1529390960931778,
        0.14332446455955505,
        0.011909290216863155,
        0.1922329068183899,
        0.10852997750043869,
        0.011320947669446468,
        0.08011846244335175,
        0.18631190061569214,
        -0.02101181447505951,
        0.06217623129487038,
        -0.008675862103700638,
        0.11674204468727112,
        0.21242809295654297,
        0.062271129339933395,
        0.02444279193878174,
        0.04613097012042999,
        0.1305025815963745,
        0.026226097717881203,
        0.07947438210248947,
        -0.008757108822464943,
        0.07459644973278046
      ],
      [
        0.05469682812690735,
        0.025646306574344635,
        -0.10215803235769272,
        -0.020651882514357567,
        0.05836512893438339,
        0.030945057049393654,
        -0.07918830215930939,
        0.044223278760910034,
        0.027196869254112244,
        0.040225569158792496,
        0.0002515469677746296,
        -0.03866748511791229,
        0.12393368035554886,
        0.09606488794088364,
        0.024536168202757835,
        0.10694649070501328,
        0.14273612201213837,
        0.02078813686966896,
        0.11888046562671661,
        -0.04337066039443016,
        -0.007310955319553614,
        -0.03634132072329521,
        -0.10015007108449936,
        0.0935962125658989,
        -0.011326629668474197,
        0.034747809171676636,
        0.015630032867193222,
        -0.057739097625017166,
        -0.023429494351148605,
        0.05447152629494667,
        -0.07137555629014969,
        0.039225984364748,
        0.026331091299653053,
        -0.09137461334466934,
        0.07071565836668015,
        0.12078667432069778,
        0.06819012016057968,
        0.10929565131664276,
        -0.0417349599301815,
        -0.05478241294622421,
        0.03513387590646744,
        0.032169047743082047,
        0.15557371079921722,
        0.14583134651184082,
        0.10132688283920288,
        0.11767792701721191,
        0.11226878315210342,
        -0.006653730291873217,
        -0.07243373990058899,
        0.013365109451115131,
        -0.06054125353693962,
        0.08827301114797592,
        -0.004257644526660442,
        -0.09015495330095291,
        -0.13357453048229218,
        0.048035405576229095,
        0.0036776300985366106,
        0.10463724285364151,
        0.07272471487522125,
        0.07325811684131622,
        -0.0013997969217598438,
        0.052747927606105804,
        -0.0055968184024095535,
        0.04307851567864418,
        0.026410099118947983,
        0.17654314637184143,
        0.08994172513484955,
        0.018048258498311043,
        0.03976866975426674,
        0.12447776645421982,
        0.11252305656671524,
        -0.04469582438468933
      ],
      [
        0.1444789171218872,
        -0.02318865805864334,
        0.028749974444508553,
        0.14728856086730957,
        0.11351758986711502,
        0.1437801718711853,
        0.09403658658266068,
        0.010454034432768822,
        0.1457713544368744,
        0.14493779838085175,
        0.07758421450853348,
        -0.0931377038359642,
        0.01894867978990078,
        0.09303183853626251,
        0.08288494497537613,
        0.01055917702615261,
        -0.033924512565135956,
        0.037475187331438065,
        -0.055951666086912155,
        -0.0941539853811264,
        0.10094370692968369,
        0.11659862846136093,
        -0.07639166712760925,
        -0.006102667655795813,
        0.08730916678905487,
        0.1263706088066101,
        0.0009801560081541538,
        -0.09122847020626068,
        0.1465015560388565,
        -0.08514151722192764,
        0.05895081162452698,
        -0.022070391103625298,
        0.08945970237255096,
        0.071095772087574,
        -0.0654677003622055,
        0.03435871750116348,
        -0.09017115086317062,
        0.08387547731399536,
        0.0340474471449852,
        -0.009739583358168602,
        0.11388813704252243,
        -0.04809742793440819,
        -0.05729779228568077,
        0.026961280032992363,
        0.027665646746754646,
        -0.005464097484946251,
        -0.0002187883947044611,
        0.10996085405349731,
        -0.03490636125206947,
        -0.09989508241415024,
        -0.06111130863428116,
        0.1322464793920517,
        -0.07032165676355362,
        -0.030874215066432953,
        0.06996923685073853,
        -0.08004356175661087,
        0.08658138662576675,
        -0.09757211804389954,
        -0.10262716561555862,
        0.11223733425140381,
        -0.03601660579442978,
        0.11862973868846893,
        0.008093229494988918,
        0.03353814780712128,
        -0.06297572702169418,
        -0.070223867893219,
        0.06745044887065887,
        0.045593250542879105,
        0.12179889529943466,
        0.05089721828699112,
        -0.09093932062387466,
        -0.10252805054187775
      ],
      [
        -0.08269291371107101,
        0.057274699211120605,
        0.06339170038700104,
        0.06171540170907974,
        -0.015428762882947922,
        -0.03544262796640396,
        -0.09616760164499283,
        -0.049320776015520096,
        0.045743800699710846,
        0.01810126006603241,
        -0.10584945231676102,
        -0.11148333549499512,
        0.07564295083284378,
        -0.02390926517546177,
        0.010696889832615852,
        -0.0031170439906418324,
        0.07406897097826004,
        -0.020284630358219147,
        -0.1168663278222084,
        -0.11392518877983093,
        -0.06418696790933609,
        -0.04595671966671944,
        -0.1214081272482872,
        0.042004603892564774,
        0.05858282372355461,
        -0.060838453471660614,
        -0.12344526499509811,
        -0.022361746057868004,
        0.028452225029468536,
        -0.11702106893062592,
        0.0015951688401401043,
        -0.12581713497638702,
        0.10479603707790375,
        -0.007511609233915806,
        -0.06454825401306152,
        -0.0193770881742239,
        0.0445147268474102,
        0.07593249529600143,
        0.0043567088432610035,
        0.0016597878420725465,
        0.039438892155885696,
        -0.0919279232621193,
        -0.10789097845554352,
        -0.04553596302866936,
        0.0678720697760582,
        -0.07593228667974472,
        -0.09595615416765213,
        0.035557713359594345,
        -0.1051548421382904,
        -0.0895877480506897,
        0.05861714109778404,
        -0.007875487208366394,
        -0.13652333617210388,
        0.06640048325061798,
        -0.06266690045595169,
        -0.01955709233880043,
        -0.07370996475219727,
        0.0019712867215275764,
        0.041059549897909164,
        0.04357464611530304,
        0.06288938969373703,
        -0.05265890434384346,
        -0.12251036614179611,
        -0.06846636533737183,
        -0.06335300207138062,
        0.07079489529132843,
        -0.14709751307964325,
        -0.005704840179532766,
        0.026026343926787376,
        -0.054694049060344696,
        -0.026911089196801186,
        0.030124906450510025
      ],
      [
        -0.04661530256271362,
        0.09769076853990555,
        -0.001216862932778895,
        -0.03855688124895096,
        0.14584439992904663,
        0.01794586516916752,
        0.14908576011657715,
        -0.001812832779251039,
        0.1584831327199936,
        -0.013325687497854233,
        -0.015563943423330784,
        0.040258247405290604,
        0.10993139445781708,
        0.15524183213710785,
        0.08343268930912018,
        -0.09384855628013611,
        -0.032409265637397766,
        0.020279129967093468,
        0.11629513651132584,
        -0.05688333883881569,
        -0.11335092037916183,
        0.12211954593658447,
        -0.11124012619256973,
        0.04159385710954666,
        0.15252843499183655,
        0.11436750739812851,
        -0.08025391399860382,
        0.16109517216682434,
        0.12931405007839203,
        0.0747905820608139,
        0.061476562172174454,
        -0.006684425286948681,
        0.039607513695955276,
        0.014712954871356487,
        0.1529354453086853,
        0.07374870777130127,
        0.10892722010612488,
        -0.003202127292752266,
        -0.034519556909799576,
        0.07862287759780884,
        -0.034937333315610886,
        -0.09843727201223373,
        -0.048024434596300125,
        0.1023474782705307,
        0.0692734345793724,
        -0.10300154983997345,
        0.07462919503450394,
        0.06999359279870987,
        0.12448804825544357,
        0.03464489430189133,
        -0.010975996032357216,
        0.06484554708003998,
        0.05975375697016716,
        0.12652330100536346,
        0.02881828509271145,
        0.004536619409918785,
        0.19775842130184174,
        0.044283248484134674,
        0.02455364726483822,
        0.06256718933582306,
        0.1517985314130783,
        -0.033058226108551025,
        0.11413105577230453,
        0.08460554480552673,
        -0.050515979528427124,
        -0.03556395322084427,
        0.11293961107730865,
        -0.008321881294250488,
        0.05296808481216431,
        0.024081669747829437,
        -0.0003536267322488129,
        0.02881670370697975
      ],
      [
        -0.11321922391653061,
        0.0733184665441513,
        -0.06321801990270615,
        0.030913349241018295,
        -0.07254799455404282,
        0.0723385438323021,
        0.07866750657558441,
        -0.10778263956308365,
        -0.061314091086387634,
        -0.11020688712596893,
        0.03357952460646629,
        0.07076068967580795,
        0.0363907590508461,
        -0.042922332882881165,
        0.07833220064640045,
        -0.11245079338550568,
        0.023889778181910515,
        0.02521277405321598,
        -0.05451031029224396,
        0.03653433173894882,
        0.06874067336320877,
        0.01215746533125639,
        -0.07037701457738876,
        -0.04911573976278305,
        0.09940401464700699,
        0.1356193870306015,
        -0.062029074877500534,
        -0.08749380707740784,
        0.1009717732667923,
        0.11112634092569351,
        -0.06813620775938034,
        0.011432713828980923,
        -0.010194673202931881,
        0.10965730249881744,
        -0.13104413449764252,
        -0.03165677189826965,
        -0.01690516620874405,
        0.03767693042755127,
        0.07634902000427246,
        0.048788975924253464,
        -0.11584344506263733,
        -0.12899945676326752,
        0.03908337652683258,
        0.09445901215076447,
        0.06637487560510635,
        0.03892591595649719,
        -0.07935517281293869,
        0.031234052032232285,
        0.08327290415763855,
        0.15080612897872925,
        -0.08407838642597198,
        0.10982915014028549,
        -0.004485200624912977,
        -0.0922217145562172,
        -0.05875640735030174,
        0.1081204041838646,
        -0.05680064484477043,
        -0.11130357533693314,
        -0.0853707492351532,
        -0.041293930262327194,
        0.08601650595664978,
        -0.06335072964429855,
        0.037371926009655,
        -0.11721343547105789,
        -0.11909933388233185,
        0.09494942426681519,
        -0.06043976917862892,
        0.11853902041912079,
        -0.016919970512390137,
        -0.07413039356470108,
        0.005606451537460089,
        0.12578582763671875
      ],
      [
        0.018493708223104477,
        0.12004132568836212,
        0.005970146041363478,
        0.12046840041875839,
        0.11242178827524185,
        0.07896257191896439,
        -0.06747444719076157,
        0.11499045044183731,
        0.0809006616473198,
        0.047610823065042496,
        0.06837745010852814,
        0.037601325660943985,
        0.1356791853904724,
        0.025548115372657776,
        0.09814800322055817,
        -0.11232435703277588,
        -0.04077715426683426,
        0.028469359502196312,
        0.06396543979644775,
        0.01626972109079361,
        0.12245412170886993,
        -0.07838160544633865,
        -0.014805905520915985,
        -0.05818474665284157,
        -0.04730560630559921,
        0.12219156324863434,
        -0.07111023366451263,
        0.047585584223270416,
        -0.06253284215927124,
        -0.017707210034132004,
        -0.05529613792896271,
        -0.07851408421993256,
        -0.06781919300556183,
        -0.08910248428583145,
        -0.08251134306192398,
        -0.07830453664064407,
        0.11621718108654022,
        0.010465688072144985,
        0.0769718736410141,
        0.03376459702849388,
        -0.028231626376509666,
        0.1402266025543213,
        -0.05537706986069679,
        0.13721977174282074,
        -0.07004190981388092,
        0.030314885079860687,
        -0.02369788847863674,
        -0.016381151974201202,
        0.04255828633904457,
        -0.04962313175201416,
        -0.09765300154685974,
        -0.03216024488210678,
        0.13254481554031372,
        0.09550531208515167,
        -0.005956897046416998,
        -0.058486320078372955,
        0.0777130126953125,
        -0.031784772872924805,
        0.03220629692077637,
        -0.043929748237133026,
        0.010002066381275654,
        0.1300310641527176,
        0.02308547869324684,
        0.1583731472492218,
        0.061911892145872116,
        0.058567773550748825,
        -0.03838661313056946,
        -0.04461750015616417,
        -0.004340341314673424,
        -0.040795907378196716,
        0.15754660964012146,
        0.0266116876155138
      ],
      [
        -0.11084846407175064,
        -0.019378572702407837,
        -0.10938721895217896,
        -0.12185671925544739,
        0.07634445279836655,
        -0.10625781863927841,
        0.09585235267877579,
        0.06572555005550385,
        -0.014120655134320259,
        -0.11328692734241486,
        0.08853156864643097,
        -0.022166965529322624,
        0.029009290039539337,
        -0.0015638265758752823,
        0.1220690980553627,
        -0.050585124641656876,
        -0.09114430099725723,
        0.005587930791079998,
        -0.02818102017045021,
        -0.10128610581159592,
        0.03356004133820534,
        -0.016301272436976433,
        -0.1132858395576477,
        -0.09565116465091705,
        -0.06859702616930008,
        0.09620857983827591,
        -0.0036073799710720778,
        0.10183081030845642,
        -0.11090276390314102,
        -0.05214586481451988,
        -0.12623777985572815,
        -0.07939580827951431,
        0.03676469996571541,
        -0.09288814663887024,
        -0.11226676404476166,
        0.062493931502103806,
        0.0033914607483893633,
        0.019768889993429184,
        -0.06070414185523987,
        -0.049507755786180496,
        -0.0986524224281311,
        0.07691402733325958,
        -0.0541902557015419,
        0.03267522528767586,
        -0.0046433452516794205,
        0.002301373751834035,
        0.020149562507867813,
        -0.10240406543016434,
        0.05534530431032181,
        0.05544489249587059,
        0.058614786714315414,
        -0.05086296424269676,
        0.08498311042785645,
        0.08489954471588135,
        -0.06578163057565689,
        0.08077222108840942,
        0.04897215962409973,
        0.10514720529317856,
        -0.043518200516700745,
        0.07229024916887283,
        -0.011687750928103924,
        0.024909064173698425,
        -0.047975726425647736,
        0.13632217049598694,
        0.12224122881889343,
        0.06568185985088348,
        0.07543879002332687,
        -0.014378614723682404,
        -0.024822507053613663,
        -0.07363060116767883,
        0.03633780777454376,
        -0.08857604116201401
      ],
      [
        0.01222583744674921,
        0.08376285433769226,
        -0.12027842551469803,
        0.01802956499159336,
        0.07867538183927536,
        0.09034295380115509,
        -0.001143740490078926,
        -0.03554406762123108,
        -0.07578001916408539,
        0.06946457922458649,
        -0.11630075424909592,
        0.04983830079436302,
        -0.05874447152018547,
        -0.10947851091623306,
        0.0003128309326712042,
        -0.09536692500114441,
        -0.08287571370601654,
        -0.0590171180665493,
        -0.03470267355442047,
        -0.09757380187511444,
        -0.06973331421613693,
        -0.14018206298351288,
        0.04786073416471481,
        0.09011352062225342,
        -0.06185464188456535,
        0.060959286987781525,
        -0.133047416806221,
        -0.07137338817119598,
        0.04951314255595207,
        -0.07911376655101776,
        -0.067440465092659,
        -0.03311591222882271,
        -0.06808743625879288,
        -0.04352130368351936,
        -0.08486460149288177,
        0.010374481789767742,
        -0.08972687274217606,
        -0.1076822578907013,
        -0.08922649919986725,
        0.037936314940452576,
        -0.014470973052084446,
        0.051082540303468704,
        -0.0689140185713768,
        0.0035370723344385624,
        0.051462117582559586,
        0.019674982875585556,
        -0.06576854735612869,
        0.02158673107624054,
        -0.03354977071285248,
        -0.03972618654370308,
        -0.09797441959381104,
        0.06697599589824677,
        -0.08300293236970901,
        0.06132853403687477,
        0.039550840854644775,
        -0.052223771810531616,
        -0.0190004650503397,
        -0.09122727066278458,
        0.011222828179597855,
        -0.1260693520307541,
        -0.022646233439445496,
        0.06139885634183884,
        -0.007830869406461716,
        -0.0310615673661232,
        0.11697384715080261,
        0.03512662276625633,
        0.10476191341876984,
        -0.03381671756505966,
        0.007185523863881826,
        0.047652676701545715,
        -0.0018369967583566904,
        -0.06966246664524078
      ],
      [
        0.0424615778028965,
        -0.017380401492118835,
        -0.11118284612894058,
        -0.0983448401093483,
        0.04465112090110779,
        -0.0942314937710762,
        -0.0766557976603508,
        -0.07944010943174362,
        -0.05867782235145569,
        0.09786221385002136,
        0.04469547048211098,
        0.09725522249937057,
        -0.06770973652601242,
        0.043321643024683,
        -0.09171269834041595,
        0.04997463524341583,
        0.017348160967230797,
        -0.03722325339913368,
        -0.03237180411815643,
        -0.02344878576695919,
        0.08578511327505112,
        -0.10633663088083267,
        -0.01734156720340252,
        -0.11965042352676392,
        -0.09676191210746765,
        0.08719801902770996,
        -0.03426622599363327,
        -0.08900243788957596,
        -0.03434092178940773,
        0.08616712689399719,
        -0.0363195464015007,
        -0.10781462490558624,
        0.06101679801940918,
        0.04755553975701332,
        0.008863602764904499,
        -0.12068364769220352,
        -0.04883312061429024,
        0.04259999841451645,
        -0.024068046361207962,
        -0.11419249325990677,
        -0.0004737006966024637,
        0.11918344348669052,
        -0.06252177804708481,
        -0.004967289511114359,
        -0.09093383699655533,
        0.11843034625053406,
        0.10659213364124298,
        0.09894047677516937,
        -0.00021024573652539402,
        -0.021462582051753998,
        0.07009859383106232,
        -0.07932892441749573,
        -0.08418631553649902,
        -0.10238466411828995,
        0.10800202190876007,
        0.03594516962766647,
        0.005353803746402264,
        0.13592049479484558,
        0.07829320430755615,
        0.030176613479852676,
        0.033277593553066254,
        -0.03181620314717293,
        0.10824668407440186,
        0.1527518481016159,
        0.003276490606367588,
        0.10831848531961441,
        0.0748312845826149,
        -0.07119106501340866,
        -0.07897912710905075,
        0.01625213958323002,
        0.019062858074903488,
        -0.0173981674015522
      ],
      [
        0.08514223992824554,
        0.015665093436837196,
        0.06860256940126419,
        -0.002605442889034748,
        -0.10695482790470123,
        -0.06653609871864319,
        -0.07758212834596634,
        0.08802950382232666,
        -0.07432597875595093,
        -0.0046243369579315186,
        -0.07501421123743057,
        -0.030725393444299698,
        -0.08202643692493439,
        0.10197242349386215,
        -0.1354716271162033,
        -0.13678769767284393,
        0.0739189088344574,
        -0.12474146485328674,
        -0.04162159189581871,
        0.10050532221794128,
        -0.07528523355722427,
        0.009024709463119507,
        -0.11007490754127502,
        0.007963566109538078,
        -0.07057720422744751,
        0.011257481761276722,
        -0.04640363156795502,
        -0.05525171756744385,
        0.07377153635025024,
        0.0138328792527318,
        -0.050247080624103546,
        -0.03204446658492088,
        0.10375057905912399,
        -0.13343371450901031,
        -0.017335180193185806,
        0.053445395082235336,
        -0.07137971371412277,
        -0.11873867362737656,
        0.06647524237632751,
        -0.11689399182796478,
        0.006333187688142061,
        0.03516276553273201,
        -0.07694634795188904,
        -0.029961297288537025,
        -0.08543111383914948,
        0.07247522473335266,
        -0.11095050722360611,
        -0.04929715022444725,
        -0.014771281741559505,
        0.03183203190565109,
        -0.0036641096230596304,
        0.008252475410699844,
        0.021106911823153496,
        0.12510626018047333,
        0.06083069369196892,
        -0.07055960595607758,
        0.10838378220796585,
        -0.07768397033214569,
        -0.03697332367300987,
        -0.004834933206439018,
        0.09426569938659668,
        0.002020169049501419,
        -0.027970166876912117,
        -0.0939818024635315,
        -0.030940867960453033,
        0.02164187654852867,
        0.08629296720027924,
        -0.019415350630879402,
        0.034839749336242676,
        -0.040211740881204605,
        0.04754922538995743,
        0.10966773331165314
      ],
      [
        -0.03565969318151474,
        -0.07161074876785278,
        0.06335972249507904,
        0.050318147987127304,
        -0.1145019456744194,
        -0.05553768575191498,
        -0.05568544566631317,
        -0.002749417442828417,
        0.04078235104680061,
        0.0678299218416214,
        -0.045307762920856476,
        -0.0996633842587471,
        -0.020504213869571686,
        -0.009753860533237457,
        0.06470286846160889,
        0.03565448895096779,
        -0.11164586991071701,
        0.036275316029787064,
        -0.03744111582636833,
        -0.0020614329259842634,
        0.08591488003730774,
        0.03137625381350517,
        0.011080608703196049,
        0.05597778409719467,
        -0.08077964931726456,
        -0.16554731130599976,
        -0.14016026258468628,
        -0.08435332030057907,
        -0.013459757901728153,
        0.010866815224289894,
        0.00609268993139267,
        -0.12441756576299667,
        -0.12053366750478745,
        -0.04408136382699013,
        0.08304722607135773,
        0.09322356432676315,
        -0.08558463305234909,
        0.0510026253759861,
        0.09677237272262573,
        -0.05173688754439354,
        -0.07033447921276093,
        -0.0997568666934967,
        0.0057863350957632065,
        0.05379578471183777,
        0.08382871001958847,
        -0.00756719708442688,
        -0.10900161415338516,
        0.08123134076595306,
        -0.09479931741952896,
        -0.04028153419494629,
        -0.07511977851390839,
        -0.04990394786000252,
        0.08445882052183151,
        0.071104496717453,
        0.0662846490740776,
        -0.09049975872039795,
        -0.06621281802654266,
        -0.0027322652749717236,
        0.035187818109989166,
        0.11568465083837509,
        0.12368007749319077,
        0.04343864321708679,
        0.10946591198444366,
        0.03019125759601593,
        0.10442633181810379,
        0.07451967895030975,
        -0.06506258249282837,
        -0.01151381153613329,
        0.029225869104266167,
        -0.024210680276155472,
        0.08726296573877335,
        0.06615622341632843
      ],
      [
        -0.02178461290895939,
        0.09374329447746277,
        -0.06462453305721283,
        0.06626179069280624,
        0.07807637006044388,
        -0.12311894446611404,
        -0.09264390170574188,
        -0.106866255402565,
        -0.09483005106449127,
        -0.07962705194950104,
        -0.06858605891466141,
        -0.1099848523736,
        0.004626112524420023,
        0.024593494832515717,
        0.09974303841590881,
        0.014614652842283249,
        0.0022613301407545805,
        -0.002601976040750742,
        -0.0699874758720398,
        -0.05178238824009895,
        -0.09556547552347183,
        -0.07032053172588348,
        -0.1461777538061142,
        -0.09581061452627182,
        -0.08115911483764648,
        -0.03299696743488312,
        -0.1304471641778946,
        -0.0954870730638504,
        0.03512902930378914,
        0.01776489056646824,
        -0.08483626693487167,
        0.10455568879842758,
        0.06067606061697006,
        0.1053585633635521,
        -0.0244580190628767,
        0.030790016055107117,
        0.05786857753992081,
        -0.07334724813699722,
        -0.08674118667840958,
        0.11902986466884613,
        0.10575536638498306,
        0.1042182669043541,
        0.03096340410411358,
        0.10675408691167831,
        -0.10792756825685501,
        0.024486031383275986,
        0.03295626491308212,
        0.08368708938360214,
        -0.1391931027173996,
        -0.12451266497373581,
        -0.08333778381347656,
        -0.10711243003606796,
        0.011940203607082367,
        -0.004809546284377575,
        0.0676775649189949,
        -0.024859096854925156,
        0.004244913812726736,
        0.12345016002655029,
        0.10945755243301392,
        0.09899504482746124,
        0.023063378408551216,
        0.13570401072502136,
        0.0918944850564003,
        -0.0018246050458401442,
        0.0063299634493887424,
        -0.06361030787229538,
        0.020147329196333885,
        0.10775840282440186,
        -0.006797701586037874,
        0.01897212490439415,
        -0.04461504891514778,
        0.06195472553372383
      ],
      [
        -0.028392624109983444,
        -0.03579914942383766,
        -0.08848105370998383,
        -0.10155292600393295,
        -0.1494595855474472,
        0.09115613251924515,
        0.09838026016950607,
        0.09210941195487976,
        0.033779874444007874,
        -0.019457973539829254,
        0.04032018035650253,
        -0.04628356173634529,
        -0.020494259893894196,
        -0.07082410156726837,
        0.021039489656686783,
        0.059151556342840195,
        -0.02934739924967289,
        0.0016373149119317532,
        -0.05721399933099747,
        0.0023677514400333166,
        -0.02973058819770813,
        -0.03957251459360123,
        0.0025529616978019476,
        0.036380745470523834,
        -0.021248452365398407,
        0.044792111963033676,
        0.015076965093612671,
        -0.04782162234187126,
        -0.14025762677192688,
        -0.09955119341611862,
        -0.13014063239097595,
        -0.13589131832122803,
        0.0067337811924517155,
        0.03062024898827076,
        -0.02444455400109291,
        -0.10267016291618347,
        0.0682680755853653,
        -0.05008243769407272,
        0.0717134177684784,
        0.09242112934589386,
        0.08658435195684433,
        0.017175400629639626,
        0.03287958353757858,
        -0.10500872880220413,
        -0.08297848701477051,
        0.055677346885204315,
        0.09274806082248688,
        0.07567676156759262,
        -0.05430898442864418,
        -0.14060033857822418,
        -0.004215905908495188,
        -0.005682230461388826,
        -0.10713344812393188,
        -0.06347907334566116,
        0.07316862046718597,
        0.023160018026828766,
        0.013143484480679035,
        -0.010938449762761593,
        -0.02695862017571926,
        0.023559553548693657,
        0.03487269952893257,
        0.15670031309127808,
        -0.07800877094268799,
        0.011398844420909882,
        0.050149690359830856,
        0.15368777513504028,
        0.057854197919368744,
        0.041876036673784256,
        0.10983049869537354,
        0.010365837253630161,
        -0.08430691063404083,
        -0.11250071227550507
      ],
      [
        0.019337698817253113,
        0.07110944390296936,
        -0.0764237493276596,
        0.1157703846693039,
        0.09944289922714233,
        -0.06566057354211807,
        -0.010495530441403389,
        -0.002891836455091834,
        0.015381907112896442,
        -0.08382073044776917,
        0.05587661638855934,
        -0.08409406244754791,
        -0.04637511447072029,
        -0.03485400974750519,
        0.0042337290942668915,
        -0.1068921610713005,
        0.03598244488239288,
        -0.10468325763940811,
        -0.07791320234537125,
        0.06159593537449837,
        0.007598563563078642,
        0.04185262694954872,
        -0.01809130422770977,
        0.06096288561820984,
        -0.11434050649404526,
        -0.04267849400639534,
        -0.07915034145116806,
        0.08650942891836166,
        -0.02518419548869133,
        0.07376234233379364,
        0.11051792651414871,
        -0.06649825721979141,
        0.03295041620731354,
        -0.03385983780026436,
        -0.013107476755976677,
        0.012161419726908207,
        0.07235521823167801,
        0.026417437940835953,
        0.11273077130317688,
        0.07501896470785141,
        0.01732691004872322,
        -0.09197299182415009,
        -0.022659145295619965,
        0.04627296328544617,
        -0.040408022701740265,
        -0.05508962273597717,
        -0.13470202684402466,
        0.03284119814634323,
        -0.013679691590368748,
        -0.012016222812235355,
        0.002365394961088896,
        0.04238447919487953,
        0.08898073434829712,
        0.1220727488398552,
        0.07529211044311523,
        0.13681656122207642,
        -0.0908292606472969,
        0.15445569157600403,
        0.12840628623962402,
        -0.016533611342310905,
        0.05338763818144798,
        0.1152154728770256,
        0.008639968000352383,
        0.05111582949757576,
        -0.006552302278578281,
        0.11688374727964401,
        -0.05451921373605728,
        0.03795403242111206,
        0.12462454289197922,
        -0.00601081782951951,
        0.050703294575214386,
        -0.02748395875096321
      ],
      [
        -0.024039871990680695,
        0.07999550551176071,
        -0.05481245741248131,
        0.011035200208425522,
        -0.0026798134204000235,
        -0.018188297748565674,
        0.0159590020775795,
        -0.12912341952323914,
        0.029553953558206558,
        -0.09953242540359497,
        -0.12520372867584229,
        -0.014539475552737713,
        0.10245843231678009,
        -0.06094897910952568,
        -0.05831659212708473,
        -0.12359599024057388,
        -0.07128379493951797,
        -0.05750129744410515,
        -0.10070212185382843,
        0.008219991810619831,
        0.03554121404886246,
        -0.08879336714744568,
        -0.062326155602931976,
        -0.013790100812911987,
        0.07984839379787445,
        -0.031701624393463135,
        -0.05447564646601677,
        -0.05345025658607483,
        0.04906848445534706,
        0.015261339023709297,
        0.038567911833524704,
        0.09155426919460297,
        -0.009839368984103203,
        0.06703872233629227,
        0.046628911048173904,
        0.005555601324886084,
        0.07014679163694382,
        -0.09491193294525146,
        -0.08815722167491913,
        -0.041037511080503464,
        0.025768984109163284,
        0.03602929785847664,
        0.03300856053829193,
        -0.060811471194028854,
        0.03205430880188942,
        0.03675943985581398,
        -0.08248588442802429,
        0.06627587229013443,
        -0.07700471580028534,
        -0.021089717745780945,
        0.05272376164793968,
        -0.09123016893863678,
        0.04551863670349121,
        -0.08997871726751328,
        0.02250479906797409,
        -0.051714930683374405,
        0.023806706070899963,
        -0.04605346918106079,
        -0.0009552772389724851,
        0.03194601088762283,
        0.073112852871418,
        -0.08780886977910995,
        0.03254037722945213,
        0.013533525168895721,
        0.12151599675416946,
        0.11081049591302872,
        0.1034892350435257,
        0.022094564512372017,
        0.025098783895373344,
        -0.016283733770251274,
        0.00691382959485054,
        -0.04861683025956154
      ],
      [
        0.07955414801836014,
        -0.06920420378446579,
        0.10984987765550613,
        -0.051554471254348755,
        0.017276683822274208,
        0.09949755668640137,
        0.11470716446638107,
        -0.07126235961914062,
        0.07543890923261642,
        -0.11516451090574265,
        0.08500471711158752,
        0.11649957299232483,
        0.0976153016090393,
        -0.11389271914958954,
        0.08044832199811935,
        -0.11132216453552246,
        -0.0008896695217117667,
        0.0878458246588707,
        -0.13337357342243195,
        -0.030933557078242302,
        0.0455533005297184,
        -0.020013494417071342,
        0.10327298939228058,
        0.08719862997531891,
        0.0007626707665622234,
        0.10128569602966309,
        -0.09672641009092331,
        -0.08891558647155762,
        -0.022815074771642685,
        0.11484020948410034,
        -0.0865337923169136,
        0.07142109423875809,
        -0.03512528911232948,
        0.006834749598056078,
        0.03943909332156181,
        -0.04942482337355614,
        0.014288567006587982,
        -0.04012758284807205,
        -0.11093094944953918,
        0.06187004968523979,
        0.055312689393758774,
        -0.10399370640516281,
        -0.07536087930202484,
        -0.11360389739274979,
        0.11578109860420227,
        0.08620302379131317,
        -0.0045620654709637165,
        0.09293390065431595,
        0.03745446354150772,
        -0.029886307194828987,
        0.03321957215666771,
        0.04392249509692192,
        0.030882110819220543,
        -0.08572327345609665,
        -0.08118482679128647,
        0.08465719223022461,
        0.15899135172367096,
        0.09370338916778564,
        0.0343119353055954,
        0.13191591203212738,
        -0.007960467599332333,
        0.07572433352470398,
        -0.014833438210189342,
        -0.0005583846941590309,
        -0.06217598915100098,
        0.10641485452651978,
        0.07061415165662766,
        0.09264200925827026,
        -0.036391083151102066,
        0.10246534645557404,
        -0.00428910693153739,
        -0.07118330895900726
      ],
      [
        -0.13772287964820862,
        -0.12431801855564117,
        0.06801839172840118,
        -0.002291284501552582,
        0.04263485595583916,
        -0.01731099560856819,
        0.023052848875522614,
        -0.14948789775371552,
        0.052279043942689896,
        0.012112380936741829,
        0.10348860174417496,
        -0.04169100522994995,
        -0.1215396299958229,
        0.09683752059936523,
        -0.12191393226385117,
        0.006479763891547918,
        -0.11618660390377045,
        -0.039789870381355286,
        0.02191164530813694,
        -0.007506155408918858,
        -0.09065739810466766,
        -0.0449540838599205,
        -0.05392014980316162,
        -0.050705816596746445,
        -0.16185562312602997,
        0.010564027354121208,
        -0.13398323953151703,
        -0.0018193123396486044,
        0.031822096556425095,
        -0.1049472913146019,
        -0.0656621903181076,
        0.017177745699882507,
        -0.14229565858840942,
        -0.030877523124217987,
        0.06308788806200027,
        -0.11569082736968994,
        0.10843528062105179,
        -0.07882791012525558,
        -0.04174555465579033,
        -0.0022674365900456905,
        0.07992912828922272,
        -0.02253127098083496,
        0.0852891355752945,
        -0.1271689534187317,
        -0.031003722921013832,
        0.08253572881221771,
        0.0022537438198924065,
        -0.12295926362276077,
        0.09237178415060043,
        0.012281878851354122,
        0.01958436705172062,
        0.09265396744012833,
        -0.12030666321516037,
        -0.1244698092341423,
        -0.03312677517533302,
        -0.135294109582901,
        0.014901956543326378,
        -0.07898453623056412,
        0.04108992591500282,
        -0.07813456654548645,
        0.09476843476295471,
        -0.01653730496764183,
        -0.10956082493066788,
        -0.037845462560653687,
        0.01679564267396927,
        -0.10139955580234528,
        0.08620455861091614,
        0.037506282329559326,
        0.049975037574768066,
        0.08780009299516678,
        -0.11246892809867859,
        -0.02515461854636669
      ],
      [
        -0.04477853327989578,
        -0.10458429157733917,
        0.09085492044687271,
        -0.024888815358281136,
        0.0026481798849999905,
        0.08243062347173691,
        -0.07558336853981018,
        -0.02838250808417797,
        -0.02012215182185173,
        0.058075860142707825,
        -0.020577993243932724,
        0.13706457614898682,
        0.053549040108919144,
        0.03847678750753403,
        0.10860203951597214,
        0.09061790257692337,
        0.03570517152547836,
        -0.09589307010173798,
        0.08235190063714981,
        -0.07771103084087372,
        0.11336954683065414,
        0.06543391942977905,
        -0.12524376809597015,
        0.06981527805328369,
        -0.02957022935152054,
        -0.12439682334661484,
        0.12363849580287933,
        -0.024318650364875793,
        -0.06301548331975937,
        0.11378727108240128,
        -0.04444536194205284,
        0.09153323620557785,
        -0.08039309829473495,
        0.09792936593294144,
        0.13965770602226257,
        0.12939435243606567,
        -0.09489790350198746,
        0.09005650132894516,
        0.1216718927025795,
        -0.006577485706657171,
        0.12489158660173416,
        0.0014946756418794394,
        0.0930580198764801,
        0.09339278191328049,
        -0.051269251853227615,
        -0.009460929781198502,
        -0.036080408841371536,
        0.09812935441732407,
        0.12199562788009644,
        0.06791920214891434,
        -0.054484933614730835,
        -0.049836575984954834,
        -0.058492500334978104,
        0.06112147867679596,
        0.057019881904125214,
        0.08035226911306381,
        0.08168411999940872,
        0.13155092298984528,
        -0.011767745018005371,
        0.12241994589567184,
        0.08175871521234512,
        0.033255092799663544,
        -0.07637648284435272,
        -0.07533130049705505,
        0.010551215149462223,
        -0.04572758078575134,
        -0.020732887089252472,
        -0.07261089980602264,
        0.022401822730898857,
        -0.0492340624332428,
        -0.0031828749924898148,
        0.04302419349551201
      ],
      [
        -0.07838379591703415,
        0.021591726690530777,
        -0.08633226156234741,
        0.1274762600660324,
        0.0891714096069336,
        0.01457902416586876,
        0.03963607922196388,
        -0.037583451718091965,
        0.10083210468292236,
        0.08131474256515503,
        0.10515880584716797,
        0.12938793003559113,
        0.030734239146113396,
        -0.06896024942398071,
        0.040782470256090164,
        0.02417493611574173,
        -0.010644560679793358,
        -0.1184922456741333,
        -0.026466509327292442,
        -0.03188975527882576,
        0.03213634341955185,
        -0.14823637902736664,
        -0.10134709626436234,
        -0.07419295608997345,
        -0.08843284100294113,
        0.009953409433364868,
        0.09903086721897125,
        0.0611100047826767,
        0.05787883698940277,
        0.01354510709643364,
        0.001478357706218958,
        0.13549089431762695,
        0.0533871203660965,
        0.1165948435664177,
        -0.02801557444036007,
        0.1250503808259964,
        -0.04242590814828873,
        0.01969887688755989,
        0.14782369136810303,
        0.09956026077270508,
        0.015695692971348763,
        0.010383072309195995,
        0.05416913703083992,
        -0.05617600679397583,
        0.038358766585588455,
        -0.059794340282678604,
        0.06283771246671677,
        -0.091241754591465,
        0.08185545355081558,
        0.007255445700138807,
        0.09338460117578506,
        0.13963115215301514,
        0.04523152485489845,
        -0.04491403326392174,
        0.017087440937757492,
        0.14467397332191467,
        0.03922392055392265,
        0.0612543560564518,
        -0.04138987138867378,
        0.15845786035060883,
        0.050043985247612,
        0.07047658413648605,
        -0.032415129244327545,
        -0.010896416381001472,
        -0.006615232676267624,
        0.10869886726140976,
        -0.08222775161266327,
        -0.09492982923984528,
        0.12426798790693283,
        -0.04357501491904259,
        0.10127837210893631,
        0.06815440952777863
      ],
      [
        -0.11776366084814072,
        -0.0747692808508873,
        -0.09409985691308975,
        -0.034249406307935715,
        0.017553115263581276,
        0.08876275271177292,
        -0.06171315535902977,
        0.11749719828367233,
        0.1320374310016632,
        -0.07832355052232742,
        0.1452738642692566,
        0.10481607168912888,
        -0.07110895961523056,
        -0.04117511957883835,
        -0.07201136648654938,
        0.025915488600730896,
        -0.05946051701903343,
        0.11572611331939697,
        -0.1058710590004921,
        0.02248872071504593,
        -0.14131510257720947,
        -0.028031524270772934,
        -0.12080109119415283,
        0.05002351477742195,
        -0.031712938100099564,
        0.0076102749444544315,
        -0.03816552832722664,
        0.09399896115064621,
        0.05924854055047035,
        0.0906856432557106,
        -0.11660513281822205,
        -0.03757402300834656,
        0.10534372925758362,
        0.03500788286328316,
        -0.04874386265873909,
        0.0009605780360288918,
        0.009864081628620625,
        -0.05042128264904022,
        -0.08880294114351273,
        0.1474832147359848,
        -0.08188292384147644,
        -0.061847489327192307,
        0.034070007503032684,
        -0.08086296170949936,
        -0.09671420603990555,
        0.05687433108687401,
        0.08717226982116699,
        -0.10785426199436188,
        -0.08171357214450836,
        -0.12485124915838242,
        -0.12258515506982803,
        0.03009403869509697,
        0.05468674376606941,
        -0.06221669539809227,
        0.10292262583971024,
        -0.004830973222851753,
        0.10918786376714706,
        -0.04977751895785332,
        0.13201184570789337,
        -0.044350747019052505,
        0.08141373097896576,
        -0.004997819662094116,
        -0.05302691087126732,
        0.04631396383047104,
        -0.026649368926882744,
        0.09662360697984695,
        -0.040170878171920776,
        0.12661629915237427,
        -0.06654639542102814,
        -0.034991953521966934,
        0.047634270042181015,
        -0.060886941850185394
      ],
      [
        0.12415926158428192,
        0.11848868429660797,
        0.12738019227981567,
        0.002082440536469221,
        0.062377020716667175,
        0.07545868307352066,
        -0.03879634663462639,
        -0.010357017628848553,
        -0.002717249095439911,
        0.08415375649929047,
        0.008079826831817627,
        0.02196624130010605,
        -0.08751373738050461,
        0.022524183616042137,
        -0.06004238873720169,
        -0.10538455843925476,
        -0.11362528800964355,
        0.03341832384467125,
        0.10084200650453568,
        -0.11226827651262283,
        -0.03435840457677841,
        -0.1049107015132904,
        0.04176954925060272,
        0.03231258690357208,
        0.06002636253833771,
        0.024545643478631973,
        -0.08774194866418839,
        -0.048198401927948,
        -0.0936770960688591,
        0.015760643407702446,
        0.024558357894420624,
        -0.03581492230296135,
        0.0313425250351429,
        0.06410710513591766,
        0.06551393866539001,
        0.0671955868601799,
        0.08454931527376175,
        -0.10034672915935516,
        0.08501871675252914,
        0.0435565747320652,
        -0.024578165262937546,
        0.0005111611098982394,
        0.039227500557899475,
        -0.06053585559129715,
        -0.031721677631139755,
        0.10944700241088867,
        0.06698760390281677,
        -0.022646823897957802,
        -0.09725917130708694,
        -0.09111001342535019,
        0.06413822621107101,
        0.09355523437261581,
        0.006573623511940241,
        -0.07145732641220093,
        0.006601662375032902,
        -0.08161644637584686,
        0.06433385610580444,
        -0.07420579344034195,
        0.1411161869764328,
        -0.0049002207815647125,
        0.0023236172273755074,
        0.01843428984284401,
        0.08574824035167694,
        -0.03379237279295921,
        0.12361165881156921,
        -0.0056299082934856415,
        0.024248473346233368,
        0.10185009241104126,
        0.14022395014762878,
        0.1389397829771042,
        0.1221068724989891,
        0.13783971965312958
      ],
      [
        0.01926618069410324,
        0.02117949351668358,
        0.11053222417831421,
        0.06468886882066727,
        0.0813303217291832,
        -0.026913398876786232,
        -0.05542496219277382,
        0.07183557748794556,
        0.07990074902772903,
        -0.10555605590343475,
        -0.08336810767650604,
        -0.05935991182923317,
        -0.05178595334291458,
        -0.007463759742677212,
        -0.048591140657663345,
        0.017792880535125732,
        -0.027175970375537872,
        0.010246376506984234,
        -0.05170334503054619,
        0.04309634491801262,
        -0.11913140118122101,
        -0.09090123325586319,
        0.09278187155723572,
        0.07898096740245819,
        -0.09218505024909973,
        0.07944619655609131,
        -0.05448657274246216,
        0.07908086478710175,
        -0.019690977409482002,
        0.026229945942759514,
        -0.077618807554245,
        0.0707971528172493,
        0.058238450437784195,
        0.12904460728168488,
        -0.06019959598779678,
        -0.10159527510404587,
        0.0914803147315979,
        0.02016419917345047,
        0.09781485795974731,
        -0.015432405285537243,
        0.05887984111905098,
        0.11622288823127747,
        -0.10510465502738953,
        -0.07755038142204285,
        -0.037465453147888184,
        0.08865808695554733,
        0.09105409681797028,
        0.12737348675727844,
        -0.07748911529779434,
        0.005140802823007107,
        -0.05267634615302086,
        0.14096729457378387,
        0.15390826761722565,
        0.14297796785831451,
        -0.06194057688117027,
        0.12569516897201538,
        -0.03380922973155975,
        -0.08918447047472,
        0.045374706387519836,
        -0.08669181913137436,
        -0.10981316864490509,
        -0.08029386401176453,
        -0.09601151943206787,
        0.060084886848926544,
        0.053678516298532486,
        0.06289852410554886,
        0.013032875955104828,
        -0.07029814273118973,
        0.12807631492614746,
        0.14003592729568481,
        0.07288672029972076,
        0.021804379299283028
      ],
      [
        -0.008265780285000801,
        0.02260381542146206,
        0.11896274238824844,
        -0.07260456681251526,
        -0.020540501922369003,
        -0.06553421914577484,
        -0.018445337191224098,
        -0.10908930003643036,
        0.09027858823537827,
        -0.02270844206213951,
        -0.010906178504228592,
        0.08739735186100006,
        0.0021718693897128105,
        0.09836988151073456,
        0.02525179274380207,
        0.038279760628938675,
        0.04075777530670166,
        0.01813163049519062,
        0.1266905516386032,
        -0.030037805438041687,
        0.04022270068526268,
        -0.06207751855254173,
        -0.020338645204901695,
        0.14170022308826447,
        0.03529568761587143,
        -0.010196050629019737,
        -0.015176456421613693,
        0.11088544130325317,
        0.1221737414598465,
        -0.11113575845956802,
        -0.0018547967774793506,
        0.08709555119276047,
        0.01779221184551716,
        0.010526292026042938,
        0.09195256233215332,
        -0.08282166719436646,
        0.07098083198070526,
        0.0786338523030281,
        -0.10346204042434692,
        -0.11220386624336243,
        -0.025080299004912376,
        -0.04566740617156029,
        -0.06407938152551651,
        -0.06490543484687805,
        0.06009090691804886,
        0.0826432928442955,
        -0.04260442778468132,
        -0.09477347880601883,
        0.0837705209851265,
        0.12328091263771057,
        0.001539723016321659,
        -0.031061669811606407,
        0.09138039499521255,
        -0.0979027971625328,
        0.07333087176084518,
        0.003941521514207125,
        -0.0398491770029068,
        0.069518081843853,
        0.06800516694784164,
        0.021857354789972305,
        0.02066636085510254,
        -0.05887499451637268,
        -0.03829892724752426,
        -0.06063264235854149,
        0.11039062589406967,
        -0.004883517045527697,
        0.0694768875837326,
        -0.002569586504250765,
        0.06582089513540268,
        0.018652301281690598,
        0.0451057031750679,
        0.02185060642659664
      ],
      [
        0.017055369913578033,
        -0.10502390563488007,
        -0.05297934636473656,
        -0.08162539452314377,
        0.11043591052293777,
        0.007363348267972469,
        -0.017928924411535263,
        0.07747705280780792,
        0.011867220513522625,
        0.013516842387616634,
        0.12380971759557724,
        -0.0761079415678978,
        -0.09229877591133118,
        0.09328492730855942,
        0.10849683731794357,
        0.03620840609073639,
        0.11532232165336609,
        -0.043763644993305206,
        -0.01676814816892147,
        -0.037074603140354156,
        0.015823492780327797,
        -0.01409271638840437,
        0.08381139487028122,
        -0.029483282938599586,
        0.022417854517698288,
        0.08394145220518112,
        -0.029151611030101776,
        0.0972159281373024,
        0.02404862269759178,
        -0.06032510846853256,
        -0.06692899018526077,
        0.027179116383194923,
        -0.09077656269073486,
        0.13472320139408112,
        -0.0417431965470314,
        -0.07590369135141373,
        0.11781785637140274,
        -0.08213932812213898,
        -0.07104212045669556,
        -0.08050234615802765,
        0.1338890641927719,
        0.12141872197389603,
        -0.05940388888120651,
        0.06285818666219711,
        0.11982811242341995,
        0.020288631319999695,
        -0.06898058950901031,
        0.014351267367601395,
        0.04094658046960831,
        0.0842723622918129,
        -0.07407237589359283,
        0.13084888458251953,
        0.13532660901546478,
        0.12868845462799072,
        -0.06063763052225113,
        0.09238246083259583,
        -0.03406839072704315,
        -0.03462016209959984,
        -0.07111471146345139,
        0.014792256988584995,
        0.06829316914081573,
        0.11258363723754883,
        0.13733325898647308,
        -0.044766779989004135,
        0.010744246654212475,
        0.08006291091442108,
        -0.004033028148114681,
        0.1508559137582779,
        0.1413179636001587,
        0.13280828297138214,
        0.12924879789352417,
        0.09477322548627853
      ],
      [
        -0.06961733102798462,
        -0.08229433000087738,
        0.061047814786434174,
        0.10194633156061172,
        -0.05183391273021698,
        0.1501408964395523,
        -0.01759936846792698,
        0.16095174849033356,
        0.11274172365665436,
        0.08840708434581757,
        0.10679492354393005,
        0.1767505258321762,
        0.1505516618490219,
        0.1371464729309082,
        0.05028330162167549,
        0.0909109115600586,
        -0.021795351058244705,
        -0.0372234545648098,
        0.01234025415033102,
        0.05034445598721504,
        -0.1105780154466629,
        -0.12939594686031342,
        0.045649148523807526,
        -0.02006036415696144,
        0.03700637072324753,
        0.06115644797682762,
        -0.05774504318833351,
        -0.09647335857152939,
        0.03682510182261467,
        0.06093823164701462,
        0.07761766016483307,
        0.15687088668346405,
        -0.02724716253578663,
        0.0011144002201035619,
        0.024060187861323357,
        0.13617900013923645,
        0.14275120198726654,
        0.14814423024654388,
        0.0028153019957244396,
        0.04855433106422424,
        0.16402862966060638,
        -0.07470478117465973,
        -0.0788898691534996,
        -0.05714147165417671,
        -0.03647643327713013,
        0.014979671686887741,
        -0.034408412873744965,
        -0.09974406659603119,
        -0.04059189185500145,
        -0.07400428503751755,
        0.1244041919708252,
        0.1194208562374115,
        -0.007305613718926907,
        0.15395322442054749,
        -0.04972776025533676,
        0.15563736855983734,
        0.12852460145950317,
        0.007466238457709551,
        -0.021407797932624817,
        0.04799078777432442,
        0.0005163211026228964,
        -0.012463396415114403,
        0.09854254126548767,
        0.12362062186002731,
        0.00015377526869997382,
        -0.021416379138827324,
        0.15850436687469482,
        0.02215052768588066,
        0.10250082612037659,
        0.032395727932453156,
        0.022885117679834366,
        0.033431801944971085
      ],
      [
        0.11217232048511505,
        0.041872359812259674,
        0.08863599598407745,
        0.001674445578828454,
        -0.0802978053689003,
        0.06076008826494217,
        0.05570323020219803,
        0.08627958595752716,
        -0.06954512000083923,
        0.11114323139190674,
        0.02159891650080681,
        0.09707338362932205,
        0.03906760737299919,
        0.03073161095380783,
        0.08561182767152786,
        -0.007515400182455778,
        0.09858587384223938,
        -0.1139807179570198,
        -0.08710628002882004,
        -0.016238700598478317,
        0.09545333683490753,
        0.010869825258851051,
        0.10980764031410217,
        0.03145892545580864,
        -0.11970767378807068,
        0.07994019985198975,
        -0.08115529268980026,
        -0.016161002218723297,
        0.07856182754039764,
        0.05786653608083725,
        0.11515983939170837,
        -0.04395480826497078,
        -0.07395505905151367,
        0.11333116143941879,
        -0.03879725933074951,
        -0.02541668899357319,
        0.005750700831413269,
        -0.040904417634010315,
        -0.004900510422885418,
        -0.04670622572302818,
        -0.05637987330555916,
        0.030825139954686165,
        0.020796824246644974,
        -0.08801340311765671,
        -0.04816513508558273,
        0.09612651914358139,
        0.0757162868976593,
        0.015083047561347485,
        -0.08419590443372726,
        0.0579976849257946,
        -0.05189662054181099,
        -0.04617468640208244,
        -0.1039961576461792,
        -0.06543444842100143,
        -0.038109175860881805,
        0.05790259689092636,
        0.09666205942630768,
        0.04676033928990364,
        -0.033330630511045456,
        -0.04212237894535065,
        -0.05283482372760773,
        0.006908095441758633,
        0.08909687399864197,
        -0.03581126034259796,
        0.1221204325556755,
        0.06914784759283066,
        -0.048945482820272446,
        0.0092355040833354,
        0.049340154975652695,
        0.14952445030212402,
        0.027983324602246284,
        -0.06153782829642296
      ],
      [
        -0.020860660821199417,
        -0.07154955714941025,
        -0.009828450158238411,
        -0.03595972806215286,
        -0.04870367422699928,
        -0.05762980505824089,
        0.10735224932432175,
        -0.09928978234529495,
        0.06549078226089478,
        0.06852880120277405,
        -0.041595377027988434,
        0.13453146815299988,
        0.009394938126206398,
        -0.06983251124620438,
        0.03205343335866928,
        0.06000334024429321,
        0.09972886741161346,
        -0.028122495859861374,
        -0.03920675441622734,
        -0.06196077913045883,
        0.024557791650295258,
        -0.11034880578517914,
        -0.09086468070745468,
        -0.08855914324522018,
        -0.03297264873981476,
        -0.14009995758533478,
        0.01732046902179718,
        0.0494760200381279,
        -0.1213018000125885,
        -0.054261475801467896,
        0.10908696055412292,
        -0.0006710960296913981,
        -0.02544986456632614,
        -0.03559585288167,
        0.06153343990445137,
        0.041236456483602524,
        -0.01832764782011509,
        0.1465255320072174,
        0.1056930273771286,
        0.11857068538665771,
        -0.017672564834356308,
        -0.08056732267141342,
        -0.036319419741630554,
        0.09798698872327805,
        -0.12028571218252182,
        -0.08644242584705353,
        -0.04663709178566933,
        0.0334545336663723,
        -0.14119261503219604,
        -0.09214775264263153,
        0.011626916006207466,
        -0.019197994843125343,
        -0.04187745600938797,
        0.12096770107746124,
        -0.022040780633687973,
        0.13085907697677612,
        -0.0603470616042614,
        0.15207645297050476,
        0.022667279466986656,
        0.1276739239692688,
        -0.024552904069423676,
        0.009722822345793247,
        0.023014383390545845,
        0.12411117553710938,
        -0.056664079427719116,
        -0.03943581134080887,
        -0.004717307630926371,
        0.0513489730656147,
        0.09481024742126465,
        -0.0073944092728197575,
        0.021540500223636627,
        0.050415217876434326
      ],
      [
        0.10904356837272644,
        0.053495727479457855,
        -0.10861705988645554,
        0.11988845467567444,
        0.13081468641757965,
        -0.007827961817383766,
        -0.09056991338729858,
        0.04592273011803627,
        -0.02854464389383793,
        0.08633770793676376,
        0.1148187592625618,
        -0.07900480180978775,
        -0.10209447145462036,
        -0.12733115255832672,
        -0.100367970764637,
        -0.12515540421009064,
        0.07797174900770187,
        -0.005473139695823193,
        -0.06378358602523804,
        0.014930996112525463,
        -0.0444004125893116,
        -0.013277199119329453,
        -0.004201947711408138,
        -0.04943184182047844,
        -0.046618472784757614,
        0.08460577577352524,
        0.08182290941476822,
        0.014068297110497952,
        -0.010291465558111668,
        0.1131986603140831,
        -0.0974247008562088,
        -0.0005971189239062369,
        -0.11873559653759003,
        0.11960998922586441,
        0.1131754145026207,
        -0.09965842217206955,
        -0.011194021441042423,
        -0.07009464502334595,
        -0.01915493607521057,
        0.09018334001302719,
        0.11776174604892731,
        0.10842281579971313,
        -0.023223424330353737,
        0.1148398146033287,
        0.11578205227851868,
        0.08695486187934875,
        0.0911494791507721,
        -0.0979192927479744,
        0.030976850539445877,
        0.11582279205322266,
        0.14568068087100983,
        -0.07843969762325287,
        0.10235872119665146,
        0.12266141921281815,
        0.05778399854898453,
        -0.07005985081195831,
        -0.07412675023078918,
        0.04191742464900017,
        0.10191994905471802,
        0.12387041002511978,
        0.10939044505357742,
        -0.04521112143993378,
        0.028897510841488838,
        -0.042828336358070374,
        -0.007263698149472475,
        0.0815994068980217,
        0.023515578359365463,
        0.11719151586294174,
        -0.03506210446357727,
        -0.04073638468980789,
        0.12210080027580261,
        0.15229715406894684
      ],
      [
        0.21343250572681427,
        -0.019531140103936195,
        0.09831170737743378,
        0.16390562057495117,
        0.12216875702142715,
        0.07485532015562057,
        0.1485195755958557,
        0.05702485516667366,
        0.013595109805464745,
        0.1627611666917801,
        0.03099067322909832,
        0.20447570085525513,
        0.011640312150120735,
        0.03638787195086479,
        0.04256334900856018,
        0.10827331244945526,
        0.07968518882989883,
        0.14765678346157074,
        0.06756275147199631,
        0.11791164427995682,
        0.1386917680501938,
        0.01936998777091503,
        0.16307301819324493,
        0.14370736479759216,
        0.016150517389178276,
        -0.0024583907797932625,
        0.1585671752691269,
        0.18714801967144012,
        0.14102454483509064,
        -0.0009116209112107754,
        0.07061974704265594,
        0.0906064584851265,
        0.08603202551603317,
        0.19795076549053192,
        -0.02126740850508213,
        0.07687629759311676,
        0.035078756511211395,
        0.09603624045848846,
        0.1146625354886055,
        0.10583537817001343,
        0.1296788454055786,
        0.1864505410194397,
        0.17085012793540955,
        0.052743006497621536,
        0.09933461248874664,
        0.1696619838476181,
        0.1150406002998352,
        -0.029103530570864677,
        0.004072497133165598,
        0.025640372186899185,
        0.14612729847431183,
        0.2057088315486908,
        0.03375578671693802,
        0.13751579821109772,
        0.20925144851207733,
        0.13184206187725067,
        -0.020600728690624237,
        0.0022831070236861706,
        0.04492152854800224,
        0.010211087763309479,
        0.06551746279001236,
        0.1687958687543869,
        0.17079803347587585,
        0.05231323093175888,
        0.02316327951848507,
        0.19143256545066833,
        0.09119194746017456,
        0.17800119519233704,
        -0.019034333527088165,
        0.10514745116233826,
        0.16898377239704132,
        0.1936575025320053
      ],
      [
        0.08130700886249542,
        -0.04889580234885216,
        0.04946426674723625,
        -0.013987546786665916,
        0.05060930177569389,
        -0.020004287362098694,
        0.03107369691133499,
        -0.06304848939180374,
        0.04751278832554817,
        0.03737451881170273,
        -0.028222763910889626,
        0.12166579812765121,
        -0.07500086724758148,
        0.05012122541666031,
        -0.028107095509767532,
        -0.033139653503894806,
        -0.05798584222793579,
        0.021505894139409065,
        0.025975214317440987,
        -0.033455923199653625,
        0.0436529740691185,
        0.09407263249158859,
        0.1504410207271576,
        -0.014363528229296207,
        0.09228872507810593,
        -0.015461412258446217,
        0.0736340582370758,
        0.07986664026975632,
        0.11216022074222565,
        0.02578660473227501,
        0.08694541454315186,
        0.13625231385231018,
        0.15037161111831665,
        0.020872492343187332,
        0.030051447451114655,
        -0.01881452091038227,
        0.028091484680771828,
        0.06837157905101776,
        0.1350766122341156,
        -0.08593843877315521,
        0.0869053527712822,
        0.06269630044698715,
        0.06646067649126053,
        0.13591456413269043,
        0.0707586258649826,
        -0.0029843293596059084,
        0.1511058509349823,
        -0.038819681853055954,
        0.1014946922659874,
        0.1450904905796051,
        0.1692841500043869,
        0.06183713674545288,
        0.1575220823287964,
        -0.003358976449817419,
        0.1671777218580246,
        0.06136881932616234,
        0.0024576401337981224,
        -0.0356384702026844,
        0.008200151845812798,
        -0.08465522527694702,
        0.12405809760093689,
        -0.058169856667518616,
        0.06390760838985443,
        -0.0204321201890707,
        0.12843048572540283,
        0.014479594305157661,
        0.13839277625083923,
        -0.07826723903417587,
        0.11941418796777725,
        -0.011723392643034458,
        -0.029246216639876366,
        0.1272142082452774
      ],
      [
        -0.11974728107452393,
        -0.1289205551147461,
        -0.1248960793018341,
        0.019438304007053375,
        -0.08188065141439438,
        -0.0381324328482151,
        -0.10690498352050781,
        0.026999296620488167,
        0.012014289386570454,
        0.0695999264717102,
        -0.13091452419757843,
        0.028362220153212547,
        0.09235943853855133,
        -0.08396738022565842,
        -0.020233433693647385,
        0.07245946675539017,
        -0.11102314293384552,
        -0.12561063468456268,
        -0.06865403801202774,
        0.024060329422354698,
        0.07386869937181473,
        -0.0406985767185688,
        0.01755954883992672,
        0.06235306337475777,
        0.00976994913071394,
        -0.08269115537405014,
        -0.09573109447956085,
        -0.0659375786781311,
        -0.028108971193432808,
        -0.049175579100847244,
        0.1017792671918869,
        -0.04943455755710602,
        0.06700724363327026,
        0.05454987287521362,
        0.10731663554906845,
        -0.0008726237574592233,
        0.007801394443958998,
        -0.04128284007310867,
        0.0769081562757492,
        -0.13011373579502106,
        -0.07251318544149399,
        0.06468458473682404,
        -0.13844111561775208,
        0.0563616044819355,
        0.09997134655714035,
        -0.0562053881585598,
        0.07276459783315659,
        -0.07608449459075928,
        -0.027583159506320953,
        -0.1002487987279892,
        0.019901271909475327,
        -0.08746177703142166,
        0.012376642785966396,
        0.027109384536743164,
        0.007478892803192139,
        0.06352713704109192,
        0.04149872064590454,
        -0.045834094285964966,
        0.07213956117630005,
        0.043961819261312485,
        -0.11914737522602081,
        -0.027644677087664604,
        -0.1132439374923706,
        -0.08766015619039536,
        0.07778891175985336,
        0.00033754963078536093,
        0.01369539089500904,
        -0.11639515310525894,
        -0.13816653192043304,
        0.010490769520401955,
        0.007427610456943512,
        -0.03375045582652092
      ],
      [
        -0.049692682921886444,
        0.1128639429807663,
        -0.027270035818219185,
        0.04893529787659645,
        0.04154236987233162,
        0.11261793971061707,
        0.08598984032869339,
        0.008786131627857685,
        -0.1017172783613205,
        0.054661378264427185,
        0.0872620940208435,
        0.11957583576440811,
        -0.036976512521505356,
        0.07395888864994049,
        0.10035867244005203,
        0.10224022716283798,
        -0.034460995346307755,
        0.08087430894374847,
        0.05342328920960426,
        0.14090178906917572,
        0.13805559277534485,
        -0.014104655012488365,
        -0.07979750633239746,
        0.14033281803131104,
        0.10854116827249527,
        -0.10014079511165619,
        -0.04436080902814865,
        -0.04586115479469299,
        0.10224072635173798,
        -0.10623683780431747,
        -0.06003250554203987,
        0.05886872857809067,
        -0.03225699067115784,
        -0.003995606210082769,
        0.07023458927869797,
        -0.05697792023420334,
        -0.017018701881170273,
        0.11505308747291565,
        -0.04835227504372597,
        0.04323508217930794,
        0.012516504153609276,
        -0.048713941127061844,
        0.11817942559719086,
        0.01558712963014841,
        -0.05799109861254692,
        -0.009445002302527428,
        -0.0705895647406578,
        0.029267575591802597,
        0.1032741442322731,
        -0.057591959834098816,
        -0.056415364146232605,
        -0.1060069277882576,
        0.03453260287642479,
        0.10648782551288605,
        -0.026850011199712753,
        -0.09044612944126129,
        -0.06632451713085175,
        -0.032959211617708206,
        0.048899926245212555,
        -0.10437259078025818,
        0.028769414871931076,
        -0.06948473304510117,
        -0.0999608188867569,
        -0.0783475860953331,
        -0.09020543098449707,
        0.08364837616682053,
        0.008921963162720203,
        -0.0698118731379509,
        0.1527140736579895,
        0.09722095727920532,
        -0.03347492590546608,
        -0.053670696914196014
      ],
      [
        0.06330221146345139,
        0.16182398796081543,
        0.12599636614322662,
        -0.03155185282230377,
        0.03420950472354889,
        0.12751205265522003,
        0.12345793843269348,
        0.0002670078829396516,
        0.023411264643073082,
        0.04062501713633537,
        0.08983869105577469,
        0.0022552453447133303,
        -0.11153830587863922,
        -0.1444699615240097,
        -0.11056719720363617,
        -0.13700252771377563,
        0.1150808110833168,
        0.011775016784667969,
        -0.1130840927362442,
        -0.06268858909606934,
        0.032241981476545334,
        -0.04455266892910004,
        -0.010416345670819283,
        0.09858684986829758,
        -0.017195746302604675,
        0.10487017780542374,
        -0.03381657227873802,
        0.10257239639759064,
        0.08955162018537521,
        0.01984376646578312,
        -0.08625034242868423,
        0.13319973647594452,
        0.020305147394537926,
        -0.07360699772834778,
        0.026523401960730553,
        0.04807719215750694,
        -0.0004924428649246693,
        0.07277749478816986,
        -0.04951458051800728,
        -0.054905131459236145,
        0.019449442625045776,
        0.1146790012717247,
        -0.05571787804365158,
        -0.08433609455823898,
        0.10870250314474106,
        -0.04226543381810188,
        0.0066950200125575066,
        0.06302192807197571,
        0.14248338341712952,
        0.07221260666847229,
        -0.037325967103242874,
        0.1374005377292633,
        0.0035203159786760807,
        -0.03562863916158676,
        0.15347759425640106,
        0.13142485916614532,
        0.14431670308113098,
        -0.10306809097528458,
        -0.05171520262956619,
        0.029845211654901505,
        0.021732760593295097,
        -0.0027717729099094868,
        -0.09746477007865906,
        -0.002618492813780904,
        0.13495458662509918,
        0.10825030505657196,
        0.10939279943704605,
        0.007103961426764727,
        0.08809538930654526,
        0.11067213863134384,
        -0.002139158546924591,
        0.11025045067071915
      ],
      [
        0.08954470604658127,
        -0.08544428646564484,
        -0.115022674202919,
        -0.03395003452897072,
        0.09049918502569199,
        -0.11231892555952072,
        -0.04030899703502655,
        -0.05107157304883003,
        -0.10466153919696808,
        0.03496488556265831,
        -0.12274067848920822,
        0.010356605052947998,
        0.005090002436190844,
        -0.05266006663441658,
        -0.08520840853452682,
        0.09780826419591904,
        0.035919662564992905,
        0.0576639287173748,
        0.09448228776454926,
        -0.09226233512163162,
        -0.009866255335509777,
        -0.05813028663396835,
        0.10851122438907623,
        -0.07006356120109558,
        -0.02528928965330124,
        -0.036486078053712845,
        0.026440905407071114,
        -0.04556286334991455,
        -0.09550575166940689,
        0.06841069459915161,
        -0.036491673439741135,
        0.12160589545965195,
        -0.10401800274848938,
        0.01559455320239067,
        -0.06382471323013306,
        -0.09806862473487854,
        -0.05099516734480858,
        -0.019680511206388474,
        0.10945125669240952,
        -0.12443295121192932,
        -0.10969636589288712,
        -0.11677592247724533,
        0.05612499639391899,
        0.016832755878567696,
        0.12180198729038239,
        -0.05156432092189789,
        -0.037302397191524506,
        0.02429911494255066,
        0.13620439171791077,
        -0.02877834439277649,
        -0.0069605084136128426,
        -0.08565516769886017,
        0.10558608919382095,
        0.0671987384557724,
        0.03495350852608681,
        -0.062169015407562256,
        -0.08277062326669693,
        0.08391744643449783,
        0.09876375645399094,
        -0.09315253794193268,
        0.09479465335607529,
        0.018267253413796425,
        0.04748816043138504,
        0.1264277696609497,
        0.08222999423742294,
        0.1192634329199791,
        -0.055857833474874496,
        0.06116697937250137,
        0.07842176407575607,
        0.03397199138998985,
        0.11926218867301941,
        0.1393444687128067
      ],
      [
        0.12819203734397888,
        -0.020461151376366615,
        0.04961397126317024,
        -0.01752997562289238,
        -0.07958190888166428,
        -0.050241436809301376,
        0.08767013251781464,
        -0.051581308245658875,
        0.08919131010770798,
        0.026236847043037415,
        -0.11666744947433472,
        0.009787310846149921,
        0.04147620499134064,
        -0.07656223326921463,
        0.021770142018795013,
        0.06406573951244354,
        0.13447053730487823,
        0.1477070301771164,
        0.0393751822412014,
        0.0710005834698677,
        -0.0024958187714219093,
        0.046155959367752075,
        0.026054896414279938,
        0.11060536652803421,
        -0.03466948866844177,
        0.06623769551515579,
        -0.09356030821800232,
        0.010174861177802086,
        0.07275944203138351,
        -0.03567903861403465,
        -0.0704810842871666,
        -0.10854331403970718,
        -0.08851060271263123,
        0.06664504110813141,
        0.0789477601647377,
        0.004380662925541401,
        -0.094057098031044,
        -0.006686887703835964,
        -0.06850140541791916,
        -0.08495607227087021,
        -0.05952981114387512,
        -0.014303965494036674,
        0.1129176989197731,
        -0.06694012135267258,
        -0.06619186699390411,
        0.0845111533999443,
        0.0004865345254074782,
        -0.08543279021978378,
        -0.036476537585258484,
        0.1229708343744278,
        0.06067046523094177,
        0.09684780240058899,
        -0.06387031078338623,
        -0.09724967926740646,
        -0.013351965695619583,
        -0.07674901187419891,
        0.09394757449626923,
        0.10491689294576645,
        -0.01261068880558014,
        -0.06802494823932648,
        0.018491240218281746,
        0.10705684125423431,
        0.06362168490886688,
        0.1063583567738533,
        0.07808215171098709,
        0.030580740422010422,
        0.13321177661418915,
        -0.017210468649864197,
        -0.011792273260653019,
        -0.04076988622546196,
        0.13363762199878693,
        0.0632399171590805
      ],
      [
        0.02202301099896431,
        0.021466484293341637,
        0.010183391161262989,
        -0.07746361196041107,
        0.11830975115299225,
        0.037697065621614456,
        0.015136856585741043,
        -0.03140696883201599,
        -0.042950134724378586,
        0.10191801935434341,
        0.09450801461935043,
        0.12526895105838776,
        0.12021017074584961,
        0.062024883925914764,
        -0.09733117371797562,
        0.024621130898594856,
        0.019824661314487457,
        -0.08080409467220306,
        -0.054786812514066696,
        0.018769150599837303,
        0.10803064703941345,
        0.07874568551778793,
        -0.03516466170549393,
        0.05195979028940201,
        -0.11524958908557892,
        0.11690346896648407,
        0.07330439239740372,
        -0.07622489333152771,
        0.10461845993995667,
        -0.07389108091592789,
        -0.0551229864358902,
        0.014826360158622265,
        0.03922811523079872,
        0.07280613481998444,
        0.012307647615671158,
        -0.009699818678200245,
        -0.08584456145763397,
        0.10366054624319077,
        0.08669686317443848,
        -0.09400098025798798,
        -0.05521218106150627,
        0.08261923491954803,
        0.029616734012961388,
        0.05899066850543022,
        0.09624136239290237,
        0.11572209745645523,
        -0.06249924376606941,
        0.09515774250030518,
        0.05382724106311798,
        0.04285687580704689,
        -0.03433217108249664,
        0.045619167387485504,
        0.12082047015428543,
        -0.061736784875392914,
        0.055720627307891846,
        -0.07984376698732376,
        0.05179498717188835,
        0.015146275982260704,
        -0.019903989508748055,
        0.13043920695781708,
        0.05224430188536644,
        0.06774597615003586,
        0.025791965425014496,
        -0.005262002814561129,
        -0.10786695778369904,
        0.025800680741667747,
        -0.1075192391872406,
        -0.07949642837047577,
        0.05501336604356766,
        -0.0906836986541748,
        0.06589628756046295,
        -0.016106553375720978
      ],
      [
        0.018991846591234207,
        -0.08586525917053223,
        -0.0006540214526467025,
        0.0356910340487957,
        0.008570753037929535,
        0.049815647304058075,
        -0.022214636206626892,
        -0.0752667486667633,
        -0.07079893350601196,
        -0.0846886858344078,
        -0.10999418795108795,
        0.022267818450927734,
        0.02338879555463791,
        0.07956966012716293,
        0.009191221557557583,
        -0.056892845779657364,
        0.09682191908359528,
        0.11064831167459488,
        -0.09681427478790283,
        -0.10184793919324875,
        0.08790001273155212,
        0.0099972914904356,
        -0.14636191725730896,
        0.0371023565530777,
        -0.01817931793630123,
        0.011507941409945488,
        -0.11804811656475067,
        -0.11010515689849854,
        0.015511183999478817,
        0.05968595668673515,
        -0.11459172517061234,
        -0.015128938481211662,
        0.03719324618577957,
        -0.02351026050746441,
        0.06794194877147675,
        0.1007327064871788,
        0.050914466381073,
        -0.12327999621629715,
        -0.052712492644786835,
        0.05506349727511406,
        0.027167852967977524,
        0.07567071169614792,
        0.057451631873846054,
        0.074090376496315,
        -0.11557832360267639,
        -0.025971772149205208,
        0.09441622346639633,
        -0.02173963561654091,
        0.0497400276362896,
        -0.026543693616986275,
        0.04192205145955086,
        -0.07044676691293716,
        0.09265580028295517,
        -0.13313642144203186,
        -0.03597772866487503,
        0.05036332830786705,
        0.10583536326885223,
        0.005668173544108868,
        -0.08333960175514221,
        -0.0791953057050705,
        0.006027887109667063,
        0.08044793456792831,
        -0.07826824486255646,
        -0.0712389424443245,
        0.042670246213674545,
        0.0381399504840374,
        -0.05385373532772064,
        -0.05170535668730736,
        0.06734774261713028,
        -0.04798685759305954,
        -0.04735951125621796,
        0.02472938597202301
      ],
      [
        -0.12908236682415009,
        -0.15274302661418915,
        -0.13523681461811066,
        0.08612220734357834,
        0.03256168216466904,
        0.07656889408826828,
        -0.06672897934913635,
        0.00037645152769982815,
        0.09638510644435883,
        0.05133219063282013,
        -0.05817166715860367,
        -0.0067635211162269115,
        -0.06358687579631805,
        -0.04091665893793106,
        0.08647987991571426,
        0.055575333535671234,
        0.09308964759111404,
        -0.02252296358346939,
        -0.059282299131155014,
        -0.018068665638566017,
        -0.12647323310375214,
        -0.053224992007017136,
        0.06092566251754761,
        -0.09867613762617111,
        0.04285947233438492,
        -0.08340775221586227,
        -0.0464971587061882,
        -0.13991741836071014,
        -0.08222053200006485,
        -0.04630246013402939,
        -0.06491931527853012,
        -0.09469279646873474,
        0.03588394820690155,
        -0.03801927715539932,
        -0.06387732177972794,
        0.006813699379563332,
        -0.0899236872792244,
        0.009445955976843834,
        0.07217779010534286,
        0.10273334383964539,
        -0.10810836404561996,
        -0.13452106714248657,
        -0.06193859502673149,
        0.004234631080180407,
        0.028788525611162186,
        -0.04590960219502449,
        -0.042248938232660294,
        0.00590351689606905,
        -0.06863570213317871,
        0.02710089646279812,
        0.031528595834970474,
        -0.08114806562662125,
        -0.052557285875082016,
        0.0720919817686081,
        0.03239301219582558,
        -0.08356659859418869,
        -0.012154500931501389,
        -0.06486963480710983,
        0.07939371466636658,
        -0.1070604920387268,
        -0.07177343964576721,
        0.09676633030176163,
        0.07348015159368515,
        0.08045819401741028,
        0.10194600373506546,
        0.03283919021487236,
        -0.1343967765569687,
        0.022690201178193092,
        -0.14499463140964508,
        -0.02760843187570572,
        0.044033825397491455,
        -0.11380501091480255
      ],
      [
        -0.09146842360496521,
        0.04801390320062637,
        0.06778918951749802,
        -0.010680081322789192,
        0.08147238194942474,
        0.10024033486843109,
        0.1292097568511963,
        0.09134025126695633,
        0.06039988622069359,
        0.10628642141819,
        -0.031684376299381256,
        0.07274431735277176,
        0.061382874846458435,
        -0.043832968920469284,
        -0.021806448698043823,
        0.12410835176706314,
        0.07605012506246567,
        -0.03507835045456886,
        -0.020011939108371735,
        0.02327810600399971,
        -0.0054788896813988686,
        -0.024815620854496956,
        -0.08218595385551453,
        -0.0969371348619461,
        0.1197001039981842,
        0.09512853622436523,
        0.005796882323920727,
        0.11807432770729065,
        -0.0032244976609945297,
        0.06336726248264313,
        0.11846242100000381,
        -0.06097979098558426,
        -0.06565265357494354,
        -0.04723464697599411,
        -0.09346607327461243,
        0.04953818395733833,
        -0.09108667075634003,
        0.012020480819046497,
        0.11967744678258896,
        0.0060550253838300705,
        0.09885603934526443,
        0.007500361185520887,
        0.14187467098236084,
        0.12930236756801605,
        -0.09258995950222015,
        0.062456343322992325,
        -0.013377376832067966,
        -0.011001848615705967,
        -0.01944173499941826,
        0.06562931835651398,
        0.07560940086841583,
        -0.008165225386619568,
        0.11548862606287003,
        0.024802925065159798,
        0.05917452275753021,
        0.08946385979652405,
        -0.07286253571510315,
        -0.0954938530921936,
        -0.06652545183897018,
        0.021582085639238358,
        0.05958652123808861,
        -0.032225336879491806,
        -0.06697190552949905,
        -0.036174625158309937,
        0.01918320171535015,
        -0.00045396012137643993,
        -0.06943827122449875,
        0.06666557490825653,
        -0.004180203657597303,
        0.05774271488189697,
        0.06903257220983505,
        -0.005926452111452818
      ],
      [
        -0.12167052924633026,
        0.07347901910543442,
        0.052944622933864594,
        0.04055964946746826,
        -0.014974025078117847,
        0.020001087337732315,
        -0.08215908706188202,
        0.10499893128871918,
        -0.12123050540685654,
        0.05489008501172066,
        -0.0024451178032904863,
        -0.13246563076972961,
        0.049728695303201675,
        -0.02617732062935829,
        -0.0307767316699028,
        -0.01184773538261652,
        0.06558782607316971,
        -0.003774188691750169,
        -0.07565023750066757,
        -0.028657522052526474,
        -0.05119355395436287,
        0.10693394392728806,
        0.0420687198638916,
        0.11582385748624802,
        -0.1054627001285553,
        0.001105686416849494,
        -0.09122282266616821,
        0.037029460072517395,
        -0.028619755059480667,
        -0.03232388570904732,
        0.09342003613710403,
        -0.03157275542616844,
        -0.09274093061685562,
        -0.10570204257965088,
        0.08937567472457886,
        -0.010819478891789913,
        -0.032145529985427856,
        -0.047929584980010986,
        0.09272559732198715,
        0.07826606929302216,
        -0.09132398664951324,
        -0.10230210423469543,
        -0.034762099385261536,
        0.09253530204296112,
        0.05430779978632927,
        -0.0868132933974266,
        0.05682696774601936,
        0.07500280439853668,
        0.03665119782090187,
        0.12853719294071198,
        -0.03946760669350624,
        -0.04982875660061836,
        0.06221841275691986,
        -0.10066189616918564,
        0.13146579265594482,
        -0.10308908671140671,
        -0.04914616793394089,
        -0.006353996228426695,
        -0.0220567025244236,
        0.026626231148838997,
        -0.01863698847591877,
        -0.08356797695159912,
        0.03166449815034866,
        -0.10439112782478333,
        0.11215104162693024,
        0.022398700937628746,
        0.06180325150489807,
        0.10927867889404297,
        -0.07919316738843918,
        -0.044448934495449066,
        0.06427782028913498,
        -0.05197380110621452
      ],
      [
        -0.038969073444604874,
        0.10500781983137131,
        0.03731647878885269,
        0.006364785600453615,
        0.062496744096279144,
        0.0827905610203743,
        0.07083499431610107,
        0.03683196380734444,
        0.0035330711398273706,
        0.023463601246476173,
        0.08976392447948456,
        0.049974944442510605,
        0.06182477995753288,
        0.10961992293596268,
        0.1266341358423233,
        -0.0024714225437492132,
        0.048266101628541946,
        -0.09017826616764069,
        -0.02464844472706318,
        0.02079104632139206,
        0.01907982863485813,
        0.07885127514600754,
        0.09050675481557846,
        0.10655447840690613,
        -0.03419184312224388,
        0.026555560529232025,
        0.12898850440979004,
        0.10841961950063705,
        0.06303161382675171,
        -0.06159702315926552,
        0.13097026944160461,
        0.09193555265665054,
        -0.00585620291531086,
        0.1368945688009262,
        0.13729098439216614,
        0.024651652202010155,
        -0.0939929187297821,
        0.08033908903598785,
        0.11270604282617569,
        0.12779270112514496,
        0.07580212503671646,
        0.0016419737366959453,
        -0.12855379283428192,
        0.0821765810251236,
        -0.03982093185186386,
        -0.06370175629854202,
        0.04132108762860298,
        0.06177791580557823,
        -0.09543030709028244,
        0.03559859097003937,
        0.01762714609503746,
        -0.0631854310631752,
        0.12764883041381836,
        0.10614338517189026,
        0.04516754299402237,
        0.18338733911514282,
        0.02450370602309704,
        0.04565298557281494,
        0.12047009915113449,
        0.068214550614357,
        0.06298819184303284,
        0.16680367290973663,
        0.10407823324203491,
        0.1562097668647766,
        -0.05121299624443054,
        0.05769801139831543,
        0.010499510914087296,
        0.09866403788328171,
        0.12616561353206635,
        0.0434279665350914,
        0.13369974493980408,
        -0.009631799533963203
      ],
      [
        -0.10537183284759521,
        -0.13076817989349365,
        0.03887006640434265,
        0.11125588417053223,
        0.059986986219882965,
        0.03301851823925972,
        0.06046881526708603,
        0.08456593006849289,
        0.09043214470148087,
        -0.007791760377585888,
        0.10617898404598236,
        0.07449230551719666,
        0.03041951358318329,
        0.07331831753253937,
        -0.06480702012777328,
        -0.04502933844923973,
        -0.07894876599311829,
        -0.0049258042126894,
        0.10170351713895798,
        0.05404701083898544,
        0.09357384592294693,
        -0.1342385709285736,
        -0.06286808103322983,
        0.05394133925437927,
        -0.11364373564720154,
        -0.08045419305562973,
        -0.10467789322137833,
        -0.12113754451274872,
        0.014676850289106369,
        -0.0041858903132379055,
        -0.018460869789123535,
